#ifndef __WEIGHT_H__
#define __WEIGHT_H__

#include "type.h"
#include "parameter.h"

const weight_t conv1_weight_sub0[WEIGHT_ROW][WEIGHT_COL] =
{  {     0.1814664900 ,      0.3274464905 ,      0.3202091157 ,     -0.0082066469 ,     -0.2243787944 },
   {     0.1755842716 ,      0.4879103005 ,      0.4327221513 ,     -0.1278301924 ,     -0.4778502584 },
   {    -0.1002311781 ,      0.2652467489 ,      0.4680193067 ,      0.1991636902 ,     -0.0991309285 },
   {     0.0558870286 ,      0.1521130949 ,      0.3804022968 ,      0.4070093334 ,      0.1657082587 },
   {     0.1043599918 ,      0.2271806449 ,     -0.0109776203 ,      0.3262324631 ,      0.2081526965 } };

const weight_t conv1_weight_sub1[WEIGHT_ROW][WEIGHT_COL] = 
{  {     0.2160148323 ,      0.6490345001 ,      0.3758903146 ,      0.6028202176 ,      0.2751030326 },
   {     0.2119859606 ,      0.4546004534 ,      0.6504338384 ,      0.1725174040 ,      0.3370919824 },
   {    -0.1479521990 ,     -0.2163283080 ,     -0.0679804012 ,      0.2340595275 ,      0.1645789295 },
   {    -0.2809998691 ,     -0.2351932079 ,     -0.4304267764 ,      0.0202988908 ,      0.1958651096 },
   {    -0.4547146559 ,     -0.4377094209 ,     -0.4279997647 ,     -0.2887023985 ,      0.0091215847 } };

const weight_t conv1_weight_sub2[WEIGHT_ROW][WEIGHT_COL] =
{  {     0.0645512268 ,      0.1317860037 ,      0.2373217344 ,      0.3209391534 ,      0.0307303146 },
   {     0.0095267529 ,      0.5718843341 ,      0.3194968104 ,      0.3758032322 ,     -0.0743223950 },
   {     0.3630037308 ,      0.6435133815 ,      0.7593921423 ,      0.0100690946 ,     -0.1949654073 },
   {    -0.0386444516 ,      0.2008746862 ,      0.2881838083 ,     -0.0333413742 ,     -0.1265579313 },
   {     0.0050803768 ,      0.1956532747 ,     -0.2039324492 ,     -0.4230515659 ,     -0.6380890012 } };


const weight_t conv2_weight_sub0[CONV2_WEIGHT_CH][WEIGHT_ROW][WEIGHT_COL] = 
  { { {     0.2842950523 ,     -0.2083601952 ,     -0.3425503969 ,     -0.0220788196 ,      0.3793658316   },
      {     0.4073196948 ,     -0.0404425226 ,     -0.1477679312 ,      0.1384367645 ,      0.1432775110   },
      {     0.1258084476 ,     -0.0142911505 ,     -0.0533211119 ,      0.0229931362 ,     -0.1363717169   },
      {     0.0162106957 ,      0.1190320179 ,     -0.0236447416 ,     -0.0383838937 ,     -0.0886411890   },
      {     0.1028206199 ,      0.0519955903 ,      0.0429416411 ,     -0.0472797044 ,      0.0532210432   } },

   {  {    -0.2471521497 ,     -0.1691723317 ,     -0.1182227582 ,      0.1701329350 ,      0.1215784922   },
      {    -0.1415700614 ,     -0.3033797443 ,     -0.3980172276 ,     -0.2788817883 ,      0.0966951177   },
      {    -0.0662348345 ,     -0.4615173042 ,     -0.3355550468 ,     -0.2302658707 ,     -0.0263199322   },
      {    -0.0641315728 ,     -0.2208636999 ,     -0.1557465941 ,     -0.0216671824 ,     -0.2810685635   },
      {     0.0848965272 ,     -0.0422952734 ,      0.1549743563 ,     -0.0213115867 ,     -0.0706563964   } },

   {  {     0.0872994959 ,     -0.1823639125 ,     -0.2687362432 ,      0.0571229458 ,      0.3196342289   },
      {     0.2145247161 ,     -0.1721110940 ,     -0.1706092805 ,      0.0714633167 ,      0.2714477479   },
      {     0.2128037214 ,      0.0093914187 ,      0.0498088710 ,      0.1231198162 ,     -0.0735512301   },
      {    -0.0349729955 ,     -0.0234651845 ,     -0.0053252694 ,      0.1557909548 ,     -0.1028265655   },
      {     0.1648471355 ,      0.0418416560 ,      0.1537489891 ,     -0.1295536608 ,      0.1195706949   } } };

const weight_t conv2_weight_sub1[CONV2_WEIGHT_CH][WEIGHT_ROW][WEIGHT_COL] = 
  { { {    -0.0204094592 ,      0.0492883660 ,     -0.1340968758 ,     -0.0129802106 ,      0.0259615351   },
      {    -0.1839854419 ,     -0.2986480892 ,      0.0098482789 ,     -0.0149630764 ,      0.0185991116   },
      {     0.1158595756 ,     -0.0322421491 ,     -0.1711258143 ,     -0.0765808523 ,      0.0235497244   },
      {     0.0458464101 ,      0.0673180670 ,     -0.0529191829 ,      0.0471001305 ,      0.1491913646   },
      {    -0.0585985966 ,      0.0468998514 ,      0.2583809197 ,      0.0546531826 ,      0.0554428771   } },

   {  {     0.0233152192 ,     -0.0799767300 ,     -0.0531434007 ,      0.1105645671 ,      0.2400184572   },
      {    -0.1141585708 ,      0.2329774946 ,      0.3371097744 ,      0.4141158462 ,      0.0723861530   },
      {    -0.1044728681 ,     -0.1454764307 ,     -0.1739799380 ,      0.1025622562 ,     -0.0429940745   },
      {     0.2237101197 ,      0.1554436237 ,     -0.0679115653 ,     -0.0073833521 ,     -0.2550670207   },
      {     0.2439845204 ,      0.3312051892 ,      0.3402401507 ,      0.0165714957 ,     -0.3472040892   } },

   {  {     0.1397105008 ,      0.1725295782 ,      0.1138492301 ,      0.0466883443 ,     -0.1359414905   },
      {    -0.1668278128 ,      0.0491356254 ,     -0.0964802057 ,     -0.0827590227 ,     -0.1699528247   },
      {    -0.0292722229 ,     -0.2060098350 ,     -0.3075931966 ,     -0.2826884985 ,      0.0249688178   },
      {     0.0584907793 ,      0.0515331104 ,      0.1024009511 ,      0.1324681044 ,      0.1367955506   },
      {     0.0051984764 ,      0.0504508503 ,      0.0783497691 ,      0.0722994879 ,      0.0173967145   } } };

const weight_t conv2_weight_sub2[CONV2_WEIGHT_CH][WEIGHT_ROW][WEIGHT_COL] = 
  { { {    -0.1930508763 ,      0.0818066001 ,     -0.3242136836 ,     -0.4000120461 ,     -0.1358417720   },
      {     0.1726647913 ,     -0.1787232906 ,     -0.1582034081 ,     -0.1562339514 ,     -0.1369640529   },
      {     0.0893957391 ,      0.0820856467 ,     -0.0264778826 ,      0.2172154188 ,     -0.0606753416   },
      {     0.1105833128 ,     -0.0236336105 ,      0.0466385670 ,      0.0173674282 ,      0.0165603310   },
      {    -0.3256863952 ,      0.0426937416 ,      0.1256495565 ,     -0.0471014455 ,     -0.0638385937   } },

   {  {    -0.1926386207 ,      0.0184478126 ,     -0.0330067240 ,      0.1536523700 ,      0.2761278749   },
      {    -0.3924831748 ,     -0.4676801860 ,     -0.1690165251 ,     -0.1519312114 ,     -0.0778031275   },
      {     0.2355908155 ,      0.0671805888 ,      0.0482006371 ,      0.0850304514 ,     -0.0761828050   },
      {     0.6266516447 ,      0.4165776372 ,      0.2902941406 ,      0.3934727013 ,      0.1581649184   },
      {     0.1389234960 ,      0.0310907699 ,      0.0785955191 ,      0.0522484183 ,     -0.0854246467   } },

   {  {    -0.1180382520 ,      0.0358351469 ,     -0.0936409533 ,     -0.3179049194 ,      0.3491430283   },
      {    -0.0603141300 ,     -0.3207390308 ,     -0.4761465490 ,     -0.4546007812 ,     -0.3842187822   },
      {     0.1818210185 ,     -0.0857284293 ,      0.1999664009 ,     -0.0486357436 ,     -0.0347813591   },
      {     0.1321958154 ,      0.2002586573 ,     -0.1404460669 ,      0.1394693851 ,      0.2295113504   },
      {    -0.0240987968 ,     -0.1460834891 ,     -0.0408345535 ,      0.1317141801 ,     -0.1001249477   } } };

const weight_t conv2_weight_sub3[CONV2_WEIGHT_CH][WEIGHT_ROW][WEIGHT_COL] =
  { { {    -0.1934210360 ,     -0.1478531808 ,      0.0403393768 ,      0.1644036323 ,      0.2342057526   },
      {    -0.1614309847 ,     -0.2109842151 ,      0.0430257432 ,      0.2557768524 ,      0.0371840484   },
      {     0.0350649208 ,     -0.2610899508 ,      0.1813662797 ,      0.1810877323 ,      0.1102951244   },
      {    -0.1869539618 ,     -0.2079602331 ,      0.2312575430 ,      0.1449537575 ,     -0.1655798405   },
      {    -0.0589300692 ,      0.1468533128 ,      0.2224982977 ,      0.1035198793 ,     -0.2067605853   } },

   {  {    -0.1246296242 ,      0.1692011505 ,      0.2355017960 ,     -0.2556084991 ,     -0.3711826503   },
      {    -0.2205056995 ,     -0.0121543631 ,     -0.3243337274 ,     -0.4800093472 ,     -0.0241911002   },
      {     0.0617599152 ,     -0.0809403807 ,     -0.3055185676 ,     -0.3002439141 ,     -0.0978599787   },
      {    -0.0493140034 ,     -0.1353583783 ,      0.0622171052 ,     -0.2116947621 ,     -0.0725306794   },
      {    -0.1969927102 ,      0.1928804219 ,      0.0862291604 ,     -0.0490176864 ,     -0.0183823947   } },

   {  {     0.0513850451 ,     -0.3206143975 ,      0.0131711448 ,      0.3478748202 ,     -0.0039839009   },
      {    -0.1785680056 ,     -0.3187011182 ,      0.0839756653 ,      0.2771644890 ,      0.0855406374   },
      {    -0.0677624643 ,     -0.1506849676 ,      0.1289594769 ,      0.3138051927 ,      0.0021156466   },
      {    -0.1597488075 ,      0.0308080204 ,      0.2424125522 ,     -0.0225159433 ,     -0.0804109648   },
      {    -0.0152851883 ,      0.0040785805 ,      0.1795266271 ,     -0.0177358575 ,     -0.1704394966   } } };


const weight_t conv2_weight_sub4[CONV2_WEIGHT_CH][WEIGHT_ROW][WEIGHT_COL] = 
  { { {     0.0652225539 ,     -0.1072247252 ,     -0.1075057685 ,      0.1147381142 ,     -0.1110163257   },
      {    -0.1808956563 ,     -0.0257521886 ,      0.1694607139 ,      0.1631855965 ,     -0.1307656318   },
      {     0.1513822377 ,      0.0078304615 ,     -0.0381873995 ,      0.2639190257 ,      0.2530842125   },
      {    -0.1797897816 ,      0.0741427839 ,      0.0639990494 ,      0.0992664546 ,     -0.0197196603   },
      {     0.0016738217 ,     -0.0532903410 ,     -0.2406328171 ,     -0.1558487117 ,      0.0701414719   } },

    { {     0.1184275225 ,      0.1155899838 ,      0.0674577206 ,     -0.2513580322 ,      0.1172807217   },
      {     0.2126694173 ,     -0.1111439317 ,      0.0681320429 ,     -0.2517749667 ,     -0.1704947650   },
      {     0.1397390813 ,      0.0050136093 ,      0.1566837579 ,      0.3037863672 ,     -0.0852007046   },
      {     0.1840516925 ,      0.0563502349 ,      0.3363467157 ,      0.2369359285 ,      0.2260833532   },
      {     0.0749675855 ,      0.0794047043 ,      0.1328019351 ,      0.2183962166 ,      0.1293788552   } },

    { {    -0.0215295926 ,     -0.0078602834 ,     -0.0585154109 ,      0.0079919761 ,      0.1219523400   },
      {    -0.1686615199 ,     -0.1166826114 ,      0.0689968020 ,      0.0977613255 ,     -0.0843957514   },
      {     0.0107529629 ,     -0.0204208698 ,     -0.1100713164 ,     -0.1055437624 ,      0.0512413122   },
      {     0.0898531601 ,      0.0763234124 ,     -0.0027541250 ,      0.0031226263 ,     -0.0480654240   },
      {    -0.0259087682 ,     -0.1833394319 ,     -0.0691267177 ,     -0.0402141549 ,      0.1638017446   } } };

const weight_t conv2_weight_sub5[CONV2_WEIGHT_CH][WEIGHT_ROW][WEIGHT_COL] =
  { { {     0.2050408870 ,      0.2211082280 ,      0.0088598793 ,     -0.0174995195 ,      0.0846215859   },
      {     0.0369135849 ,      0.0067577185 ,      0.0982899517 ,     -0.0382105671 ,     -0.3925274014   },
      {     0.0463355407 ,     -0.0535998382 ,     -0.3728430569 ,     -0.4185205698 ,     -0.2947927117   },
      {    -0.0845809057 ,     -0.2791689932 ,     -0.1488695443 ,     -0.0548992492 ,      0.0443787053   },
      {    -0.0983958617 ,      0.1547864079 ,      0.1598817855 ,      0.0248404089 ,      0.1369860321   } },

    { {    -0.1389389485 ,      0.0838676840 ,     -0.0780788288 ,     -0.0619604848 ,      0.1877640188   },
      {     0.2073994279 ,      0.1812499315 ,      0.2069333047 ,      0.2017603964 ,      0.3525288105   },
      {    -0.0150526175 ,      0.0261001289 ,      0.1238189265 ,      0.0437503494 ,     -0.1326784194   },
      {    -0.1402958035 ,     -0.2900393903 ,     -0.3913552761 ,     -0.4047565162 ,     -0.2378787100   },
      {    -0.1500122994 ,     -0.4189141691 ,     -0.1510920227 ,      0.2629533410 ,      0.2363417596   } },

    { {     0.1897751391 ,      0.0198667627 ,     -0.1466805339 ,      0.1570452601 ,      0.3231861293   },
      {     0.2656855583 ,      0.1541553736 ,      0.0713251978 ,      0.3039536476 ,      0.3199676275   },
      {     0.0235608704 ,     -0.1749437153 ,      0.0885197148 ,     -0.2601950467 ,     -0.3691407442   },
      {    -0.1639873385 ,     -0.2556398213 ,     -0.6760922670 ,     -0.5584760904 ,     -0.1814724952   },
      {     0.1070146859 ,     -0.1035787240 ,     -0.0723498017 ,      0.2405620962 ,      0.2866741419   } } };

const weight_t conv3_weight [CONV3_WEIGHT_NUM][CONV3_WEIGHT_CH][WEIGHT_ROW][WEIGHT_COL] =
{ { { {     0.3355191350 ,      0.0820521265 ,      0.0358992070 ,     -0.1156861857 ,      0.0013609019   },
      {    -0.0649249852 ,     -0.1773497313 ,     -0.2072668225 ,     -0.0719979256 ,     -0.0776395053   },
      {    -0.1145850420 ,     -0.0135991834 ,     -0.0271345247 ,     -0.1672472209 ,     -0.1817899048   },
      {     0.2122260183 ,      0.2465898395 ,     -0.0565123633 ,      0.0105400672 ,      0.1638274342   },
      {     0.2558319271 ,      0.0464692153 ,      0.0161446556 ,      0.0532814637 ,      0.0961898565   } },

   {  {    -0.1012959108 ,      0.0237566829 ,     -0.0107280621 ,      0.0298618358 ,      0.0358332880   },
      {    -0.0379954763 ,      0.0008215640 ,      0.0129682524 ,      0.1606021821 ,      0.3300496340   },
      {     0.0957136676 ,      0.0509798191 ,     -0.0466563776 ,      0.1245257780 ,      0.0424607210   },
      {     0.0165072586 ,      0.0279900730 ,      0.2352499813 ,      0.2090469599 ,     -0.2674247026   },
      {     0.0136545654 ,      0.0154063366 ,      0.1979864687 ,      0.0430500433 ,     -0.4839799106   } },

   {  {    -0.0096809277 ,     -0.0675681531 ,      0.0130383186 ,      0.0412109531 ,      0.0982394889   },
      {    -0.0554781891 ,     -0.0849146396 ,     -0.0965118185 ,     -0.1565177143 ,      0.1386936307   },
      {    -0.2357202023 ,     -0.0899535045 ,      0.0945823118 ,      0.0385669991 ,      0.2018449903   },
      {     0.0905702189 ,      0.1126282662 ,      0.0670655221 ,     -0.1399769783 ,     -0.0007468517   },
      {     0.0546297394 ,      0.0968366340 ,      0.0080899876 ,     -0.1384595782 ,     -0.2618262172   } },

   {  {     0.2224711329 ,      0.0361664668 ,      0.1372553259 ,      0.1074013039 ,     -0.0184768513   },
      {     0.0610482730 ,     -0.0101475045 ,     -0.0698480234 ,     -0.0574929044 ,     -0.1303660125   },
      {    -0.0069212262 ,     -0.0672998875 ,      0.0745525956 ,     -0.2664419115 ,     -0.3014192581   },
      {    -0.0763369426 ,     -0.1789062917 ,      0.0367049426 ,     -0.1584930718 ,     -0.1483956277   },
      {    -0.2411633581 ,     -0.0035668933 ,     -0.0066415374 ,      0.1049752608 ,      0.3772877753   } },

   {  {    -0.0422746167 ,      0.0085755512 ,      0.0424505956 ,      0.0003216248 ,     -0.1155091301   },
      {    -0.0324341394 ,      0.0521735176 ,     -0.0090227593 ,      0.0433154069 ,     -0.0362185352   },
      {     0.1500402242 ,      0.1758402735 ,      0.1699201167 ,      0.1259768456 ,     -0.0554068871   },
      {    -0.0699307248 ,      0.0941934064 ,      0.0805064738 ,      0.0073225144 ,     -0.1642384976   },
      {     0.1124324203 ,      0.2172770500 ,     -0.0269646160 ,      0.1728317887 ,     -0.1189471185   } },

   {  {     0.1030638367 ,      0.1203141436 ,      0.2471030504 ,      0.4923190176 ,      0.5599682331   },
      {    -0.0675746650 ,     -0.1050329283 ,      0.0095222825 ,      0.1714051664 ,      0.1480478793   },
      {    -0.0688055456 ,     -0.1764652133 ,      0.0255617592 ,     -0.0505092703 ,      0.2121940106   },
      {    -0.0778093785 ,      0.0436286554 ,      0.1180109084 ,     -0.2113295048 ,     -0.1841663569   },
      {     0.0483781919 ,     -0.0250446238 ,      0.0381095186 ,     -0.0132899471 ,     -0.0496299230   } } },

  { { {    -0.1011207402 ,     -0.0597626269 ,      0.1102488786 ,      0.0606576055 ,     -0.0157470852   },
      {     0.1640033871 ,     -0.0644150749 ,      0.0420703217 ,     -0.1682362258 ,     -0.2380585074   },
      {     0.0435848571 ,      0.0694682375 ,      0.1305144727 ,      0.0241737738 ,     -0.0374090634   },
      {     0.0575567111 ,      0.0500400774 ,      0.1728660911 ,      0.3525516689 ,      0.2079163194   },
      {    -0.3227103055 ,     -0.1087977067 ,      0.1723315120 ,      0.2704437375 ,      0.2335558534   } },

   {  {     0.0383968912 ,      0.0396918803 ,      0.1532521546 ,      0.0095878495 ,      0.1859652400   },
      {    -0.0199275203 ,      0.0258410014 ,     -0.0937065035 ,      0.0697043017 ,      0.2157378495   },
      {     0.0488577820 ,     -0.0646100044 ,     -0.1538786888 ,     -0.0429548956 ,      0.0455457158   },
      {     0.0946541876 ,     -0.0692195818 ,     -0.0493579507 ,      0.0408278555 ,      0.2196526229   },
      {    -0.2031248510 ,     -0.0901958346 ,      0.1291739345 ,      0.0201554615 ,     -0.3448436856   } },

   {  {    -0.0920883790 ,      0.1257957667 ,      0.0853376910 ,     -0.0324094370 ,      0.0752298310   },
      {     0.0993712395 ,      0.0337044932 ,      0.1437605023 ,     -0.0270043928 ,     -0.0493923798   },
      {     0.3486673236 ,      0.0638211370 ,     -0.0588098429 ,      0.0810036734 ,     -0.0687903687   },
      {     0.1450025439 ,     -0.1059004664 ,     -0.1576010883 ,     -0.0220769681 ,      0.3004932404   },
      {     0.1475860924 ,      0.2769572735 ,      0.2172992378 ,      0.1097469032 ,      0.2577868402   } },

   {  {     0.0637704954 ,      0.1275022477 ,      0.0739412606 ,     -0.1173730865 ,     -0.0993476436   },
      {    -0.0238604024 ,     -0.0439291187 ,      0.0123523688 ,     -0.0787639394 ,     -0.1475429088   },
      {    -0.0037186265 ,      0.0545362495 ,     -0.0228069779 ,     -0.1259028316 ,     -0.2163222134   },
      {     0.1386784017 ,      0.1554290950 ,     -0.1110815033 ,     -0.0944615081 ,     -0.1290167719   },
      {    -0.1640413105 ,     -0.1602611691 ,     -0.0118819438 ,      0.0188732073 ,      0.1974378228   } },

   {  {    -0.0942470059 ,      0.1342975646 ,      0.1765378863 ,      0.2053075284 ,      0.1735717058   },
      {    -0.0558492579 ,      0.0235313345 ,     -0.1298310012 ,     -0.0233437307 ,      0.1338709295   },
      {    -0.1625580192 ,      0.1037530676 ,     -0.1623563766 ,     -0.1121860892 ,     -0.0043293433   },
      {    -0.0212707184 ,      0.0788208544 ,      0.0758206621 ,     -0.0368736014 ,      0.1360156685   },
      {     0.1557234079 ,      0.1924192905 ,      0.0556002147 ,      0.1646910757 ,      0.0118779857   } },

   {  {     0.0077071302 ,      0.0125459945 ,      0.7141948938 ,      0.2603573501 ,      0.4272275269   },
      {     0.1437273324 ,      0.0710026696 ,      0.0180089008 ,      0.0133390455 ,     -0.0772187784   },
      {     0.0145176351 ,     -0.0525031723 ,     -0.0705682039 ,      0.1532560289 ,      0.1576368660   },
      {    -0.0380002521 ,      0.1308929175 ,     -0.0945562124 ,     -0.2427231818 ,     -0.1476339251   },
      {    -0.1854661554 ,      0.0397055857 ,      0.0455293544 ,     -0.0266867597 ,     -0.0673833564   } } },

  { { {    -0.0092365202 ,      0.3197021484 ,      0.0573763289 ,      0.0614259951 ,      0.1107811034   },
      {    -0.0028401644 ,     -0.1881557405 ,     -0.2766249180 ,     -0.1830907166 ,     -0.0402161218   },
      {     0.0268734768 ,     -0.0013213385 ,     -0.0316634700 ,     -0.0082791476 ,     -0.0955871716   },
      {     0.1640638560 ,      0.2005814910 ,      0.0730273277 ,     -0.0551400520 ,      0.1174418107   },
      {     0.0957435369 ,     -0.1483257711 ,     -0.0825597569 ,      0.0178019721 ,      0.1253241450   } },

   {  {     0.0259524994 ,      0.0272713285 ,      0.1632429808 ,      0.2026228160 ,      0.0894710496   },
      {    -0.0099141467 ,      0.1813859493 ,      0.1397650242 ,      0.2245886624 ,     -0.0720669702   },
      {    -0.0731014833 ,      0.0842619613 ,     -0.1009958759 ,     -0.0188584588 ,     -0.1987484843   },
      {     0.0825262144 ,     -0.0460739322 ,     -0.0396838263 ,     -0.1003816053 ,     -0.1024865210   },
      {    -0.1717355549 ,      0.1838284731 ,      0.1208288074 ,      0.1208983511 ,     -0.1181852967   } },

   {  {    -0.0381676927 ,      0.1190902144 ,      0.1127166227 ,      0.2335573733 ,      0.1199658215   },
      {    -0.1149048433 ,      0.0457952879 ,     -0.0544594191 ,     -0.0784520358 ,      0.0233343355   },
      {    -0.2056564093 ,      0.0068756882 ,     -0.0851170048 ,     -0.0888527408 ,     -0.2072134167   },
      {    -0.2140023261 ,     -0.1292425394 ,     -0.1039341837 ,     -0.1352476478 ,     -0.1059358642   },
      {    -0.2834667861 ,     -0.0812266544 ,     -0.1018685475 ,      0.0043356689 ,     -0.0545239113   } },

   {  {    -0.0609422512 ,      0.0676115081 ,      0.1233538911 ,     -0.1741656065 ,     -0.0767588988   },
      {     0.1426345259 ,     -0.0000277275 ,     -0.2140236199 ,     -0.0522435494 ,     -0.1512546390   },
      {     0.0014911274 ,     -0.0425371863 ,      0.1224655733 ,      0.0097190496 ,      0.2338171601   },
      {     0.0754784644 ,      0.1170019582 ,      0.0862627849 ,     -0.1139268875 ,     -0.1631423831   },
      {     0.2128808647 ,      0.0269242674 ,     -0.0818116441 ,      0.0268222615 ,      0.0091925627   } },

   {  {    -0.1163393855 ,     -0.0257097967 ,      0.1804216355 ,      0.1674281210 ,      0.1556584090   },
      {     0.0305661336 ,      0.0939738378 ,      0.1156333163 ,      0.0437762216 ,      0.0276127048   },
      {     0.1466616988 ,      0.0201149564 ,      0.1490484178 ,      0.0840082765 ,      0.1531554461   },
      {     0.0975002274 ,      0.1065052003 ,      0.0430506319 ,      0.0520402193 ,     -0.1047568917   },
      {     0.0644381866 ,      0.0797419846 ,      0.0061579826 ,     -0.0415966213 ,      0.0046674511   } },

   {  {     0.1670610607 ,      0.3246554136 ,      0.1745289564 ,     -0.1484275311 ,      0.0047008609   },
      {    -0.2699640989 ,     -0.0848216787 ,     -0.0678104311 ,     -0.1278268844 ,     -0.2716725767   },
      {    -0.1354234219 ,     -0.1402303576 ,     -0.0115752351 ,     -0.0225286148 ,      0.0949771181   },
      {    -0.0995540321 ,     -0.0550025292 ,     -0.0365452394 ,      0.0614746399 ,      0.0214938018   },
      {    -0.1156220883 ,     -0.1005599797 ,     -0.0793016031 ,      0.0162530746 ,     -0.1344831884   } } },

  { { {    -0.3474310338 ,     -0.1744003892 ,     -0.0986857638 ,      0.0590421893 ,      0.0417492390   },
      {    -0.1650486439 ,      0.1666963249 ,      0.1896853149 ,      0.2002470940 ,      0.1944697499   },
      {     0.0585605092 ,      0.3114410341 ,      0.0726051629 ,     -0.0461695902 ,      0.1297246367   },
      {    -0.0753847435 ,      0.0424329154 ,      0.1763690412 ,      0.0230386034 ,      0.1245957986   },
      {     0.0616349876 ,      0.0569183491 ,      0.2166064382 ,     -0.1520319134 ,     -0.0619245395   } },

   {  {     0.0707114711 ,     -0.0502346866 ,      0.0506233759 ,      0.0190055445 ,      0.1263762265   },
      {     0.1339290142 ,     -0.0428830720 ,      0.0609170236 ,     -0.0229195226 ,     -0.0489692762   },
      {     0.0145105682 ,     -0.0892820433 ,      0.1831276864 ,      0.1337515712 ,     -0.1805584133   },
      {    -0.1310529858 ,     -0.0225529149 ,      0.0635493845 ,     -0.0277816150 ,     -0.0206440538   },
      {     0.1028628573 ,     -0.0217930246 ,     -0.1398475170 ,      0.0681089684 ,      0.1399789602   } },

   {  {    -0.1810958683 ,      0.0240116175 ,     -0.0377216078 ,      0.0139108170 ,      0.0369781442   },
      {    -0.2094456255 ,     -0.1394220144 ,     -0.1665226966 ,      0.0428833589 ,      0.0066199074   },
      {    -0.5206886530 ,      0.0818975270 ,      0.1356628835 ,     -0.1510008425 ,     -0.1139243916   },
      {    -0.4784912765 ,      0.1083872840 ,      0.1123320088 ,     -0.0737708583 ,     -0.1214898378   },
      {    -0.0386435129 ,      0.0267124474 ,      0.2326723486 ,      0.2206423134 ,      0.1371558011   } },

   {  {    -0.0099070417 ,      0.1627743393 ,      0.0701199472 ,      0.0681921616 ,      0.0985041112   },
      {     0.1505358964 ,      0.2326428741 ,     -0.0058115423 ,      0.0497545600 ,     -0.2575141490   },
      {     0.1278803051 ,      0.1701041311 ,     -0.0767041668 ,      0.1728925556 ,      0.0975005254   },
      {     0.0455960780 ,      0.0066044517 ,      0.0458204523 ,      0.1639551222 ,      0.3251990974   },
      {     0.1663744748 ,      0.0187623855 ,      0.0000103531 ,      0.0276041385 ,     -0.0688120127   } },

   {  {    -0.1229990572 ,     -0.1037914231 ,      0.1116337553 ,      0.0527985245 ,     -0.0280982237   },
      {     0.1168534085 ,     -0.0576654933 ,      0.0605856478 ,     -0.0165461563 ,      0.0735126734   },
      {     0.0440531336 ,      0.0994534343 ,      0.0427195355 ,      0.0733329952 ,     -0.0036942568   },
      {     0.2183429599 ,     -0.1191929132 ,     -0.0068634194 ,      0.1064365655 ,      0.1218338832   },
      {    -0.0575928763 ,     -0.0023378013 ,     -0.0729685873 ,      0.0090808421 ,      0.1793359667   } },

   {  {     0.1220778152 ,      0.1852398962 ,      0.0517655499 ,     -0.3606881201 ,     -0.2443136722   },
      {    -0.2612334192 ,     -0.1036153212 ,      0.0782856718 ,      0.1484513730 ,     -0.1587251127   },
      {    -0.2861838937 ,      0.0043143495 ,     -0.0146864178 ,     -0.0123850387 ,     -0.2213426083   },
      {    -0.1167815700 ,      0.1302980036 ,      0.0687098876 ,     -0.0226995684 ,      0.0420412496   },
      {     0.0140797487 ,      0.1530641317 ,      0.1972230375 ,      0.1429953426 ,      0.0568995178   } } },

  { { {     0.1280461699 ,      0.0988742784 ,      0.1219333783 ,     -0.0462438948 ,      0.0116103813   },
      {     0.2286994010 ,      0.2171719074 ,     -0.0339906588 ,     -0.2871254086 ,     -0.0778476819   },
      {    -0.0634135306 ,      0.0200557653 ,      0.1534009725 ,     -0.0731144100 ,     -0.0039690286   },
      {     0.0198038351 ,     -0.2789807022 ,      0.1882727742 ,     -0.0816720724 ,     -0.0936305448   },
      {     0.1835857779 ,      0.0438764133 ,      0.1008010358 ,      0.0328792669 ,     -0.1950189471   } },

   {  {    -0.0385997258 ,      0.0701175258 ,      0.1998795271 ,      0.1893528253 ,      0.0878422409   },
      {     0.0144264530 ,     -0.0100664599 ,      0.0671717972 ,      0.0345935188 ,      0.0598664060   },
      {    -0.0893837214 ,     -0.1150954589 ,     -0.1580577642 ,     -0.0431344844 ,      0.3091540933   },
      {    -0.0131480498 ,     -0.1247205660 ,     -0.0719585717 ,     -0.0675804466 ,      0.0756002888   },
      {     0.0432408638 ,     -0.0807545111 ,     -0.1509652585 ,      0.1004806459 ,      0.0753419623   } },

   {  {     0.1200044006 ,      0.0506113581 ,     -0.0026703035 ,      0.0600657128 ,     -0.0988140851   },
      {     0.1022248119 ,      0.1266372055 ,      0.1436679810 ,      0.1577395350 ,      0.0492731258   },
      {     0.2828392088 ,     -0.1291640848 ,     -0.2587060034 ,      0.1980208457 ,     -0.0425229147   },
      {     0.0476621687 ,     -0.0967207924 ,     -0.1396372765 ,      0.0756095946 ,      0.2180075049   },
      {    -0.0162471980 ,     -0.2583639026 ,     -0.3282168210 ,     -0.1693396717 ,     -0.2391920686   } },

   {  {    -0.0546998419 ,     -0.1354444176 ,     -0.1297156811 ,      0.0325792432 ,      0.1105064899   },
      {    -0.0706910193 ,      0.0018974786 ,      0.1253233850 ,      0.0071799071 ,      0.1657414436   },
      {     0.1373782456 ,      0.1370343566 ,      0.0631729141 ,      0.0998188853 ,     -0.0363849737   },
      {     0.0438748188 ,     -0.0014877645 ,      0.0887086838 ,      0.1488174647 ,      0.0472774729   },
      {     0.1972435415 ,      0.0546054170 ,      0.0888426900 ,      0.1990506500 ,     -0.1146620587   } },

   {  {     0.0834832042 ,     -0.0885183215 ,     -0.1063881516 ,     -0.0175876580 ,      0.0467103608   },
      {    -0.0065022064 ,     -0.0282500070 ,      0.0515420660 ,      0.1241808534 ,      0.0725652650   },
      {    -0.1283911914 ,     -0.0488470048 ,     -0.1946013570 ,      0.0037997537 ,     -0.0588650666   },
      {    -0.1195045039 ,     -0.1491964310 ,     -0.0461189523 ,     -0.0376717821 ,      0.1535420269   },
      {    -0.2509845197 ,     -0.0487192869 ,      0.0598964840 ,     -0.1256312579 ,     -0.1516751200   } },

   {  {    -0.3414015174 ,     -0.4649411142 ,      0.0950064287 ,      0.2706545591 ,      0.2145857960   },
      {     0.0925467014 ,      0.0960166007 ,      0.1230375618 ,     -0.1284203827 ,      0.2878452241   },
      {    -0.1151453480 ,      0.1087201461 ,      0.1456560642 ,      0.0617047772 ,     -0.0436497703   },
      {     0.2026093900 ,     -0.0335570648 ,     -0.1274802387 ,      0.0344731286 ,     -0.1053466424   },
      {     0.0808284655 ,     -0.1549959034 ,     -0.1099052802 ,     -0.0910334513 ,      0.1599253416   } } },

  { { {     0.5825924277 ,      0.2617402673 ,      0.0664164573 ,     -0.1193044707 ,      0.0136095379   },
      {    -0.0027869870 ,      0.0249095093 ,     -0.0399433598 ,      0.0798053071 ,      0.1675570756   },
      {     0.0636534691 ,     -0.0836531669 ,      0.1930388063 ,      0.1327419132 ,     -0.0916763470   },
      {     0.0928261802 ,      0.0955534652 ,     -0.0883074924 ,     -0.3461786807 ,     -0.2329552621   },
      {    -0.0451163352 ,     -0.0125359083 ,     -0.2056277245 ,     -0.1174121723 ,      0.0073411991   } },

   {  {     0.0506576188 ,     -0.1434016377 ,      0.0940264463 ,     -0.0131110223 ,     -0.2024228573   },
      {     0.0175102241 ,      0.1122487038 ,      0.3027456701 ,     -0.1247290373 ,     -0.1384206265   },
      {     0.0792523324 ,      0.2288385481 ,      0.2051637322 ,      0.0956164300 ,      0.2046072185   },
      {     0.1588569880 ,      0.0153586715 ,     -0.1128264144 ,      0.0908280089 ,      0.1999597996   },
      {    -0.2013594657 ,      0.0270535648 ,      0.1361403614 ,      0.1408039033 ,      0.2440151125   } },

   {  {     0.0748687088 ,      0.0191045310 ,      0.0870005488 ,      0.0855272785 ,      0.0936533511   },
      {     0.1434892863 ,      0.1210346520 ,     -0.2043661475 ,     -0.1731869578 ,     -0.1778458059   },
      {     0.4616864622 ,      0.2155429125 ,      0.1452907473 ,      0.1398348361 ,      0.0317987055   },
      {     0.3074888289 ,      0.0369448662 ,     -0.0643777028 ,     -0.0414295271 ,      0.2313158065   },
      {    -0.1112929061 ,     -0.1138692647 ,     -0.0956778899 ,      0.1287879646 ,      0.0649926066   } },

   {  {     0.0292576589 ,      0.1238375008 ,     -0.0291497633 ,     -0.0759402215 ,     -0.1178879663   },
      {     0.0025077511 ,     -0.0993690714 ,     -0.0362455584 ,      0.1079015061 ,      0.1941620111   },
      {    -0.0567207970 ,     -0.0900314599 ,      0.0003258014 ,      0.2468011230 ,      0.0449068509   },
      {     0.2256574631 ,      0.2163268030 ,      0.1529031396 ,     -0.0329360105 ,     -0.3809278309   },
      {     0.1229481399 ,      0.1062977538 ,      0.1477034986 ,     -0.0981879160 ,     -0.2493689805   } },

   {  {     0.0929577500 ,      0.1460124552 ,      0.2097007185 ,     -0.0172209069 ,     -0.1283297986   },
      {    -0.0321391225 ,      0.0079506179 ,      0.0733871534 ,      0.0124110775 ,     -0.0530510321   },
      {    -0.0551727042 ,      0.0859642997 ,      0.1619220674 ,      0.0893569291 ,      0.0147133917   },
      {    -0.0214056857 ,      0.1944141835 ,      0.2009768188 ,      0.0853326917 ,     -0.0347848795   },
      {     0.0058413576 ,     -0.0026576819 ,     -0.0030791683 ,      0.1368256211 ,      0.1068341509   } },

   {  {     0.3097167909 ,      0.0783934221 ,     -0.3586233258 ,     -0.0616353899 ,     -0.1344314367   },
      {     0.3101634383 ,      0.1342136860 ,     -0.0541283451 ,     -0.2377120852 ,     -0.0316565931   },
      {     0.4028669000 ,      0.0292463154 ,     -0.0474583134 ,     -0.0359753557 ,      0.1927417517   },
      {     0.0511226840 ,      0.0709793270 ,      0.3441097438 ,      0.3317423165 ,      0.1460197419   },
      {     0.0410037749 ,     -0.0172634684 ,     -0.0139772100 ,     -0.0883224830 ,     -0.0343272947   } } },

  { { {    -0.0269952714 ,      0.1566889882 ,     -0.1312274784 ,      0.0948532298 ,      0.1965602934   },
      {    -0.0968178511 ,      0.1291948706 ,     -0.0150424670 ,      0.2315567732 ,      0.0744543374   },
      {    -0.0754924938 ,     -0.1878311485 ,     -0.0273236837 ,      0.0178814363 ,      0.0199063029   },
      {     0.2497423440 ,      0.1319515407 ,     -0.0584237874 ,     -0.0475440361 ,      0.0797027498   },
      {     0.1106124371 ,      0.3654499650 ,      0.0184297543 ,      0.0494200438 ,      0.0107040359   } },

   {  {    -0.0879136026 ,      0.1274547130 ,      0.1785349101 ,      0.0638473630 ,     -0.1426216066   },
      {    -0.0115124546 ,      0.0867315233 ,      0.0212841239 ,     -0.0458910950 ,     -0.2560146153   },
      {     0.0308622196 ,      0.0422049090 ,     -0.0091165500 ,     -0.1229852661 ,     -0.1641810983   },
      {    -0.0400823541 ,      0.1359126866 ,     -0.0390421338 ,      0.0779724121 ,     -0.1582233012   },
      {     0.2336228192 ,      0.1592186987 ,     -0.0773878098 ,      0.0117311943 ,     -0.2198217362   } },

   {  {     0.1379250735 ,      0.0290384982 ,     -0.0004929139 ,      0.1459783316 ,     -0.0467184037   },
      {     0.1573336869 ,     -0.0083630057 ,     -0.0689518079 ,     -0.0938896537 ,     -0.1281245649   },
      {    -0.0448202230 ,     -0.1479800642 ,     -0.0265236683 ,      0.0469496250 ,     -0.2427667081   },
      {     0.1434032321 ,      0.2071995735 ,      0.1361529678 ,      0.0073314444 ,     -0.0423800834   },
      {     0.5872324705 ,      0.2102586031 ,      0.1277197301 ,      0.0000452541 ,      0.1081338897   } },

   {  {    -0.1314612180 ,     -0.0940129310 ,      0.1151938066 ,      0.0676373914 ,      0.0420128517   },
      {     0.0100645656 ,     -0.0359387621 ,      0.1381563097 ,      0.1699422598 ,      0.0226312242   },
      {    -0.0767482445 ,     -0.0092041055 ,      0.0689905956 ,      0.0844733864 ,     -0.0387075394   },
      {    -0.1084250808 ,     -0.2100511789 ,     -0.0152340103 ,     -0.0111764278 ,      0.2063322514   },
      {    -0.0242593996 ,     -0.0104954271 ,      0.2897276580 ,      0.2379863858 ,      0.1427623928   } },

   {  {     0.0347220823 ,      0.1762535274 ,      0.0767310783 ,     -0.0535706393 ,     -0.0297010057   },
      {    -0.0330327712 ,      0.1113455817 ,      0.1183997542 ,      0.0721857026 ,     -0.1602052748   },
      {     0.0171063095 ,      0.0890586153 ,      0.1870407015 ,      0.1108771339 ,     -0.1875529885   },
      {     0.0831889659 ,     -0.1460037827 ,     -0.0256367680 ,      0.1573484689 ,     -0.0974135324   },
      {    -0.0320158936 ,     -0.2324002832 ,     -0.0840188637 ,      0.0839665756 ,      0.0047578616   } },

   {  {     0.0645560548 ,      0.1405417323 ,     -0.0962379053 ,     -0.3939642012 ,     -0.1583051831   },
      {     0.1148563400 ,      0.1802965552 ,      0.0917478651 ,     -0.1557404101 ,     -0.0218972042   },
      {    -0.0772735626 ,      0.1045570746 ,     -0.1199959964 ,      0.0258812662 ,      0.1371311396   },
      {     0.2323204428 ,      0.2415250242 ,      0.1127531454 ,      0.1045449451 ,      0.0068702204   },
      {     0.0705771446 ,      0.0551986285 ,     -0.0697475448 ,     -0.0445885696 ,     -0.0724032670   } } },

  { { {    -0.1313714981 ,      0.0486113988 ,      0.0223725252 ,     -0.0962208882 ,     -0.0584240481   },
      {     0.1021820381 ,      0.0377161503 ,      0.0991046876 ,      0.0857442170 ,      0.0608462431   },
      {     0.0260056518 ,     -0.0400183052 ,      0.0220309980 ,      0.0008878852 ,     -0.0755502954   },
      {     0.0622570068 ,      0.0041433848 ,      0.0579889938 ,      0.0693032593 ,      0.1052219346   },
      {    -0.0412405096 ,     -0.0591333695 ,      0.0145525718 ,     -0.0201730430 ,      0.0479741432   } },

   {  {    -0.0201273020 ,      0.0995673016 ,     -0.0697972849 ,     -0.0121367015 ,     -0.1490240544   },
      {     0.0346173458 ,     -0.1161961257 ,     -0.0702407286 ,     -0.1234808043 ,     -0.0290810037   },
      {    -0.0651776120 ,      0.0283256155 ,     -0.0102879023 ,     -0.1496211290 ,     -0.0534803979   },
      {    -0.1097699627 ,     -0.0708541721 ,     -0.0966772065 ,     -0.0543300770 ,     -0.0175563414   },
      {    -0.1297896802 ,     -0.0179971587 ,     -0.0140905501 ,     -0.0482106023 ,     -0.0770195648   } },

   {  {    -0.0607297271 ,     -0.0506730266 ,     -0.0563282855 ,      0.0017884556 ,     -0.0336610526   },
      {    -0.1442549527 ,      0.0191066265 ,      0.0900009573 ,      0.0377754532 ,     -0.1664666086   },
      {    -0.1082158312 ,     -0.0930574462 ,     -0.1615384370 ,     -0.0259170644 ,     -0.0266075861   },
      {    -0.1222066581 ,     -0.0914442986 ,     -0.1110680997 ,      0.0685574636 ,      0.0886398703   },
      {    -0.0994627252 ,     -0.0826191977 ,      0.0692056641 ,      0.0356404707 ,      0.0405285023   } },

   {  {    -0.0273223463 ,      0.0145629393 ,      0.0420480333 ,     -0.0200383179 ,      0.0137265800   },
      {    -0.0982947499 ,      0.0160348043 ,     -0.0684760138 ,      0.0413926244 ,     -0.1353756636   },
      {    -0.0606125556 ,     -0.0807515532 ,     -0.0932149887 ,     -0.1088466644 ,      0.0229154918   },
      {     0.0245759096 ,     -0.0916371942 ,     -0.0156627819 ,      0.0614289567 ,     -0.0671152696   },
      {     0.1458618194 ,      0.0520382635 ,      0.0397871435 ,      0.0633583516 ,     -0.0117955832   } },

   {  {     0.0233392231 ,     -0.0466257334 ,     -0.0637103021 ,     -0.1637301445 ,      0.0953152254   },
      {     0.0769067854 ,      0.0422558598 ,     -0.0804205015 ,     -0.0230742581 ,     -0.1581854224   },
      {     0.0175076649 ,     -0.0390174091 ,     -0.1596176922 ,     -0.1630644798 ,      0.0142926257   },
      {    -0.0546047725 ,     -0.0555818342 ,     -0.1217016876 ,      0.0448365770 ,     -0.1320259720   },
      {     0.0655549318 ,     -0.0310445093 ,     -0.1046094447 ,     -0.1160733998 ,      0.0120776892   } },

   {  {    -0.1201109365 ,     -0.0850224197 ,     -0.0164528210 ,      0.0428330451 ,     -0.0321143083   },
      {     0.0880823806 ,     -0.1042121127 ,      0.0180879235 ,      0.0218140446 ,      0.1111120507   },
      {     0.0953775272 ,      0.0810690597 ,     -0.0856612101 ,     -0.0162530486 ,      0.0192066189   },
      {     0.0016079148 ,     -0.1303087920 ,     -0.0711697638 ,     -0.0786199644 ,     -0.0327071659   },
      {     0.0000382483 ,      0.0089642489 ,      0.1640704125 ,     -0.1369602233 ,     -0.1089756340   } } },

  { { {     0.0804596767 ,     -0.0142433569 ,      0.0911219418 ,      0.0485374518 ,      0.0582530387   },
      {    -0.0060974346 ,     -0.0270518363 ,      0.0336141214 ,      0.0160839278 ,      0.0174493287   },
      {     0.0274551418 ,      0.0889741778 ,     -0.0968303382 ,      0.0345101692 ,     -0.0028866474   },
      {     0.0740495846 ,     -0.0993321389 ,     -0.0345663503 ,     -0.0959634557 ,      0.0738837942   },
      {    -0.1101768985 ,     -0.0466329046 ,     -0.0458511524 ,     -0.0740983337 ,      0.0345299356   } },

   {  {    -0.1349418908 ,     -0.1095281318 ,     -0.0508953892 ,     -0.1339677870 ,      0.0679693520   },
      {     0.0576962605 ,     -0.0379277989 ,     -0.0041912738 ,     -0.0886980444 ,     -0.0503921323   },
      {    -0.0994490162 ,     -0.0288332868 ,      0.0720744282 ,      0.0819433779 ,     -0.0090389969   },
      {    -0.0168767869 ,      0.0195031911 ,     -0.0376445502 ,     -0.1008932590 ,     -0.0019701833   },
      {     0.0509657413 ,     -0.0467159785 ,      0.0210979134 ,      0.0752626508 ,     -0.0848215669   } },

   {  {     0.0323679596 ,      0.0374651104 ,     -0.0086306054 ,     -0.1435670108 ,     -0.1274049878   },
      {    -0.0018629655 ,     -0.0704737157 ,      0.0679264441 ,     -0.0826397762 ,      0.0843673870   },
      {    -0.1045688242 ,     -0.0989968553 ,      0.0284804050 ,      0.0596498325 ,     -0.0344291516   },
      {     0.0692425594 ,     -0.0674384087 ,     -0.0659866780 ,      0.0472693034 ,      0.0092750192   },
      {    -0.0976098925 ,      0.1146437377 ,     -0.0558795743 ,      0.0118188560 ,      0.0377776809   } },

   {  {    -0.0597235449 ,      0.0677194744 ,      0.0323986374 ,     -0.0638584495 ,     -0.0821807086   },
      {    -0.0573492087 ,     -0.0124705797 ,      0.0151825668 ,     -0.0965249464 ,      0.0360102654   },
      {    -0.0161086507 ,      0.0207111649 ,      0.0198239218 ,     -0.0913829580 ,     -0.0768498927   },
      {     0.0641426519 ,     -0.0785769746 ,     -0.1032245085 ,      0.0296253990 ,      0.0651111752   },
      {    -0.0359936506 ,     -0.1158586070 ,      0.0649024844 ,     -0.0594113059 ,     -0.0219508484   } },

   {  {    -0.0011205064 ,     -0.1285393387 ,     -0.1122642979 ,     -0.1110932082 ,      0.0538521931   },
      {    -0.0653686970 ,     -0.0577563941 ,     -0.0170665421 ,      0.0742070675 ,      0.0212043375   },
      {     0.0390583910 ,     -0.1124632433 ,     -0.0220632982 ,     -0.1080909222 ,     -0.0680717677   },
      {    -0.0001963682 ,     -0.1389261186 ,     -0.1171174794 ,     -0.0505350195 ,     -0.1155738458   },
      {    -0.0381710678 ,      0.0133117968 ,     -0.0383933783 ,      0.0728241280 ,     -0.0344607197   } },

   {  {     0.0306897294 ,     -0.1176869795 ,      0.0230773352 ,      0.1079437584 ,      0.0145347659   },
      {    -0.0512980744 ,     -0.0257523675 ,     -0.0114706289 ,     -0.0034529420 ,     -0.0277833026   },
      {    -0.1352443099 ,     -0.0551571175 ,      0.0527604036 ,      0.1075570509 ,     -0.0290310271   },
      {    -0.1420252174 ,     -0.0629811063 ,      0.0021391418 ,     -0.0478203595 ,      0.0152509008   },
      {     0.0195549261 ,      0.0768047050 ,     -0.1374630928 ,     -0.0317544751 ,     -0.1037733853   } } },

  { { {    -0.0579262041 ,     -0.0251421258 ,      0.0612056404 ,     -0.0311401002 ,     -0.1691913307   },
      {     0.1271253526 ,      0.0064005731 ,      0.1668717265 ,     -0.0571762919 ,     -0.1666961759   },
      {     0.2728595734 ,      0.2883253992 ,      0.0327523835 ,      0.0063996860 ,      0.1347866952   },
      {     0.0296153557 ,      0.0297616441 ,     -0.1063170210 ,     -0.0342357531 ,      0.0063552763   },
      {     0.1548020989 ,      0.0110112345 ,     -0.1083336771 ,     -0.0615702532 ,      0.2259217054   } },

   {  {     0.0721928105 ,      0.0508280769 ,     -0.0801259354 ,     -0.0054182033 ,      0.2391304374   },
      {     0.1610522717 ,     -0.0504960343 ,     -0.0021675155 ,      0.0773208365 ,      0.3191622198   },
      {     0.0442926437 ,     -0.0364641957 ,      0.0997577608 ,     -0.1135458350 ,      0.0746416822   },
      {     0.0334355608 ,      0.1776508838 ,     -0.0560049117 ,     -0.1360024661 ,     -0.1459556073   },
      {     0.0212667286 ,      0.0116860019 ,      0.0216748156 ,      0.0593659244 ,      0.0468282402   } },

   {  {    -0.0873526409 ,      0.1893533468 ,      0.1347870082 ,     -0.0514879860 ,      0.1767003536   },
      {    -0.1201278195 ,     -0.0595340319 ,     -0.0001847722 ,     -0.0097423485 ,      0.1137265563   },
      {    -0.2563062906 ,      0.2004275769 ,      0.1519094855 ,      0.0275551565 ,     -0.0019102304   },
      {     0.1831306964 ,      0.0701101646 ,      0.1109140590 ,      0.0188283306 ,      0.0381771028   },
      {     0.0811229050 ,     -0.0908650234 ,     -0.0469261818 ,     -0.0889845341 ,     -0.0860534161   } },

   {  {     0.1222609431 ,      0.1757589430 ,      0.0790131986 ,      0.0123813534 ,      0.3005633354   },
      {     0.1257372350 ,      0.2548644543 ,     -0.0461848080 ,      0.0741117001 ,     -0.0267617032   },
      {    -0.0209526010 ,      0.0360471569 ,      0.0974796191 ,     -0.1190238148 ,     -0.3446245492   },
      {    -0.0107714245 ,      0.0136233121 ,      0.0691342056 ,     -0.0217463616 ,     -0.0233690869   },
      {    -0.0070304996 ,      0.0093486290 ,      0.2117480487 ,      0.2364482135 ,      0.1429990381   } },

   {  {     0.0550057031 ,     -0.0985658318 ,     -0.1151752099 ,     -0.0067499750 ,      0.2202622443   },
      {     0.2384396791 ,      0.0301719755 ,     -0.0090162763 ,     -0.1511593908 ,      0.0909729004   },
      {     0.1472524554 ,      0.1401969194 ,     -0.0293603726 ,      0.0152822798 ,     -0.2221562266   },
      {    -0.0393401012 ,     -0.0890704766 ,     -0.0347537659 ,      0.0985484868 ,     -0.2176839262   },
      {    -0.0959124640 ,     -0.1665730625 ,      0.1082681194 ,     -0.1223901808 ,      0.0988459811   } },

   {  {    -0.3145318031 ,     -0.2344686538 ,      0.1109453812 ,      0.5661323071 ,      0.4952022433   },
      {    -0.2520117760 ,     -0.0965151414 ,     -0.0736319423 ,      0.2420633137 ,      0.3443557024   },
      {    -0.1037354320 ,     -0.0416038334 ,      0.0687166452 ,      0.1113271937 ,      0.2597414553   },
      {     0.2754030526 ,      0.1715685874 ,      0.0958505645 ,      0.1829374731 ,     -0.0038642653   },
      {     0.0472272895 ,     -0.1721283197 ,     -0.1927767396 ,     -0.0069167335 ,     -0.3279812038   } } },

  { { {    -0.1096656770 ,      0.2111150026 ,      0.1053816006 ,      0.0232119653 ,      0.0584458075   },
      {     0.1523759961 ,      0.2538298368 ,      0.3877397180 ,      0.2281364948 ,     -0.0241975933   },
      {     0.1446471363 ,      0.0838745981 ,      0.1656276435 ,      0.2362271845 ,     -0.0587812886   },
      {     0.0682294965 ,      0.1179598793 ,      0.0750102028 ,      0.0625469536 ,      0.1274530292   },
      {    -0.1659585088 ,      0.0354553424 ,     -0.0277846605 ,     -0.1191194803 ,      0.2073004097   } },

   {  {     0.0360100828 ,      0.0160902757 ,     -0.1330308467 ,     -0.2464025915 ,     -0.1683279723   },
      {     0.0530674905 ,      0.0352503546 ,      0.0187680740 ,     -0.0696971938 ,     -0.0500912331   },
      {     0.0227212850 ,      0.1153585017 ,     -0.1018327847 ,     -0.0659686178 ,     -0.0247279871   },
      {     0.0598276556 ,      0.0512220971 ,     -0.2031903863 ,      0.1540330350 ,      0.0677383170   },
      {    -0.0141940657 ,     -0.0004220647 ,      0.1103972644 ,      0.2189320624 ,      0.1704342961   } },

   {  {    -0.0325191431 ,     -0.1860022992 ,     -0.1095413417 ,     -0.0603286326 ,     -0.1031918824   },
      {    -0.0270924103 ,     -0.1853467524 ,      0.0577068813 ,     -0.0870783776 ,     -0.0362330377   },
      {     0.0013924247 ,     -0.0535375029 ,      0.0724822059 ,     -0.0352107398 ,     -0.0385258198   },
      {    -0.2348220497 ,     -0.0994148925 ,     -0.1829792410 ,      0.1151524410 ,      0.0768283233   },
      {    -0.4021980464 ,     -0.2363168150 ,      0.0431960300 ,      0.0853585079 ,      0.1175979748   } },

   {  {    -0.0045630117 ,      0.1581152976 ,      0.3095021546 ,      0.2123049945 ,      0.3784256876   },
      {     0.1962322593 ,      0.1011453718 ,      0.1548195928 ,      0.1243129075 ,      0.3254925907   },
      {     0.0755832419 ,      0.1092356369 ,      0.2251362354 ,      0.1094845906 ,      0.0950135514   },
      {     0.2197216451 ,      0.2282459140 ,      0.1706193089 ,     -0.2370344102 ,     -0.0828086659   },
      {     0.0553171746 ,      0.0560008511 ,      0.0936608762 ,     -0.0725667775 ,     -0.2799430490   } },

   {  {     0.1439754516 ,      0.0413658358 ,     -0.1328594834 ,     -0.0451931618 ,      0.0239632111   },
      {     0.1362634450 ,      0.0604413226 ,      0.0077712829 ,      0.0272125714 ,      0.0123824803   },
      {     0.1604617536 ,      0.0861245245 ,      0.0242524110 ,      0.0787302852 ,     -0.0681028143   },
      {    -0.1042981371 ,      0.1550214291 ,      0.0308870897 ,      0.0768146589 ,      0.0507148318   },
      {     0.0148651209 ,      0.0508733355 ,      0.1463539004 ,      0.0766015053 ,     -0.0719039291   } },

   {  {    -0.0433901399 ,     -0.2332200557 ,      0.0823497549 ,      0.2589529753 ,      0.3261572421   },
      {    -0.2123365998 ,     -0.2689385116 ,     -0.0970052704 ,      0.0476842523 ,      0.1846521497   },
      {     0.0109944409 ,     -0.2262095809 ,     -0.2146612555 ,     -0.1205837727 ,      0.0032255489   },
      {    -0.0003275828 ,     -0.1359542161 ,      0.0554397441 ,      0.0029596770 ,     -0.0499676056   },
      {    -0.2675119638 ,     -0.1569182426 ,     -0.0138631389 ,      0.0234352853 ,      0.1144964695   } } },

  { { {    -0.0082903719 ,     -0.2598070502 ,     -0.3000971973 ,      0.1754972190 ,      0.0633487105   },
      {    -0.2122385353 ,      0.0175088514 ,      0.1567166001 ,      0.1804224551 ,     -0.0374665596   },
      {    -0.3421871364 ,      0.0641060546 ,      0.2450562865 ,      0.0843199864 ,     -0.0181158967   },
      {    -0.1141436696 ,      0.0328303389 ,      0.1341937035 ,      0.1033692658 ,     -0.0679528788   },
      {    -0.0572218932 ,      0.0650673285 ,      0.0430713072 ,      0.0160996579 ,     -0.0403014868   } },

   {  {    -0.2764463723 ,      0.0539346114 ,      0.0881037861 ,      0.0881089643 ,      0.0640706420   },
      {    -0.2031255960 ,      0.1303685158 ,     -0.0386602059 ,     -0.2216428369 ,     -0.0082323011   },
      {     0.1029338613 ,      0.1167650372 ,     -0.2052915692 ,     -0.3801550269 ,     -0.0158677865   },
      {    -0.0120613668 ,      0.0605451055 ,     -0.3046506345 ,     -0.1455985457 ,     -0.3924899995   },
      {    -0.0144582866 ,     -0.0573621280 ,     -0.1349364072 ,      0.2720119953 ,      0.1660497934   } },

   {  {    -0.3096228838 ,     -0.2882184088 ,      0.0250547379 ,      0.0156574994 ,     -0.0227299724   },
      {    -0.0666291267 ,     -0.0086897118 ,     -0.0331982262 ,      0.0041469978 ,      0.0171867292   },
      {     0.0720074326 ,      0.0041050268 ,     -0.0902703777 ,     -0.2611123323 ,     -0.1614915133   },
      {    -0.1599949002 ,     -0.2463111281 ,     -0.1790353954 ,     -0.1707991362 ,     -0.4007025361   },
      {    -0.0366117507 ,     -0.5652965307 ,     -0.1088400483 ,      0.0356327817 ,      0.0655824319   } },

   {  {    -0.1483121365 ,     -0.2578137517 ,      0.1874643564 ,      0.1111117378 ,      0.0499488041   },
      {    -0.2116807848 ,     -0.1378606707 ,      0.0810038969 ,      0.1438699663 ,      0.1039309278   },
      {     0.0021611883 ,      0.0993512645 ,      0.1569313705 ,      0.2208347917 ,      0.2310079932   },
      {     0.1102038249 ,     -0.0299363825 ,      0.0924691036 ,      0.3059291542 ,      0.2157771438   },
      {     0.1357821375 ,      0.0776071846 ,      0.0917486995 ,     -0.0922083110 ,      0.2617926598   } },

   {  {    -0.4110228121 ,     -0.0516210683 ,      0.0109688155 ,      0.0267659258 ,     -0.0624624752   },
      {    -0.0748359412 ,     -0.1223384440 ,      0.0472072475 ,      0.0376462415 ,     -0.1811841279   },
      {     0.0632166415 ,     -0.0734016970 ,      0.0642983317 ,      0.0659935996 ,     -0.0187039040   },
      {    -0.1643992662 ,     -0.1486205757 ,     -0.1720485836 ,     -0.0905529261 ,      0.0366118252   },
      {    -0.1026676521 ,      0.0411157981 ,     -0.0014046077 ,     -0.1271302402 ,     -0.1705500931   } },

   {  {    -0.1361172348 ,      0.1360179186 ,      0.4284337461 ,      0.2201522589 ,      0.0065222457   },
      {     0.0368039757 ,      0.0102240518 ,     -0.2104052156 ,      0.1788760722 ,      0.2086478323   },
      {     0.0450942181 ,      0.0115631977 ,     -0.1778449863 ,     -0.1094963029 ,     -0.0449869856   },
      {    -0.0369182341 ,      0.0964610130 ,      0.2794660926 ,      0.1136982664 ,     -0.0321185924   },
      {    -0.0262797326 ,      0.2152103335 ,      0.0348582119 ,      0.0004660027 ,     -0.1717826128   } } } };

const weight_t full1_weight[FULL1_WEIGHT_ROW][FULL1_WEIGHT_COL] =
{  {   -0.2328070402 ,      0.4619468451 ,      0.3677606583 ,     -0.3471348286 ,      0.1525757164 ,      0.6058751941 ,
       -0.0315159224 ,     -0.0032600241 ,     -0.3094064295 ,     -0.6400356889 ,      0.1646393836 ,      0.1757245958
   },

   {   -0.5828353763 ,     -0.0495448597 ,     -0.2380536348 ,      0.1421590447 ,      0.2014666498 ,      0.5519719720 ,
       -0.1997997463 ,     -0.1755696833 ,     -0.4388830662 ,      0.6659846306 ,      0.3532038331 ,     -0.1083694771
   },

   {    0.3333734274 ,     -0.0322577395 ,      0.4348903000 ,      0.0524064004 ,      0.1311742663 ,      0.3448808789 ,
        0.1469970942 ,      0.3254109621 ,      0.2934934497 ,      0.2864036560 ,     -0.5222598314 ,     -0.0389292538
   },

   {    0.3628081381 ,      0.5630180836 ,     -0.5133435130 ,      0.0818291679 ,     -0.3491922319 ,      0.2471886426 ,
       -0.0779844746 ,     -0.2391014099 ,     -0.0524260141 ,      0.1525640339 ,     -0.3026258051 ,      0.0010526698
   },

   {   -0.2736150324 ,      0.6262957454 ,      0.0116778649 ,      0.1183430180 ,      0.3648855090 ,     -0.5635790825 ,
        0.2225367278 ,      0.4547130466 ,      0.2974534631 ,      0.2538293302 ,      0.0994087681 ,      0.9047074318
   },

   {    0.0152749605 ,      0.0716743022 ,      0.1621696502 ,     -0.3221051097 ,     -0.1809301674 ,      0.3487838507 ,
        0.7363552451 ,     -0.4690282643 ,     -0.4886809587 ,      0.6562377810 ,      0.0283462331 ,      0.6302511692
   },

   {    0.4604122937 ,     -0.1632645875 ,     -0.3777393699 ,      0.0901267827 ,     -0.3016689420 ,      0.1931411624 ,
       -0.3277641237 ,     -0.4408005774 ,     -0.2779448032 ,      0.0218301285 ,      0.4871327877 ,     -0.3612681031
   },

   {   -0.3808508813 ,      0.1328090876 ,      0.3427706361 ,      0.5839437842 ,     -0.0735051706 ,     -0.1332943738 ,
       -0.1897833198 ,     -0.5406803489 ,     -0.4977631271 ,     -0.4222548604 ,      0.0559588932 ,      0.1217119023
   },

   {    0.6358771920 ,      0.4265213013 ,      0.6426385641 ,     -0.0016540253 ,     -0.6683534384 ,     -0.0598298162 ,
       -0.5871059299 ,     -0.1005629227 ,      0.4433353245 ,      0.4394858778 ,      0.1699973196 ,     -0.0927133188
   },

   {   -0.3106200993 ,      0.1328334212 ,     -0.0842068270 ,      0.5751945972 ,     -0.7069198489 ,      0.2838039696 ,
        0.0592056736 ,     -0.2222616971 ,      0.1270871162 ,     -0.1125029400 ,      0.5380290151 ,      0.6441499591
   } };

const weight_t full2_weight[FULL2_WEIGHT_ROW][FULL2_WEIGHT_COL] =
{ {    -0.1912148893 ,     -0.2915437520 ,      0.1701124907 ,     -0.1786483526 ,      0.3544467688 ,     -0.2576564848 ,
       -0.1344130188 ,      0.3490511179 ,      0.2496339381 ,      0.3699612319 },

  {     0.2754479051 ,     -0.1764532775 ,     -0.6284164786 ,     -0.0776895359 ,      0.3121466041 ,      0.2801336944 ,
       -0.4539241195 ,     -1.1885616779 ,     -0.2537492514 ,      0.5476112366 },

  {     0.6045042872 ,      0.3337697387 ,      0.1188725382 ,      0.3247734308 ,     -0.3354184031 ,     -0.4883824289 ,
       -0.4001343846 ,     -0.2789050639 ,     -0.2255235761 ,      0.2619627416 },

  {     0.2181068808 ,     -0.5634167790 ,      0.2452832460 ,      0.4004648328 ,     -0.3480976224 ,      0.4033314884 ,
        0.1729736477 ,     -0.1580871195 ,     -0.2660758495 ,     -0.1886804849 },

  {    -0.8753489852 ,      0.6643633246 ,     -0.1827301234 ,      0.0392939635 ,     -0.5609211326 ,      0.1611417830 ,
        0.0156289712 ,     -0.0208377559 ,     -0.3810000718 ,      0.2388843000 },

  {    -0.5008888841 ,      0.1312801987 ,      0.1286585629 ,      0.5839919448 ,      0.1736264080 ,     -0.0162459072 ,
        0.0366495326 ,     -0.5774542689 ,      0.4342668056 ,     -0.3963805139 },

  {    -0.6253832579 ,      0.1954036802 ,     -0.4026817679 ,      0.0988171771 ,     -0.1035425738 ,     -0.5783159137 ,
        0.4503972530 ,     -0.3624161482 ,      0.6980308294 ,      0.2770224214 },

  {     0.2074857354 ,      0.4830393195 ,      0.3241217732 ,     -0.5270399451 ,      0.3505879939 ,      0.2498976588 ,
        0.0602070577 ,      0.1990927011 ,     -0.5051823258 ,     -0.5741411448 },

  {     0.2035168558 ,      0.1167902872 ,      0.0462586582 ,     -0.2293404192 ,     -0.2866584361 ,      0.0314035378 ,
        0.0557029322 ,     -0.3015331030 ,      0.6125819683 ,     -0.0845693797 },

  {    -0.7448297739 ,     -0.0731210113 ,      0.5543845296 ,     -0.5385727286 ,     -0.4017553329 ,      0.3658429384 ,
       -0.6119337678 ,      0.1611160040 ,      0.0782091320 ,      0.2346424907 } };

const weight_t conv1_bias[CONV1_BIAS_SIZE] = {
  -0.005105691496,   -0.005673701409,      -0.01370627899
};

const weight_t conv2_bias[CONV2_BIAS_SIZE] = {
   -0.05721860006,    -0.02454825491,       -0.1093498394,     0.04845052212,     -0.1259358227,     0.06348337233
};

const weight_t conv3_bias[CONV3_BIAS_SIZE] = {
    0.06175607443,     0.08308757097,       0.08004010469,      0.1312293261,    -0.04986162484,    -0.04382511228,     -0.0437781252,    -0.05169440061,
   -0.01598075218,     0.07741598785,       0.08401635289,      0.0656677559
};

const weight_t full1_bias[FULL1_BIAS_SIZE] = {
    0.03897951916,     0.06992208213,        0.1401252151,     0.01938506775,      0.1046486348,     -0.2284769714,    -0.04765707254,     0.09180878103,
    0.06420214474,      0.1071043089
};

const weight_t full2_bias[FULL2_BIAS_SIZE] = {
     0.1215347722,    -0.06446829438,        0.1014253646,     -0.1398607194,    -0.04937473312,    -0.06617134064,       0.220720619,      0.1260503829,
    -0.2094665468,    -0.03137274086
};

#endif
