0.1814664900
0.3274464905
0.3202091157
-0.0082066469
-0.2243787944
0.1755842716
0.4879103005
0.4327221513
-0.1278301924
-0.4778502584
-0.1002311781
0.2652467489
0.4680193067
0.1991636902
-0.0991309285
0.0558870286
0.1521130949
0.3804022968
0.4070093334
0.1657082587
0.1043599918
0.2271806449
-0.0109776203
0.3262324631
0.2081526965
0.2160148323
0.6490345001
0.3758903146
0.6028202176
0.2751030326
0.2119859606
0.4546004534
0.6504338384
0.1725174040
0.3370919824
-0.1479521990
-0.2163283080
-0.0679804012
0.2340595275
0.1645789295
-0.2809998691
-0.2351932079
-0.4304267764
0.0202988908
0.1958651096
-0.4547146559
-0.4377094209
-0.4279997647
-0.2887023985
0.0091215847
0.0645512268
0.1317860037
0.2373217344
0.3209391534
0.0307303146
0.0095267529
0.5718843341
0.3194968104
0.3758032322
-0.0743223950
0.3630037308
0.6435133815
0.7593921423
0.0100690946
-0.1949654073
-0.0386444516
0.2008746862
0.2881838083
-0.0333413742
-0.1265579313
0.0050803768
0.1956532747
-0.2039324492
-0.4230515659
-0.6380890012
