0.2842950523
-0.2083601952
-0.3425503969
-0.0220788196
0.3793658316
0.4073196948
-0.0404425226
-0.1477679312
0.1384367645
0.1432775110
0.1258084476
-0.0142911505
-0.0533211119
0.0229931362
-0.1363717169
0.0162106957
0.1190320179
-0.0236447416
-0.0383838937
-0.0886411890
0.1028206199
0.0519955903
0.0429416411
-0.0472797044
0.0532210432
-0.2471521497
-0.1691723317
-0.1182227582
0.1701329350
0.1215784922
-0.1415700614
-0.3033797443
-0.3980172276
-0.2788817883
0.0966951177
-0.0662348345
-0.4615173042
-0.3355550468
-0.2302658707
-0.0263199322
-0.0641315728
-0.2208636999
-0.1557465941
-0.0216671824
-0.2810685635
0.0848965272
-0.0422952734
0.1549743563
-0.0213115867
-0.0706563964
0.0872994959
-0.1823639125
-0.2687362432
0.0571229458
0.3196342289
0.2145247161
-0.1721110940
-0.1706092805
0.0714633167
0.2714477479
0.2128037214
0.0093914187
0.0498088710
0.1231198162
-0.0735512301
-0.0349729955
-0.0234651845
-0.0053252694
0.1557909548
-0.1028265655
0.1648471355
0.0418416560
0.1537489891
-0.1295536608
0.1195706949
-0.0204094592
0.0492883660
-0.1340968758
-0.0129802106
0.0259615351
-0.1839854419
-0.2986480892
0.0098482789
-0.0149630764
0.0185991116
0.1158595756
-0.0322421491
-0.1711258143
-0.0765808523
0.0235497244
0.0458464101
0.0673180670
-0.0529191829
0.0471001305
0.1491913646
-0.0585985966
0.0468998514
0.2583809197
0.0546531826
0.0554428771
0.0233152192
-0.0799767300
-0.0531434007
0.1105645671
0.2400184572
-0.1141585708
0.2329774946
0.3371097744
0.4141158462
0.0723861530
-0.1044728681
-0.1454764307
-0.1739799380
0.1025622562
-0.0429940745
0.2237101197
0.1554436237
-0.0679115653
-0.0073833521
-0.2550670207
0.2439845204
0.3312051892
0.3402401507
0.0165714957
-0.3472040892
0.1397105008
0.1725295782
0.1138492301
0.0466883443
-0.1359414905
-0.1668278128
0.0491356254
-0.0964802057
-0.0827590227
-0.1699528247
-0.0292722229
-0.2060098350
-0.3075931966
-0.2826884985
0.0249688178
0.0584907793
0.0515331104
0.1024009511
0.1324681044
0.1367955506
0.0051984764
0.0504508503
0.0783497691
0.0722994879
0.0173967145
-0.1930508763
0.0818066001
-0.3242136836
-0.4000120461
-0.1358417720
0.1726647913
-0.1787232906
-0.1582034081
-0.1562339514
-0.1369640529
0.0893957391
0.0820856467
-0.0264778826
0.2172154188
-0.0606753416
0.1105833128
-0.0236336105
0.0466385670
0.0173674282
0.0165603310
-0.3256863952
0.0426937416
0.1256495565
-0.0471014455
-0.0638385937
-0.1926386207
0.0184478126
-0.0330067240
0.1536523700
0.2761278749
-0.3924831748
-0.4676801860
-0.1690165251
-0.1519312114
-0.0778031275
0.2355908155
0.0671805888
0.0482006371
0.0850304514
-0.0761828050
0.6266516447
0.4165776372
0.2902941406
0.3934727013
0.1581649184
0.1389234960
0.0310907699
0.0785955191
0.0522484183
-0.0854246467
-0.1180382520
0.0358351469
-0.0936409533
-0.3179049194
0.3491430283
-0.0603141300
-0.3207390308
-0.4761465490
-0.4546007812
-0.3842187822
0.1818210185
-0.0857284293
0.1999664009
-0.0486357436
-0.0347813591
0.1321958154
0.2002586573
-0.1404460669
0.1394693851
0.2295113504
-0.0240987968
-0.1460834891
-0.0408345535
0.1317141801
-0.1001249477
-0.1934210360
-0.1478531808
0.0403393768
0.1644036323
0.2342057526
-0.1614309847
-0.2109842151
0.0430257432
0.2557768524
0.0371840484
0.0350649208
-0.2610899508
0.1813662797
0.1810877323
0.1102951244
-0.1869539618
-0.2079602331
0.2312575430
0.1449537575
-0.1655798405
-0.0589300692
0.1468533128
0.2224982977
0.1035198793
-0.2067605853
-0.1246296242
0.1692011505
0.2355017960
-0.2556084991
-0.3711826503
-0.2205056995
-0.0121543631
-0.3243337274
-0.4800093472
-0.0241911002
0.0617599152
-0.0809403807
-0.3055185676
-0.3002439141
-0.0978599787
-0.0493140034
-0.1353583783
0.0622171052
-0.2116947621
-0.0725306794
-0.1969927102
0.1928804219
0.0862291604
-0.0490176864
-0.0183823947
0.0513850451
-0.3206143975
0.0131711448
0.3478748202
-0.0039839009
-0.1785680056
-0.3187011182
0.0839756653
0.2771644890
0.0855406374
-0.0677624643
-0.1506849676
0.1289594769
0.3138051927
0.0021156466
-0.1597488075
0.0308080204
0.2424125522
-0.0225159433
-0.0804109648
-0.0152851883
0.0040785805
0.1795266271
-0.0177358575
-0.1704394966
0.0652225539
-0.1072247252
-0.1075057685
0.1147381142
-0.1110163257
-0.1808956563
-0.0257521886
0.1694607139
0.1631855965
-0.1307656318
0.1513822377
0.0078304615
-0.0381873995
0.2639190257
0.2530842125
-0.1797897816
0.0741427839
0.0639990494
0.0992664546
-0.0197196603
0.0016738217
-0.0532903410
-0.2406328171
-0.1558487117
0.0701414719
0.1184275225
0.1155899838
0.0674577206
-0.2513580322
0.1172807217
0.2126694173
-0.1111439317
0.0681320429
-0.2517749667
-0.1704947650
0.1397390813
0.0050136093
0.1566837579
0.3037863672
-0.0852007046
0.1840516925
0.0563502349
0.3363467157
0.2369359285
0.2260833532
0.0749675855
0.0794047043
0.1328019351
0.2183962166
0.1293788552
-0.0215295926
-0.0078602834
-0.0585154109
0.0079919761
0.1219523400
-0.1686615199
-0.1166826114
0.0689968020
0.0977613255
-0.0843957514
0.0107529629
-0.0204208698
-0.1100713164
-0.1055437624
0.0512413122
0.0898531601
0.0763234124
-0.0027541250
0.0031226263
-0.0480654240
-0.0259087682
-0.1833394319
-0.0691267177
-0.0402141549
0.1638017446
0.2050408870
0.2211082280
0.0088598793
-0.0174995195
0.0846215859
0.0369135849
0.0067577185
0.0982899517
-0.0382105671
-0.3925274014
0.0463355407
-0.0535998382
-0.3728430569
-0.4185205698
-0.2947927117
-0.0845809057
-0.2791689932
-0.1488695443
-0.0548992492
0.0443787053
-0.0983958617
0.1547864079
0.1598817855
0.0248404089
0.1369860321
-0.1389389485
0.0838676840
-0.0780788288
-0.0619604848
0.1877640188
0.2073994279
0.1812499315
0.2069333047
0.2017603964
0.3525288105
-0.0150526175
0.0261001289
0.1238189265
0.0437503494
-0.1326784194
-0.1402958035
-0.2900393903
-0.3913552761
-0.4047565162
-0.2378787100
-0.1500122994
-0.4189141691
-0.1510920227
0.2629533410
0.2363417596
0.1897751391
0.0198667627
-0.1466805339
0.1570452601
0.3231861293
0.2656855583
0.1541553736
0.0713251978
0.3039536476
0.3199676275
0.0235608704
-0.1749437153
0.0885197148
-0.2601950467
-0.3691407442
-0.1639873385
-0.2556398213
-0.6760922670
-0.5584760904
-0.1814724952
0.1070146859
-0.1035787240
-0.0723498017
0.2405620962
0.2866741419
