-0.2328070402
0.4619468451
0.3677606583
-0.3471348286
0.1525757164
0.6058751941
-0.0315159224
-0.0032600241
-0.3094064295
-0.6400356889
0.1646393836
0.1757245958
-0.5828353763
-0.0495448597
-0.2380536348
0.1421590447
0.2014666498
0.5519719720
-0.1997997463
-0.1755696833
-0.4388830662
0.6659846306
0.3532038331
-0.1083694771
0.3333734274
-0.0322577395
0.4348903000
0.0524064004
0.1311742663
0.3448808789
0.1469970942
0.3254109621
0.2934934497
0.2864036560
-0.5222598314
-0.0389292538
0.3628081381
0.5630180836
-0.5133435130
0.0818291679
-0.3491922319
0.2471886426
-0.0779844746
-0.2391014099
-0.0524260141
0.1525640339
-0.3026258051
0.0010526698
-0.2736150324
0.6262957454
0.0116778649
0.1183430180
0.3648855090
-0.5635790825
0.2225367278
0.4547130466
0.2974534631
0.2538293302
0.0994087681
0.9047074318
0.0152749605
0.0716743022
0.1621696502
-0.3221051097
-0.1809301674
0.3487838507
0.7363552451
-0.4690282643
-0.4886809587
0.6562377810
0.0283462331
0.6302511692
0.4604122937
-0.1632645875
-0.3777393699
0.0901267827
-0.3016689420
0.1931411624
-0.3277641237
-0.4408005774
-0.2779448032
0.0218301285
0.4871327877
-0.3612681031
-0.3808508813
0.1328090876
0.3427706361
0.5839437842
-0.0735051706
-0.1332943738
-0.1897833198
-0.5406803489
-0.4977631271
-0.4222548604
0.0559588932
0.1217119023
0.6358771920
0.4265213013
0.6426385641
-0.0016540253
-0.6683534384
-0.0598298162
-0.5871059299
-0.1005629227
0.4433353245
0.4394858778
0.1699973196
-0.0927133188
-0.3106200993
0.1328334212
-0.0842068270
0.5751945972
-0.7069198489
0.2838039696
0.0592056736
-0.2222616971
0.1270871162
-0.1125029400
0.5380290151
0.6441499591
