-0.1912148893
-0.2915437520
0.1701124907
-0.1786483526
0.3544467688
-0.2576564848
-0.1344130188
0.3490511179
0.2496339381
0.3699612319
0.2754479051
-0.1764532775
-0.6284164786
-0.0776895359
0.3121466041
0.2801336944
-0.4539241195
-1.1885616779
-0.2537492514
0.5476112366
0.6045042872
0.3337697387
0.1188725382
0.3247734308
-0.3354184031
-0.4883824289
-0.4001343846
-0.2789050639
-0.2255235761
0.2619627416
0.2181068808
-0.5634167790
0.2452832460
0.4004648328
-0.3480976224
0.4033314884
0.1729736477
-0.1580871195
-0.2660758495
-0.1886804849
-0.8753489852
0.6643633246
-0.1827301234
0.0392939635
-0.5609211326
0.1611417830
0.0156289712
-0.0208377559
-0.3810000718
0.2388843000
-0.5008888841
0.1312801987
0.1286585629
0.5839919448
0.1736264080
-0.0162459072
0.0366495326
-0.5774542689
0.4342668056
-0.3963805139
-0.6253832579
0.1954036802
-0.4026817679
0.0988171771
-0.1035425738
-0.5783159137
0.4503972530
-0.3624161482
0.6980308294
0.2770224214
0.2074857354
0.4830393195
0.3241217732
-0.5270399451
0.3505879939
0.2498976588
0.0602070577
0.1990927011
-0.5051823258
-0.5741411448
0.2035168558
0.1167902872
0.0462586582
-0.2293404192
-0.2866584361
0.0314035378
0.0557029322
-0.3015331030
0.6125819683
-0.0845693797
-0.7448297739
-0.0731210113
0.5543845296
-0.5385727286
-0.4017553329
0.3658429384
-0.6119337678
0.1611160040
0.0782091320
0.2346424907
