0.0573580302
0.0504875332
0.0119505264
0.0565712415
0.0269053988
0.0243408009
0.0428003520
0.0293497480
0.0542066060
0.0213219766
0.0389387682
0.0031245369
0.0252065305
0.0433123261
-0.0271404963
-0.0214045811
0.0011435213
0.0162871052
0.0235063601
0.0239206031
0.0396391712
-0.0118547305
-0.0081206290
-0.0102032721
-0.0067898412
0.0293186065
0.0335259773
0.0198758692
0.0397696383
0.0268545188
0.0255948510
0.0358034596
0.0151783219
0.0129333790
-0.0015746746
-0.0294642467
0.0146600157
0.0111517357
-0.0100948960
0.0294819456
-0.0271938164
0.0411425270
-0.0060665132
0.0121577270
0.0259785447
0.0230859462
-0.0046546194
0.0360864997
0.0052972166
-0.0047338032
-0.0063330471
0.0262433738
0.0451460630
0.0330621675
0.0122878347
-0.0251513179
0.0044179014
0.0452312417
0.0527179576
0.0455419011
-0.0153805139
0.0191556439
0.0311841574
0.0485275239
0.0368348062
-0.0005483888
0.0541136451
0.0132202264
0.0215978492
0.0135127818
0.0118949544
0.0513374843
0.0123675335
-0.0284691118
0.0297644846
0.0279808957
-0.0030499967
0.0551750325
0.0445541851
0.0411578193
0.0053237043
-0.0241143797
0.0432765558
0.0359816179
0.0223073233
0.0401291028
0.0550509803
0.0226430371
-0.0082823457
-0.0233070832
-0.0252673756
0.0252271257
0.0232253447
-0.0115046566
-0.0096654985
0.0044637793
0.0136693278
0.0065255938
0.0008126940
0.0269525424
0.0528410487
0.0086556533
0.0503009707
0.0429759249
-0.0267147198
0.0129365958
0.0182450376
0.0132988803
-0.0198030174
-0.0045077605
-0.0053381370
-0.0228828918
0.0552377366
0.0178558268
0.0241469033
-0.0268576890
-0.0122323381
-0.0246287007
0.0094151162
0.0545805730
0.0045275711
0.0446230844
0.0506848246
-0.0268146582
0.0102424789
0.0290752295
0.0359023660
0.0181300193
0.0246525723
-0.0211848672
0.0309189502
-0.0149566652
0.0084992023
0.0196872596
0.0111516146
-0.0170965325
-0.0194594357
-0.0211143084
-0.0250751134
-0.0178873148
0.0395531356
0.0329437889
-0.0153370779
0.0454889536
0.0308942590
0.0424926244
0.0488888845
-0.0106803961
0.0243163444
0.0535270460
0.0425432026
0.0107986294
0.0552488901
-0.0021829742
0.0347367562
-0.0057574608
0.0016832979
-0.0120749045
0.0140727721
-0.0176867954
-0.0219344590
-0.0071545341
0.0005349764
0.0386388376
-0.0063726925
-0.0150595186
-0.0143147828
0.0441115014
0.0153026190
0.0476967841
-0.0042214910
0.0118692033
0.0084522674
0.0252857972
0.0330527611
-0.0148123456
0.0292649567
0.0336135775
0.0178274531
0.0162466336
0.0041652424
-0.0258297920
-0.0265277661
0.0401900075
0.0402006879
0.0257052109
0.0011266847
0.0145113040
0.0551087819
-0.0224391371
0.0398589410
-0.0114424173
-0.0200586058
-0.0173277073
-0.0231754184
-0.0140021164
-0.0183778126
0.0297132507
0.0293791965
0.0265678670
0.0111710755
0.0228547398
-0.0128415562
0.0322750658
-0.0265598875
0.0367010348
0.0140424436
0.0290352814
-0.0077988412
-0.0250177905
-0.0174945481
0.0430728719
0.0150553565
-0.0091765765
-0.0001905297
-0.0098198466
-0.0078420779
0.0317267776
-0.0215235092
0.0481769629
0.0130038960
-0.0182005987
0.0277258847
0.0023793753
0.0315224305
0.0100712944
0.0099952044
0.0099015040
-0.0058243447
-0.0231628790
0.0415889584
0.0413738526
0.0434488729
-0.0218144562
0.0219422858
0.0147463046
-0.0006195313
0.0087569160
-0.0150369909
0.0129646128
0.0434307940
0.0377018303
0.0263577532
0.0331898071
0.0082453387
0.0149232894
0.0379793867
0.0010789479
-0.0144509198
0.0552664697
0.0032952421
-0.2987796068
-0.2158091962
-0.0418605879
0.0507501215
-0.3594368100
-0.3030928075
0.3710886240
0.1814059317
-0.0149271088
-0.1353088319
-0.0908967853
0.1337438524
-0.0939902291
0.0327832177
-0.0199035443
0.1988283098
0.2031372637
-0.0097521152
-0.0177136995
-0.0236004777
-0.2153660208
-0.1514190137
-0.1405892968
-0.0194026567
0.1197495162
0.1976607740
-0.0721812472
-0.2362810820
-0.1509875953
0.1974377930
-0.2042253166
-0.1866667122
0.1550618410
0.1083820462
-0.2463639677
-0.3160634339
-0.1431862712
0.0442223437
0.0862259269
0.0021218653
-0.1139015332
0.0750904083
0.0480847768
0.1440934986
0.0152482772
0.0494902134
0.2541642487
-0.1109627634
-0.0068855491
0.1739398241
-0.0947382301
-0.2990383208
-0.0724784061
-0.0101061324
-0.0305744633
-0.3821335137
0.0555528291
0.2165862471
-0.0808659196
-0.2210377008
-0.3361264467
0.1573011726
0.0010938101
-0.0007956589
-0.0383885540
-0.0350248031
0.2307612300
-0.0454651751
0.0902040377
0.0614153780
-0.1146888360
-0.0099454299
-0.1000797525
-0.0244666804
0.0301124193
0.0377154872
0.0415260755
0.0236030389
-0.0137259904
0.0092255790
0.0052589360
0.0029569638
-0.0124418763
0.0037215203
-0.0269702505
0.0450971872
0.0100605646
0.0330242440
-0.0200274829
0.0245242883
0.0210678130
-0.0120407976
-0.0079756966
0.0255544428
-0.0130889118
0.0074774362
0.0353199244
0.0529086292
-0.0075398134
-0.0158021618
0.0342690647
0.0461268090
0.0032587626
0.0016839383
0.0508312769
0.0416266993
0.0435489379
-0.0161720403
-0.0160227548
-0.0053635132
0.0090207933
0.0321061499
0.0439512879
-0.0121069886
-0.0055427323
0.0473397151
-0.0240340475
-0.0003187205
0.0329552963
0.0356259905
0.0029231471
0.0461529531
-0.0261387061
-0.0030696806
0.0345642865
-0.1502456516
-0.1991102993
-0.0081957886
-0.0722637624
-0.1690565199
-0.2859024405
0.2093414664
0.1787399352
-0.1051969826
-0.1914403141
-0.2809963822
0.0486343913
-0.0120878369
0.0080126869
-0.0445411205
0.0500927567
0.1850428879
0.0270189047
0.1511356384
0.0177716445
-0.0994915664
-0.0899831131
-0.0757429823
-0.0663105398
-0.0522983819
-0.0525088534
0.0291018486
-0.0052826544
-0.0290815607
-0.0245312452
0.0012608205
0.0190114360
-0.0487933010
-0.0319418386
0.0083741220
-0.0196039248
0.0225596521
-0.0108219562
-0.0504218042
-0.0252147224
-0.0093200933
0.0244845655
0.0088102454
-0.0274688788
-0.0203046892
-0.0215533972
0.0015001424
-0.0372016653
-0.0368681252
0.0000264526
0.0096490616
0.0113187339
-0.0000839623
0.0062017902
-0.0141675621
-0.0166476555
-0.0428340286
-0.0113978805
-0.0541626699
0.0087812282
-0.0421124063
-0.0059006941
-0.0487701073
0.0070904703
-0.0228398368
-0.0509730838
0.0281795133
0.0151876574
-0.0204131603
-0.0461555645
-0.0456366092
-0.0375608280
0.0037852393
-0.0209973343
-0.0178409722
-0.0425607637
-0.0422528051
-0.0237932261
-0.0200609788
0.0028758813
0.0004694860
-0.0174250044
0.0251263976
0.0154388025
-0.0297440663
-0.0251559317
-0.0176448915
0.0094426479
-0.0484375544
-0.0131435711
-0.0066272430
-0.0373200253
-0.0475306623
0.0080963578
0.0101900538
0.0298794284
-0.0246966127
0.0240255632
-0.0150746396
0.0115645602
0.0198130384
-0.0454461537
-0.0385366641
0.0198272299
0.0079355901
0.0158424992
-0.0181328002
0.0137096364
0.0105175832
-0.0054661371
-0.0450261943
-0.0281979404
-0.0508675165
-0.0186370276
0.0217532013
-0.0499888994
0.0163401626
0.0098422458
-0.0171416886
0.0330936350
-0.0115803313
0.0082129529
0.0086384034
-0.0307606403
-0.0227874275
-0.0088428827
0.0046790526
-0.0418487452
-0.0272068512
-0.0216322280
-0.0150275398
0.0248195715
-0.0395627283
-0.0121184094
-0.0287910402
-0.0534665771
-0.0106924931
-0.0300628114
-0.0497425310
0.0249658264
-0.0374361873
-0.0384486169
0.0146202790
-0.0055107186
0.0293380413
-0.0360311680
-0.0471711941
-0.0392460562
0.0047011958
-0.0340562724
-0.0028696989
0.0057605901
-0.0428053811
0.0160466824
-0.0117789153
-0.0289428793
0.0059656426
-0.0515388250
0.0190544650
0.0030156460
0.0178837720
-0.0088393725
0.0223336015
-0.0522461273
-0.0230336487
-0.0123521080
0.0228694584
-0.0227938183
-0.0463488214
0.0152855720
0.0051030847
0.0245942716
0.0244802106
0.0095630158
0.0109267151
0.0109064132
-0.0267173126
-0.0046489802
-0.0212627817
-0.0301062092
-0.0185846072
-0.0021382303
-0.0479863025
-0.0173031837
-0.0146342786
0.0130871888
0.0147193940
0.0024944136
0.0028433278
-0.0472967476
-0.0359896980
-0.0322086141
0.0237269718
-0.0339149982
-0.0136177996
0.0235640071
0.0020794810
0.0256345756
-0.0037850759
-0.0092775030
0.0195136406
-0.0513132550
-0.0072651389
-0.0511692725
-0.0325429738
-0.0305285286
-0.0408971198
0.0048123184
0.0123412348
-0.0125836991
-0.0171633363
-0.0332367644
0.0277196597
-0.0469498523
-0.0100616738
-0.0213634279
0.0259825792
-0.0416148640
0.0275339410
0.0050876485
0.0177075416
-0.0249548759
0.0149552580
-0.0460198224
-0.0430048741
-0.0387444720
-0.0110440711
-0.0025971332
0.0263377726
0.0080673983
-0.0505278856
-0.0062422911
0.0245165974
-0.0522734672
0.0006236386
0.0229998529
0.0274636783
0.0127009219
0.0018525311
-0.0328159891
0.0067035500
-0.0092189517
-0.0286162458
-0.0084742736
0.0131730447
0.0198303293
0.0309909843
-0.0186358597
-0.0484436080
0.0302736722
-0.0305422973
-0.0301759597
0.0031409380
-0.0405096486
0.0179646723
-0.0033030654
0.0175036620
0.0164931547
-0.0445584506
-0.0090081133
-0.0146040414
-0.0079776309
-0.0472647436
0.0138038658
-0.0126252761
-0.0369369648
-0.0424232557
-0.0374878868
-0.0107028084
0.0078627020
-0.0338468067
-0.0336418748
0.0302735344
-0.0382519364
-0.0596289672
0.0131395133
-0.0836349651
-0.1578303874
-0.0934444964
-0.0912316591
-0.0645356849
0.0825749263
-0.0948944688
0.0071067470
-0.2158620059
0.0290754456
0.0988451242
-0.1150874496
0.0006568368
-0.0015576794
0.0453250483
0.2378305346
0.1444264054
0.0848742947
0.0305878036
0.0282190926
0.0838279501
0.0464695096
0.0733119771
0.0496698432
0.1522259265
0.1181944534
0.1019127294
0.0661385357
0.0741325617
-0.0015881239
-0.1422801465
-0.1054656953
-0.0568600744
-0.0731563047
-0.1120451465
0.0913697183
0.0369471088
-0.0920961350
-0.1668781042
-0.0903621018
0.0772009790
-0.3295379877
-0.0261360314
0.1803386807
0.3268645704
0.1219749898
0.2075707167
0.2958110273
0.0019102893
0.0843439400
0.1713778973
-0.0091686249
-0.1189573407
-0.0684301257
-0.1369148046
-0.0158594307
-0.2147151977
-0.1475784630
-0.2353310585
-0.1728357822
0.3301891685
-0.1778795421
0.0091751637
-0.1517458409
-0.0061053648
0.1394722462
-0.0392394140
0.1476346552
0.1381703168
0.2029504031
0.1256869137
0.1319807321
0.0653943568
-0.0324225649
-0.0066660224
0.0101043843
-0.0397981927
-0.0337446444
0.0126944585
-0.0175347794
-0.0142436242
0.0238118861
0.0026903672
0.0094895074
-0.0181061048
-0.0101146447
-0.0314252898
0.0161545724
-0.0330763496
-0.0494161397
-0.0399452671
0.0089492220
-0.0077789435
-0.0003084697
-0.0504642278
-0.0339703970
0.0200034156
-0.0467358306
0.0027477422
-0.0504736044
-0.0238698553
-0.0485926121
0.0275842994
0.0094804922
-0.0054246383
-0.0318764895
-0.0234951265
-0.0401287153
-0.0310848486
0.0064802659
-0.0305756927
-0.0063484670
0.0215476006
0.0267485045
0.0054405206
-0.0475131907
0.0180564336
-0.0036233377
0.0265940968
-0.0235174634
0.0227930918
0.0085877981
0.0027684360
0.0292193610
0.1350782216
0.1714258790
0.0005560468
-0.0413889848
-0.0640991852
-0.2134778947
-0.0050304835
-0.2175157964
-0.0902475268
-0.2225016803
-0.0868307501
0.3074616492
-0.1657968611
0.0415385440
-0.0737039372
0.0839515328
0.1338445693
0.1399911642
0.1088165790
0.1196053922
0.1922381520
0.2159489840
0.2212778777
0.0480164960
0.0012339067
-0.0249775406
0.0203664955
-0.0123901246
0.0112219574
0.0324774235
0.0550971180
0.0285655279
0.0338565521
-0.0232318509
-0.0202530976
0.0271935742
0.0435579419
0.0476309843
-0.0046074647
0.0428546332
0.0207488704
0.0225828700
0.0318004265
-0.0238896310
0.0179452468
-0.0033417833
0.0286096334
-0.0188018214
0.0145116914
-0.0172838289
0.0187434014
0.0101685338
0.0054869303
-0.0138754845
0.0428427160
-0.0246667638
0.0157554857
0.0301359296
-0.0006635571
0.0167981125
0.0415243767
0.0324838161
0.0450251698
0.0112919603
-0.0203824285
0.0151362428
-0.0142749920
-0.0120776109
0.0529455803
-0.0084113516
0.0556805357
-0.0121170478
-0.0195043497
0.0450023673
0.0050434833
0.0102534322
-0.0107627781
0.0296824444
0.0058313962
0.0163733605
0.0304410271
0.0375339389
-0.0211236738
0.0498736426
-0.0094934683
-0.0058291960
0.0003584617
0.0292547327
0.0392163433
-0.0201230161
0.0163633171
-0.0197551008
-0.0140647888
0.0371645093
-0.0050004981
-0.0079546971
0.0395369083
0.0108636329
-0.0244557802
0.0304685999
0.0152528435
0.0445067286
-0.0254255943
0.0090917395
0.0427427627
0.0223994646
0.0234777424
0.0372851416
0.0300004520
0.0541106872
0.0534535237
0.0356097110
0.0213956684
0.0044967816
0.0333546549
-0.0144912256
-0.0245148595
0.0288212150
0.0048773303
0.0323706530
0.0112786116
-0.0026960496
0.0519306511
0.0183703396
0.0500329621
-0.0140233999
-0.0226330198
-0.0166626759
0.0002847819
0.0469776429
-0.0097076204
0.0289111100
0.0437863395
-0.0060868440
-0.0091271894
-0.0018188368
-0.0282815434
-0.0220150948
0.0393343195
0.0356792025
-0.0241141599
-0.0029999514
0.0207501259
0.0078467252
-0.0233420618
0.0311298463
0.0350877047
0.0460272096
-0.0024072197
-0.0002962612
0.0103033772
0.0396588519
-0.0217933357
-0.0217388850
-0.0286140963
-0.0122574577
-0.0227600895
-0.0020750049
0.0224741250
-0.0227217954
0.0188362263
0.0311918985
0.0009535764
-0.0054361154
0.0377919860
0.0362574048
0.0317228436
0.0024367380
0.0540093072
-0.0085907159
0.0060675363
0.0018728476
-0.0281167924
0.0017195728
-0.0103737339
0.0299284291
0.0461273789
0.0204138216
0.0184550844
-0.0005460656
0.0191722270
-0.0120912753
0.0438713729
0.0529806726
0.0227955077
0.0268466324
-0.0215795804
0.0014432947
-0.0210560430
0.0219093300
0.0225718245
0.0520946011
-0.0009107766
-0.0145670194
0.0514863171
-0.0153552974
0.0318726599
-0.0251155384
0.0323923156
0.0037812167
0.0234913547
-0.0156234773
0.0207217596
0.0382786505
0.0329242684
0.0386727825
0.0387699567
0.0108446525
0.0029377041
-0.0111007746
0.0498703606
-0.0235433262
-0.0283121336
-0.0263495073
-0.0179438442
0.0407021269
0.0315763652
-0.0049803648
-0.0178258680
0.0456352346
-0.0275838785
-0.0114149489
-0.0131900189
0.0217813067
0.0119545190
0.0132503957
-0.0227325130
0.0311567653
0.0225894265
0.0032400140
-0.0067101838
0.0203632545
-0.0191072579
0.0289730020
0.0247283094
0.0410508551
-0.0118174013
0.0487285331
0.0221278463
-0.0228666738
0.0364507586
0.0032213156
0.0285284016
0.0370831303
0.0050973934
0.0139472270
0.0449192449
0.0220461357
0.0488764048
0.0142363291
0.0377582125
-0.0033090811
-0.0015289360
-0.0078686001
0.0243719183
0.0288555771
-0.0025633224
0.0460518561
0.0012866202
-0.0063430136
0.0374703482
0.0425707996
0.0530326888
0.0344888456
0.0276671033
-0.0281979982
0.0049061291
0.0519014932
-0.0153001668
-0.0077118394
-0.0075004478
0.0056060543
-0.0289018583
0.0514722019
0.0066576186
-0.1407614052
-0.2613504827
-0.5067133904
-0.3074519038
0.1577751786
-0.1273496896
-0.0195678510
-0.1687593311
0.1066206992
0.0169697292
-0.1505591273
-0.1220619828
-0.1797856390
0.1888055801
0.0067390148
0.3001505733
0.0557022393
0.0480613932
0.0494964160
-0.0393730812
0.0293070953
0.1048710197
-0.0073477305
-0.0381904617
-0.0454432666
0.0218644459
0.0436314009
0.0613606945
-0.0094302678
0.1045463011
0.2786016464
0.2659445405
0.1498352438
-0.2291856259
0.2004842460
-0.1459286362
-0.3287120759
0.0518220253
0.0632498786
-0.0527545661
0.0675324649
-0.1660833657
-0.2107277513
0.0879182220
-0.1115878969
0.1460154653
-0.0567989349
-0.1720338911
-0.0100759622
-0.0057832031
0.0057712425
-0.0340829156
-0.1852180660
-0.2633923888
0.2709710300
0.1593257487
0.2209697813
-0.1837430149
-0.1196921766
0.0560551174
-0.3061619699
-0.2137096375
-0.1470658481
0.1548852921
-0.1766253114
0.1482353806
-0.0198576264
-0.0300476514
0.0666196123
-0.0745801926
0.1004428491
-0.0233411528
-0.0520852134
-0.0068091298
0.0178810209
0.0379289910
0.0246417243
0.0385542884
0.0448802337
0.0404493660
0.0353517644
0.0457465090
0.0047897948
-0.0263248570
-0.0051749763
-0.0241168197
0.0021778501
0.0224768370
0.0286285970
-0.0195358191
0.0210304204
0.0484964065
-0.0134121627
0.0307748094
0.0453530774
0.0294346288
-0.0204940643
0.0378890745
0.0119799944
-0.0254214332
-0.0144409314
0.0167447049
0.0550437644
-0.0125485593
-0.0129389027
-0.0129462657
0.0211171117
-0.0116418563
0.0152232749
-0.0055181426
0.0530457869
-0.0259397775
-0.0197724458
0.0202194173
0.0198176131
-0.0115422225
0.0145889567
0.0221813004
-0.0241747070
0.0043575596
-0.0184485428
0.0034590538
0.0378859788
0.0143033797
0.0665729791
0.0243377350
0.0081498297
-0.1286188066
-0.1620859951
0.2340382040
0.0853927433
0.2451396585
-0.1941753179
-0.0658905283
0.0217451174
-0.3513246179
-0.2197738439
-0.1413152963
0.1802820116
-0.1279069632
0.1981488317
-0.1131516546
-0.0552909002
0.0358517990
-0.0598712452
0.0823582336
0.0040968992
-0.0249046851
-0.0022294489
0.0445570424
0.0359412208
-0.0254968684
-0.0115235755
0.0195747502
0.0213765465
0.0144807789
0.0328948498
0.0196239203
0.0501811802
0.0090538086
-0.0258252211
0.0206172429
0.0064771827
0.0338363834
0.0543965660
0.0066473680
0.0298483968
-0.0073237750
0.0194149371
-0.0136817899
0.0557731949
0.0439798832
0.0446363762
-0.0277068783
0.0141699100
-0.0040060645
0.0084881997
0.0232268907
0.0248269811
0.0368916728
0.0249220785
0.0056928964
-0.0215800013
0.0271353330
0.0466866270
0.0373377018
0.0256426781
0.0141253993
0.0334251188
-0.0051453188
0.0054921578
0.0399135202
-0.0194074828
-0.0120990248
0.0285719708
0.0086980816
-0.0227907114
-0.0029267233
0.0461088866
0.0189625118
0.0077856518
-0.0044656736
0.0332644358
0.0421342999
0.0452997051
-0.0274436250
0.0099118976
0.0414314270
-0.0031600571
-0.0276081879
0.0000162714
0.0072040851
0.0204101373
0.0394775569
0.0487517677
0.0487010740
0.0500848107
0.0001640625
-0.0296553709
-0.0156582370
-0.0214886051
0.0325156860
0.0542073511
0.0014991969
0.0231008865
0.0465363003
-0.0256003998
-0.0105248950
-0.0233568214
0.0451237895
0.0471617542
0.0522394925
0.0411680788
-0.0072912029
-0.0072879698
0.0318381563
0.0432855226
0.0359229185
0.0144058168
-0.0303305369
-0.0026490432
0.0074714008
0.0085824337
0.0213194396
0.0451802462
0.0512934662
-0.0119835446
-0.0069986270
0.0515935235
0.0025220735
0.0176634043
0.0019692315
0.0269014407
0.0519793518
-0.0126855103
0.0537753738
0.0178159475
0.0162570290
0.0450467244
0.0344423130
-0.0133942552
0.0542032756
0.0403448716
0.0290230699
0.0204780418
-0.0192589164
-0.0253571868
0.0464021564
0.0017348692
-0.0147755435
-0.0226547662
-0.0197912063
0.0473467894
-0.0019214599
-0.0056854687
0.0102001661
0.0249013770
0.0038402674
-0.0144822123
0.0476920083
-0.0027483790
0.0205465648
0.0077010645
0.0311063826
0.0308746044
-0.0040564705
0.0064515863
-0.0146514177
0.0418245755
-0.0020907363
-0.0239718985
0.0358984806
0.0317919888
-0.0293192901
0.0493152626
-0.0062599033
0.0336277001
-0.0002558134
0.0242699236
0.0345544629
-0.0095140170
0.0515835583
0.0311182700
0.0514203794
0.0278014392
-0.0018347306
0.0534313545
0.0279492103
0.0537167974
0.0065776603
0.0407956019
0.0189959183
-0.0161276627
0.0042065796
-0.0195133314
0.0024489549
0.0153505253
0.0045188922
0.0489677116
-0.0044277431
-0.0108621446
-0.0072373757
0.0102387872
0.0427057110
0.0098929703
0.0167952646
0.0433736593
0.0398460738
-0.0152283162
-0.0129218427
0.0195901077
0.0427114852
-0.0099079078
0.0433805063
0.0088429833
0.0520476475
0.0253409483
-0.0083735874
-0.0163026061
0.0537761711
0.0540247634
0.0513441041
0.0520187207
-0.0069502303
0.0425524153
0.0276921485
-0.0269794278
0.0539571829
0.0535227470
0.0403790735
0.0240714923
0.0333116651
0.0482766032
-0.0185889304
0.0295844041
0.0417263098
-0.0162897985
0.0274183489
0.0349117480
0.0255766213
-0.0140706152
-0.0220200140
-0.0200946108
0.0075780144
-0.0197480582
-0.0197097193
-0.0015109680
-0.0110232523
-0.0003857267
0.0090250997
-0.0101789758
-0.0291266870
0.0472908206
-0.0020888180
0.0136780851
0.0465351082
0.0072606918
-0.0241311193
-0.0130638024
-0.0247623511
0.0503972434
0.0543239750
0.0542966165
0.0093813837
0.0431610271
-0.0156671908
0.0056541716
-0.0042936867
0.0170619655
0.0343999118
-0.0130060762
0.0431382880
-0.0266472958
0.0211095363
0.0392914116
0.0109194070
0.0308244694
0.0394252017
0.0079415841
0.0368512534
0.0120468456
0.0130933709
0.1363938451
0.0269708056
-0.0249227956
-0.1040252894
0.1634967476
0.1123239622
-0.1057331935
-0.1608861387
-0.0868123099
0.2247287184
-0.0251094382
-0.0078213774
-0.1102969646
0.3386492729
-0.0275925696
-0.2400156856
-0.1604003012
0.1440573484
0.2270286679
0.1605253667
0.0390262268
-0.0076653268
0.0628652945
0.0358537622
-0.0760365948
-0.2070599347
-0.1059417203
0.1733376384
0.1466807872
0.0022309364
0.1006948948
0.0696539432
0.0991071984
-0.2381951958
-0.2673062682
0.1658976674
0.1568346769
-0.1619073004
-0.1925622225
0.2701882124
-0.0335295200
-0.1572042704
-0.2951340079
-0.0065062684
0.3033186197
-0.1601210535
-0.1747783870
0.0937346369
-0.0266055800
-0.0864538029
0.0351110213
0.0306005459
0.1209822372
0.0034502707
0.0247375574
0.1262238175
-0.1361889839
-0.0552371107
-0.3925649524
0.0495533273
0.1121984273
0.0082689794
-0.3675384521
-0.0460638218
0.2959153354
-0.3059209585
-0.0954983383
-0.1823088974
0.0997698382
0.1453790665
-0.0586990267
-0.0656274930
0.0145380814
0.0252390150
-0.0050145881
0.0534500778
-0.0240766108
0.0521181375
-0.0228079464
0.0545386337
0.0539143160
-0.0056433016
-0.0161055028
-0.0174532421
0.0228090622
0.0559475161
0.0125357397
-0.0214512944
0.0423750319
-0.0100287078
0.0432988144
-0.0171994735
-0.0194666535
-0.0113516534
0.0164184924
0.0158574581
0.0229611974
0.0203828905
0.0515269376
0.0494605154
0.0294618141
-0.0132409735
0.0272887088
0.0404127985
0.0506681800
0.0347534679
-0.0052980329
0.0524992011
-0.0125909187
-0.0166427679
0.0246630330
0.0258818418
0.0007382217
0.0111870430
0.0035285032
0.0319733843
0.0413310155
-0.0269917026
-0.0003179551
0.0081510236
-0.0209999084
0.0191542655
0.0292491782
-0.0191435292
-0.0340476409
0.0062657534
-0.1134303585
0.1085800156
0.0084902365
0.1275920123
0.0737061501
-0.1623557508
-0.0735088661
-0.3349442482
0.1453919858
-0.0145318834
-0.0107818702
-0.3035980761
0.2541826069
0.0058030067
-0.3252162337
-0.1044192165
-0.1021163613
0.0726812556
0.1142959595
-0.0656182319
-0.0741377622
-0.0628489032
-0.0279367231
0.0129728233
-0.0289576706
-0.0374382995
-0.0348499008
0.0055910149
-0.0286871884
-0.0579965748
-0.0660794228
-0.0703225881
-0.0214443188
0.0089886617
-0.0441854037
-0.0128905075
-0.0629413649
-0.0676532835
-0.0305602476
-0.0348827168
0.0052248347
-0.0671318248
-0.0569068752
-0.0015799077
-0.0474267937
-0.0046248096
-0.0179323647
0.0065735797
0.0098268408
-0.0469348244
-0.0382820740
0.0067799869
-0.0262785312
-0.0056181219
0.0097589847
-0.0043523628
-0.0515556894
0.0141371051
-0.0007914127
-0.0350278765
-0.0547690056
-0.0574706011
-0.0081373136
-0.0554949231
-0.0577570945
0.0172740314
-0.0044004866
-0.0125059253
-0.0315149054
-0.0460964516
-0.0123794815
-0.0513115004
-0.0120301601
-0.0598927289
-0.0189000517
-0.0170748681
-0.0071158027
-0.0603760630
-0.0471965000
0.0106838532
-0.0387434177
-0.0319605730
-0.0425136797
-0.0144306850
-0.0049455459
-0.0102981804
-0.0420432240
-0.0567614660
-0.0344621502
-0.0412495062
0.0008226415
0.0030320203
-0.0240778681
0.0118379211
-0.0626397356
-0.0536445156
-0.0292098895
-0.0698818341
-0.0310830623
-0.0569675714
-0.0331567228
-0.0030675780
-0.0536463857
-0.0376202390
-0.0027497550
-0.0088106822
-0.0498559214
-0.0041255681
-0.0584137402
-0.0028810652
-0.0033878945
-0.0217073783
-0.0540421531
0.0131748077
-0.0181833152
-0.0023578301
-0.0167553108
-0.0034602687
0.0122653116
-0.0296035130
-0.0148992063
0.0026140155
0.0063092001
-0.0088980598
-0.0306640044
-0.0474054180
-0.0631400794
-0.0092664780
-0.0256596040
-0.0324864499
-0.0610908903
-0.0601691119
-0.0526294522
-0.0220236797
-0.0256018937
-0.0158972517
-0.0675336048
-0.0446786620
-0.0121115902
-0.0484911092
-0.0253843740
-0.0038753378
-0.0327988192
-0.0173634421
-0.0155650247
0.0078663155
0.0047337203
-0.0612736866
-0.0500677489
-0.0533978306
-0.0554289147
-0.0635064542
0.0137698883
0.0078363465
0.0036043304
-0.0482539162
0.0155575620
-0.0287438985
-0.0388681218
-0.0292249396
-0.0005535871
-0.0174136385
-0.0181538519
0.0062339539
-0.0621580072
-0.0269771423
-0.0172572825
-0.0711627081
-0.0267990977
0.0021564204
-0.0299892239
-0.0520501062
-0.0265194513
-0.0213387385
-0.0087917978
-0.0185651165
-0.0525505431
-0.0181906931
-0.0134449666
0.0077205664
-0.0505312309
-0.0268898904
-0.0352314562
-0.0367781669
-0.0328397825
-0.0394751057
-0.0650193766
-0.0230925903
-0.0261941534
-0.0462263301
-0.0432219729
-0.0024572166
-0.0302626062
0.0091644786
0.0104579786
-0.0107799852
-0.0267429315
0.0059554419
-0.0126305567
-0.0176540911
-0.0536735058
0.0089899311
0.0117513975
-0.0354504064
-0.0468709506
-0.0244729649
-0.0180692598
-0.0007064193
-0.0231311731
0.0097712604
-0.0297718495
0.0081122564
-0.0560587309
0.0137027819
-0.0398503430
-0.0251795501
-0.0090000331
-0.0049197641
-0.0377103351
-0.0583058968
0.0083614131
-0.0344555303
-0.0093745859
-0.0037016401
-0.0362204351
0.0092839282
-0.0660900548
0.0104058236
-0.0159304366
0.0056526856
0.0093519492
0.0007078920
-0.0313662551
-0.0327368639
0.0000931543
-0.0245714728
-0.0688635483
-0.0539890416
-0.0425585136
-0.0412571840
-0.0326141268
0.0026078832
-0.0626538321
-0.0323714241
-0.0320511796
-0.0078411391
-0.0110155540
-0.0628862381
0.0093066674
-0.0077108759
-0.0437578782
-0.0655766204
-0.0251888987
-0.0348370224
-0.0273929685
-0.0559706390
-0.0662124231
0.0054847221
-0.0661397576
-0.0460249260
-0.0469763875
-0.0099419421
-0.0220978670
-0.0462537594
0.0121587915
-0.0409512632
-0.0421759561
-0.0325372517
-0.0438084863
-0.0351140760
0.0054571144
0.0351714715
0.2478345186
0.3311842978
0.1540804207
-0.1300121546
0.0770616755
0.2490579188
0.0586409569
0.0226862002
-0.1102285460
-0.0705498233
0.3281394541
0.2874383628
0.3451986015
0.0110152829
-0.0408402607
-0.1171433553
-0.0802578107
0.1504079551
-0.0477395616
-0.0417882875
0.0988853872
-0.0320003927
-0.0664313212
-0.1373645514
-0.0212721620
-0.0258634966
0.0375019796
-0.0186759718
0.0037635262
-0.0401834995
-0.1191084534
-0.2342036366
-0.3408110440
-0.2773283124
0.0398281477
0.1422993690
0.2598855793
0.1092862189
-0.0316812396
-0.1059097722
0.1308817714
0.2966994941
0.2050545514
0.0601788312
-0.0427378118
0.0131994197
-0.0381490886
0.4374575317
0.0486141443
-0.0108341267
0.0757212490
0.2614217103
0.0619292147
-0.0941802189
-0.0169032365
0.0649105683
-0.0930842534
-0.1117362529
-0.0852229670
0.0641447380
0.2814691365
0.4866971672
0.2025787383
0.0602858663
-0.0497140661
0.1375582367
0.0842159241
0.1745465100
-0.0461510532
-0.0851651505
0.0363281965
0.1121089533
0.1340827942
-0.1042091101
0.0083108889
-0.0389627293
0.0043197796
-0.0429039821
-0.0527703725
0.0088644223
-0.0169262663
-0.0125917345
-0.0710113272
-0.0255401265
-0.0505007468
-0.0641313195
-0.0008764625
-0.0665198863
-0.0188417044
-0.0335142352
-0.0550525896
-0.0654053241
-0.0327013321
-0.0502740070
-0.0386710800
-0.0329720452
0.0027385007
-0.0612556562
-0.0586585775
0.0065705357
-0.0625442713
-0.0242116991
-0.0683078617
-0.0548339859
-0.0421551727
0.0002622740
-0.0231649652
-0.0683078319
-0.0227959324
-0.0063811489
-0.0564450622
-0.0273222476
-0.0044822111
-0.0606782064
-0.0572702922
-0.0545721166
-0.0459752418
-0.0288482551
-0.0683263242
-0.0145302983
-0.0101824012
-0.0575796887
-0.0059629353
-0.0282920413
0.0446677841
0.1357035786
0.1753920764
0.0068398314
-0.1413915306
-0.0314925350
0.1058408394
-0.2040979266
-0.1408654153
-0.2177321315
0.0094053717
0.4229378700
0.4594440460
0.2643327713
0.0031029477
-0.0713415071
0.0464863628
0.1273122281
0.2687479556
-0.0020596241
-0.0719396248
-0.0306496695
0.1338263303
0.0362180173
-0.1040092781
-0.0447661169
-0.0316004679
-0.0463040657
-0.0393433422
-0.0117565244
-0.0065477891
-0.0416934639
-0.0670776740
-0.0199450981
-0.0167195573
-0.0639863238
-0.0055839429
-0.0660908669
-0.0511753447
-0.0162065532
0.0035117371
-0.0422829539
0.0111607471
-0.0420636423
-0.0067097009
-0.0555268824
-0.0652046576
0.0031023468
-0.0425655618
-0.0093307020
-0.0164987091
-0.0638174936
-0.0369738564
-0.0214257352
-0.0299507622
0.0014578243
-0.0160104204
-0.0325207561
0.0018523788
-0.0227016713
-0.0339334011
-0.0649023354
-0.0538957939
-0.0142473355
0.0012289425
-0.0198744778
-0.0583290495
-0.0226293318
0.0023698681
-0.0135323806
0.0063857213
-0.0370353460
-0.0154810343
-0.0468415059
-0.0126963574
-0.0390385836
0.0102770757
-0.0581189431
-0.0344036520
-0.0621140152
-0.0665070191
0.0025999779
0.0079559349
-0.0089809941
-0.0300797019
0.0040664230
-0.0509018898
-0.0451712459
-0.0469777435
-0.0414488129
-0.0299645737
0.0077010044
0.0074987062
-0.0354038775
-0.0019917691
-0.0394383594
0.0095915468
-0.0484088585
-0.0209177416
-0.0242838990
-0.0298039895
-0.0349235013
-0.0021411844
-0.0287365373
-0.0107813748
-0.0635715276
0.0085891727
-0.0665958598
-0.0349168070
-0.0401867442
-0.0651443899
0.0047231629
-0.0163530856
-0.0278249085
-0.0066120755
-0.0698638633
-0.0516369827
-0.0001871025
0.0048951330
-0.0217638947
-0.0036859626
-0.0679561496
-0.0510999672
-0.0130100921
-0.0585939400
-0.0023190866
0.0108432174
-0.0454507358
-0.0094534541
-0.0361680724
-0.0370200723
-0.0496275015
-0.0418479890
-0.0403705873
-0.0236433204
-0.0713486895
0.0097040730
-0.0285056233
-0.0520948060
-0.0469249673
-0.0289882906
-0.0108964164
-0.0225745775
-0.0037576545
-0.0053354120
-0.0030629570
-0.0669368953
-0.0212725196
0.0092803081
-0.0024557756
-0.0401260741
-0.0644334555
-0.0510170646
-0.0465983748
-0.0237631854
-0.0403707214
-0.0244054124
-0.0618025437
-0.0372408256
0.0028114757
-0.0517030247
-0.0588407367
0.0095605198
-0.0212505180
-0.0311537012
-0.0108710406
0.0030087605
0.0119358478
-0.0245777592
-0.0308133177
0.0039761225
-0.0054028844
0.0085895024
-0.0694798231
-0.0438770130
-0.0606503375
-0.0278843734
-0.0113312956
-0.0448705964
-0.0270914063
-0.0287356395
-0.0065900921
-0.0242467094
0.0115877856
0.0039064432
-0.0325817205
-0.0313653536
0.0099539477
-0.0293439962
-0.0538096540
-0.0311163440
-0.0332391262
-0.0401543602
-0.0573407821
-0.0073473039
-0.0366140120
-0.0688483268
-0.0129385190
-0.0274204705
-0.0276601985
-0.0051274216
0.0121335862
-0.0345239118
-0.0123311402
-0.0645646080
-0.0460300073
-0.0027796514
-0.0027473990
-0.0465590209
-0.0685602725
-0.0377477556
-0.0147569133
-0.0115380064
0.0112721091
-0.0490668342
-0.0445786156
-0.0034302576
-0.0269469507
-0.0241475981
-0.0478730686
-0.0498990975
-0.0113631161
-0.0396929570
-0.0464736335
-0.0547925346
-0.0179803018
-0.0400688425
-0.0153032299
-0.0455877744
0.0074803876
-0.0270260107
-0.0228326488
-0.0407966003
-0.0448260307
0.0029833305
-0.0698349103
-0.0466782749
-0.0453596376
-0.0245161857
-0.0157955661
-0.0196329001
-0.0502142385
-0.0085006151
-0.0112934271
-0.0686859190
-0.0606952868
-0.0165446438
-0.0318100490
0.0036356086
-0.0379329994
-0.0177437812
-0.0067879851
-0.0615218431
0.0068718512
-0.0556721799
0.0098463017
-0.0152204316
-0.0522772036
-0.0406718329
-0.0567823537
-0.0613588095
-0.0471288972
-0.0664795041
-0.0210540891
-0.0266100504
-0.0215082858
0.0099680033
-0.0283270888
-0.0352146588
-0.0233040508
-0.0241214596
-0.0417551659
-0.0367475860
0.0124378288
-0.0426065847
-0.0085278880
0.1110639051
0.3796886802
0.3988533616
-0.0351902321
0.0533856340
-0.0204619281
0.1347039640
0.3075859249
0.0402147770
-0.1244551539
0.1691512167
0.1474557221
0.1307980418
-0.0879656896
0.1142382994
0.1773328781
-0.1096926630
-0.1255088598
-0.1033118367
0.0165328886
0.1476168185
0.1382784098
0.0306891482
-0.0167478267
-0.0557222851
0.0122558102
0.0131602166
-0.1675095260
-0.2203471512
0.0171846654
0.0265595019
0.0139550120
0.1386085898
0.1038043723
0.0465337373
-0.2553116083
-0.1029154137
0.1524385363
0.1526987255
-0.1149776950
0.1417978555
0.3112268150
0.0112298876
-0.1983751804
-0.1601698846
0.0688688606
0.0567197166
0.1452863067
0.0902510732
0.0327780284
0.0403495654
0.1782042980
0.2555720806
-0.0142163243
0.0396742560
-0.0120341266
0.0497521199
0.3308624625
0.0124960653
-0.0428646728
-0.0886239931
0.2957683802
0.2517589033
-0.0653835610
-0.0377598628
0.2970672548
0.1786670387
-0.1452327073
-0.0601134337
-0.0832224712
0.0166676845
0.1112179905
0.1622970998
0.0257096682
-0.0031085026
0.0043917764
0.0048478316
-0.0673585013
-0.0433708094
-0.0628004074
-0.0242920332
-0.0462262034
-0.0406505764
-0.0587204061
-0.0326898731
-0.0162443593
-0.0683951080
-0.0626709014
-0.0464279912
-0.0306875110
-0.0160027537
-0.0345989317
0.0093941716
0.0110001555
-0.0060945228
-0.0128678707
-0.0493031330
0.0068081659
-0.0622173212
-0.0535022691
-0.0462051891
-0.0336978808
-0.0312476773
0.0089059956
-0.0236686897
0.0104597909
-0.0071076830
-0.0204400755
-0.0605991930
-0.0341855474
-0.0034532163
-0.0505816303
0.0099302586
-0.0429979637
-0.0418453775
-0.0028809959
-0.0590340756
-0.0642756373
-0.0451063365
-0.0087022465
0.0115816360
0.0070781866
-0.0297220182
0.0031172172
0.0036961599
-0.0165204257
0.1948050410
0.0957006440
-0.1713625193
0.0190093629
-0.0141628478
0.1222967580
0.2363061309
-0.1248212457
-0.0728585050
0.0429837704
0.1849793792
0.1457437426
-0.0790589154
0.0020580832
0.3677367866
0.0819771364
-0.0765324458
-0.0819140226
-0.0635953620
0.0505728610
0.1885549426
0.0848729983
-0.0285522193
0.0089568505
-0.0647560880
-0.0453345589
-0.0378224663
-0.0420647375
-0.0287419260
-0.0427363142
-0.0298722461
-0.0555330478
-0.0088067884
-0.0682919547
-0.0648111552
-0.0199617296
0.0116585288
0.0002775256
-0.0649580956
-0.0134356674
-0.0138679417
-0.0266052987
-0.0183879118
-0.0257048048
-0.0455788523
-0.0368244313
-0.0264680926
-0.0349269286
-0.0258106738
-0.0370378196
0.0067041428
-0.0442267470
-0.0679307133
0.0059408508
0.0056657088
-0.0356958658
-0.0231943391
-0.0394192487
-0.0185862016
-0.0319075026
-0.0440684780
-0.0624849796
-0.0425853804
-0.0655995086
-0.0182154328
-0.0285600945
-0.0368303210
-0.0409402251
-0.0630273148
-0.0354147777
-0.0655421987
-0.0196167883
-0.0558058396
-0.0089650201
-0.0099209798
-0.0025069346
-0.0366738662
-0.0401897877
0.0007561160
-0.0472724885
-0.0618564934
0.0066501880
0.0130843213
0.0109481830
-0.0500752926
-0.0328141004
-0.0408106893
-0.0420550890
-0.0690471306
-0.0090028867
-0.0520805828
-0.0323176757
-0.0056978860
-0.0293116253
-0.0017005032
-0.0429271758
-0.0416704342
0.0000181380
-0.0699705482
-0.0660210550
-0.0506182574
0.0039249379
-0.0401830375
-0.0061479807
-0.0515816733
-0.0435435958
-0.0239975732
-0.0555217490
-0.0707231164
-0.0153348055
-0.0632649511
-0.0329871103
-0.0398293361
-0.0216828119
-0.0327465907
-0.0637729317
-0.0230210032
-0.0329506025
-0.0672696456
-0.0291422550
-0.0677134544
0.0096220821
-0.0161249228
0.0072562215
-0.0129525745
0.0047187628
-0.0126015916
-0.0413469151
-0.0249442812
-0.0022166574
-0.0215614662
-0.0674213544
-0.0508870855
0.0032106114
-0.0599308796
-0.0301491134
-0.0514485948
-0.0519271642
-0.0572652631
-0.0160821788
-0.0668591186
-0.0611326434
-0.0163676459
0.0109128123
-0.0374644585
-0.0085204057
-0.0178237464
0.0099318996
-0.0530835018
-0.0553810857
-0.0647096112
-0.0706074238
-0.0024018059
0.0005895595
-0.0655911490
0.0050428980
-0.0420642272
-0.0407473110
0.0008672237
-0.0041110991
-0.0511904806
0.0117892046
-0.0667852014
-0.0508410670
-0.0620961860
0.0134232966
-0.0591217354
-0.0036640354
-0.0279618129
-0.0264922455
-0.0345515683
-0.0659975111
-0.0245757177
-0.0325959995
-0.0052495133
0.0071386523
-0.0036631902
-0.0055512283
-0.0546483323
-0.0076031070
-0.0342712216
-0.0186392460
-0.0593794324
0.0046543609
-0.0489671901
-0.0183726102
-0.0097785247
0.0001934493
-0.0464057587
-0.0324092321
-0.0680331215
-0.0388648137
-0.0274526160
-0.0281268302
0.0011412302
0.0004211577
-0.0375923775
-0.0165376347
-0.0583413914
-0.0452521853
-0.0295400172
-0.0712530240
-0.0003528238
-0.0293181799
-0.0528329760
-0.0460560918
0.0119175753
-0.0561371446
-0.0584269874
-0.0324572548
-0.0507713407
-0.0093598114
-0.0617518872
-0.0573672540
-0.0559267066
-0.0213174298
-0.0611914508
-0.0370563529
-0.0139382808
-0.0223612022
-0.0654647127
-0.0612402111
-0.0046628658
-0.0422909334
-0.0096169077
-0.0018344134
-0.0595740452
-0.0534105413
0.0061015957
-0.0324240662
-0.0271894392
-0.0524193607
-0.0445227399
-0.0320339166
-0.0067046988
-0.0524516292
-0.0424022041
-0.0089564221
-0.0652642325
-0.0381868482
0.0047593140
-0.0638155565
-0.0107132029
-0.0490445308
0.0033110278
-0.0133758141
-0.0294785146
-0.0053724172
-0.0460405909
-0.0085442998
-0.0673040003
-0.0054929652
-0.0090825651
0.0095263151
-0.0311321802
-0.0104913954
-0.0062185903
-0.0699389651
-0.0550583005
-0.0408423692
-0.0403743535
-0.0283088516
-0.0006052004
-0.0711394474
-0.0631212741
-0.0210293662
-0.0658374727
0.0028654838
-0.0433637127
-0.0519581512
-0.0680071935
-0.0543038957
-0.0619074292
0.0446734466
0.1251166165
0.1239871457
0.2307949811
-0.0476900451
0.0896825716
-0.1358470023
-0.1115087047
0.3166850507
0.1486724764
-0.0284399595
0.0409313440
0.1130344048
0.1341381818
-0.1172117442
0.0488173664
0.1373222470
-0.0580668971
-0.0887057632
-0.0879256353
-0.0577320829
0.0303634796
-0.0316631421
-0.0872027129
-0.0587819666
-0.0229272284
0.0463983566
0.0149784619
-0.1151451543
-0.2801941335
0.0761839971
0.2281217724
0.0729341656
0.0466603935
0.1941468120
-0.0138456114
-0.0620443858
-0.3000564277
0.0670979172
0.2606917620
0.0129458541
0.1245525926
0.2546754479
0.2295376211
-0.0243341662
-0.0720435604
-0.0851131082
-0.0440912433
0.0237909444
-0.0232827235
-0.0033972200
0.1726276577
0.1191117689
0.0890399516
-0.0397753380
0.1769224405
0.2605708838
-0.1398977041
0.4027397931
0.2118781358
0.0630371273
0.0590290129
0.0498447903
0.4266726375
-0.0095800757
0.0320019461
0.2460016012
0.2518597245
0.1007361785
-0.0975789428
-0.1173073277
-0.1938562095
-0.0554174222
-0.0314196832
-0.0429720692
-0.0478898250
-0.0415110104
-0.0091978032
-0.0527535528
0.0006297322
-0.0531538576
-0.0035422831
-0.0252429247
0.0066125998
-0.0533259697
-0.0064814985
0.0104672508
-0.0413724817
-0.0493536666
-0.0356153734
-0.0595909432
0.0088296300
-0.0553038158
-0.0091095529
-0.0479173921
-0.0194299482
-0.0034677389
-0.0642052442
-0.0240817107
0.0008591360
-0.0226530004
-0.0582168549
0.0062568453
-0.0002779681
0.0044058845
-0.0679295436
-0.0492186137
-0.0447019525
-0.0576507002
-0.0645835698
-0.0063027260
-0.0255043097
-0.0380780399
0.0098479996
-0.0120876106
-0.0108101377
0.0108060297
-0.0322653130
-0.0429115742
-0.0044028698
-0.0356528945
-0.0297480877
-0.0693650469
-0.0339347199
0.0039190324
0.0581727512
0.1271900535
0.0742385387
0.1074313596
-0.1059929952
0.1450427622
0.1834065765
-0.0585987493
0.3980020583
0.1058411375
0.0034723235
0.0367085747
0.0708317086
0.2877168953
-0.0132527752
0.1117030308
0.2483249605
0.1697420329
0.1082232073
-0.0103721414
-0.1208640486
-0.1374828666
-0.0790001154
-0.0204854049
0.0417312197
0.0118932221
0.0242772959
0.0005932352
0.0222324580
-0.0205612797
0.0040462217
0.0247712210
0.0409830250
0.0373122320
-0.0175005160
-0.0147728641
0.0130027039
0.0381760485
0.0067161568
0.0613252111
0.0407992490
0.0442162305
-0.0027345547
0.0328784585
0.0533131473
-0.0077624093
0.0168779548
-0.0124499025
-0.0096002333
0.0461887941
-0.0210819039
0.0121750981
0.0055199480
0.0345830023
0.0061147125
-0.0027615021
0.0337332562
0.0014542440
-0.0141456444
-0.0029675905
0.0555473864
0.0402984992
-0.0169421751
-0.0035078498
0.0007048103
0.0359226204
0.0343235694
0.0168059599
0.0498961322
-0.0124148624
0.0479343086
0.0090838252
0.0310066864
0.0012406582
0.0184015837
0.0345035754
0.0417740121
0.0049183741
0.0081813000
0.0274204277
0.0032951385
-0.0129956305
0.0543284677
0.0366278961
-0.0075250119
0.0308775101
-0.0082334215
0.0465825163
0.0586176254
-0.0112108635
0.0292529687
-0.0194078851
0.0490853563
0.0578893013
0.0594841912
0.0181576125
0.0425383598
-0.0148256086
0.0377219655
0.0036914961
0.0265892297
0.0337011293
-0.0110472087
-0.0043293377
0.0048835739
0.0436957516
0.0185987670
0.0162423234
-0.0085325716
0.0291078165
0.0065250765
0.0233952720
-0.0100374669
0.0239297822
0.0563309602
-0.0031634080
0.0342974029
0.0560770258
0.0349388830
0.0599369891
0.0030849061
0.0320377238
0.0210721977
-0.0087417522
0.0625927821
0.0166213922
0.0159838125
0.0464190245
0.0403047018
-0.0185117852
0.0607873872
0.0329086371
0.0169337038
-0.0008835246
0.0534745231
0.0055931094
0.0195458941
0.0430935100
0.0474974774
0.0566199385
0.0203779787
0.0542896241
0.0572322793
0.0196630247
0.0099007692
0.0372653753
0.0465449505
-0.0206466485
0.0122413440
-0.0041967877
0.0563919097
-0.0141299060
0.0458693244
-0.0136981606
0.0298464429
0.0108669410
0.0087301554
0.0598215237
0.0449198447
0.0035693697
-0.0087576453
0.0507231317
0.0429255590
0.0327255763
0.0240656398
0.0413463265
0.0505519882
0.0258864779
0.0441339463
0.0127616990
0.0298522953
0.0232103895
0.0535640195
0.0600460954
-0.0092117460
0.0316691697
-0.0032775393
0.0480272286
0.0542873405
0.0008777512
0.0253022704
0.0142421052
0.0477215610
-0.0062768343
0.0336710103
0.0384285189
0.0350083038
0.0275794305
0.0294775870
-0.0078360084
0.0021563359
0.0378120542
-0.0057167211
0.0109667936
0.0108458102
0.0065604965
-0.0029699863
-0.0051084361
0.0096695516
-0.0079022460
0.0127226058
-0.0007231044
0.0288186856
0.0480466001
0.0415038429
-0.0062849000
0.0158812068
0.0355043672
-0.0163175482
0.0063698487
0.0043140431
0.0097815413
0.0109195225
0.0080262730
0.0011090565
0.0008211758
0.0141263800
0.0164700337
0.0237369761
0.0268288888
0.0368613601
-0.0048040957
0.0521574430
0.0201944485
0.0114535959
0.0101610702
-0.0024863032
0.0260010678
-0.0083424104
0.0167074986
0.0161196589
0.0086138137
-0.0207349770
0.0396626145
0.0207053293
0.0216276329
0.0413741134
0.0532362834
0.0181726702
0.0336607285
-0.0017822681
-0.0063437205
-0.0110583482
0.0572267361
0.0027029091
-0.0089098504
-0.0205781460
0.0103251878
0.0496911071
-0.0147245377
-0.0174132008
0.0073080566
-0.0121967010
0.0599525459
0.0036203088
-0.0062784096
-0.0007897501
0.0132303135
0.0488718264
0.0114085423
0.0041163228
0.0171766020
0.0025081409
0.0047154306
0.0568177961
0.0064261197
-0.0131173711
0.0090716667
0.0536043048
0.0363257639
0.0164299179
0.0372645520
0.0239010789
0.0513492748
0.0524133444
-0.1152519733
-0.2241265178
0.0064218012
-0.2237917483
-0.1510929018
-0.2337290198
-0.1908341497
0.0809168965
-0.0032886011
-0.0258129165
0.1507192850
-0.0067090644
-0.1590832770
-0.0071630501
0.1142131090
0.0124975480
-0.2026480883
0.1081630364
0.1484519094
0.0263639707
-0.0220277049
-0.0953609273
-0.0982625261
-0.0671618655
-0.0041383910
0.0880992115
0.1465465724
0.0879313722
0.1092555970
-0.0504291169
-0.0589984581
-0.2342681140
0.1740585864
0.3593358099
-0.1841472536
-0.1312135756
-0.0484812409
0.1748597622
0.1108695641
-0.0890133157
0.0944757909
-0.0150675988
-0.4159894884
-0.0329158716
0.2087262124
0.0047890441
-0.1596066952
-0.1731646210
-0.0627247021
-0.0896600485
0.0809983537
-0.1083842516
0.0913268626
0.0899823979
-0.1465240568
-0.1354969293
-0.3827144802
0.2905376256
0.0213325005
-0.1584898978
-0.0922953859
0.0080122193
-0.1253022552
-0.2212260813
0.0262234565
0.0816515535
-0.1586631089
-0.3567337692
0.1622141898
0.0689966753
0.0625084192
-0.0774445683
0.0458141454
-0.0531208254
-0.0740831047
0.0345547870
0.0559932664
0.0404356197
-0.0010454337
0.0311770532
0.0217855442
-0.0046375669
0.0422662385
0.0558222122
0.0436899103
0.0325578079
0.0026696613
0.0021675569
0.0621680394
-0.0063581858
0.0243206341
0.0437734462
0.0236882512
0.0344338901
0.0072606318
0.0500620231
0.0155071616
0.0528532043
0.0603333190
-0.0056677228
0.0585796759
0.0036079593
-0.0088829603
0.0371055119
0.0230516642
0.0485056862
0.0164408535
0.0490026064
0.0302455500
0.0056374040
0.0174617656
-0.0192258824
-0.0210360717
0.0398770534
0.0172648747
0.0251410622
-0.0157217234
0.0065483926
0.0214215927
-0.0138043137
0.0577266403
0.0315046422
-0.0029795081
0.0528513752
0.0294709131
-0.0097888727
-0.0133656468
0.2187741250
0.0127008948
-0.0897055119
-0.2271877080
-0.3259361386
0.2682578266
-0.0049731866
-0.0562459528
-0.0112180403
-0.0475287922
-0.1824563891
-0.0388606079
0.0167222340
0.0163427908
-0.3272047937
-0.1570660323
0.1228052303
0.0390526988
0.0424007364
-0.0570554286
-0.0673291460
-0.0775634721
-0.0828572437
-0.0254935864
0.0063145836
-0.0370804667
-0.0274045430
0.0190395471
-0.0066588083
-0.0402929932
0.0041033062
-0.0421367809
-0.0354785882
-0.0216926690
0.0070504467
-0.0054367930
-0.0471932739
-0.0552978367
-0.0592583045
-0.0529467538
-0.0097160675
0.0013138204
0.0015214095
-0.0601266772
-0.0450045168
-0.0375927687
0.0142863300
-0.0272990521
-0.0185616314
-0.0022330487
-0.0226894077
-0.0329695158
-0.0258009918
-0.0314370953
-0.0580340214
-0.0583994314
-0.0040566749
-0.0058239172
-0.0468608588
-0.0527542382
-0.0305408966
-0.0633415952
-0.0654578730
-0.0085980445
-0.0254453700
-0.0287857559
-0.0538506769
-0.0392127223
-0.0362344831
-0.0514970198
-0.0096188979
-0.0139905587
0.0005485557
0.0093136458
-0.0313613079
-0.0400085524
0.0111461068
-0.0199702810
-0.0549742840
-0.0658444241
-0.0642158017
-0.0189220998
-0.0531229340
-0.0197272748
-0.0270802509
-0.0506540202
-0.0186485294
-0.0594851226
-0.0404129475
0.0131423827
-0.0580312572
-0.0561864451
-0.0572593585
-0.0185718089
-0.0553342290
-0.0140353069
-0.0018568764
-0.0291978866
0.0201167669
0.0177853368
0.0100126937
-0.0553946048
0.0130701009
-0.0577198118
-0.0091750417
-0.0160564855
-0.0423203185
-0.0263794642
-0.0084010651
-0.0029835834
0.0110272458
-0.0515805595
-0.0138598653
-0.0123508517
-0.0279503409
0.0169198960
0.0109236138
0.0135578504
-0.0435889885
-0.0014655943
-0.0413777381
-0.0004859730
0.0213344097
-0.0159638878
-0.0443541668
0.0029186651
-0.0361017175
0.0047737402
-0.0065954872
-0.0368717015
0.0159154367
-0.0090536634
-0.0343207642
0.0027792586
-0.0036125050
-0.0548663773
-0.0411425456
-0.0238385554
-0.0567270853
0.0178217813
0.0132830609
0.0145168547
-0.0043682810
0.0117354980
0.0211954694
-0.0084259287
0.0031648264
-0.0481986552
0.0149031673
0.0056922697
0.0179078672
0.0157667715
-0.0437290594
-0.0150217479
-0.0106174927
-0.0036539419
0.0156976487
-0.0279388856
0.0066136676
-0.0203652456
-0.0161417332
0.0052980138
0.0005103030
-0.0497862324
-0.0016586368
-0.0248632301
-0.0447217636
-0.0068848222
-0.0504171886
-0.0024752549
0.0079342695
-0.0015442646
-0.0604777709
-0.0542736761
-0.0383414365
-0.0477274619
-0.0602692068
-0.0252589639
-0.0245203059
-0.0404028110
-0.0393778086
-0.0088894386
-0.0157588553
-0.0591178760
-0.0248592738
-0.0020242280
-0.0266332012
-0.0254448541
-0.0120480498
-0.0437439308
-0.0334564708
-0.0453292243
0.0090033682
-0.0378569253
-0.0026578046
-0.0459995978
0.0122103151
-0.0116978725
-0.0075761005
-0.0556540042
-0.0506198853
-0.0047640041
-0.0210675076
-0.0543845408
-0.0540181175
-0.0611643046
-0.0346149355
-0.0041368324
-0.0609590635
-0.0013948688
-0.0557737164
-0.0421872959
-0.0055370713
-0.0196323656
-0.0333364308
-0.0596019588
-0.0567524023
0.0108936094
0.0104992408
-0.0110005606
-0.0138966478
-0.0129463170
-0.0076350844
-0.0078233108
-0.0083921356
-0.0141397109
-0.0257105548
-0.0127457930
-0.0354777202
-0.0200438108
-0.0078484686
-0.0133504011
0.0153502692
0.0169417579
-0.0148700727
-0.0379159860
0.0191132855
-0.0359209925
-0.0053550079
0.0114554558
-0.0127762221
-0.0302889310
0.0048240125
-0.0557301566
-0.0379303172
0.0065859491
-0.0204236601
-0.0143010821
-0.0459203795
0.0026761906
-0.0331845656
-0.0310803615
-0.0397779681
-0.0291539114
-0.0055079982
-0.0284520835
-0.0561773665
0.0098070493
-0.0535686240
-0.0225696247
-0.0150370747
-0.0576507896
-0.0324856155
0.0049490756
0.0161706507
-0.0589191541
-0.0465333350
-0.0304657370
-0.0359287821
0.0165499300
-0.0417328142
-0.0318924710
-0.0111398799
-0.0922415704
0.0331888087
0.1108684912
-0.0557471886
-0.0935840383
-0.0556303933
0.0332359597
0.0243810210
-0.0984775424
0.0662149489
-0.2640324235
0.2126190662
0.2147130072
0.0096775098
-0.0286364872
0.0891330019
0.0281847306
0.0584353916
0.0072811428
-0.0005672729
0.1062886268
0.0082757641
-0.0014264915
-0.0480225496
0.0153679289
0.0005385428
0.1193601415
0.1756661832
0.2007377893
0.0510781556
-0.0725140423
0.0276318844
-0.0810581148
-0.1096653342
-0.0509760603
-0.1091341078
-0.0995259881
0.2308154255
0.1139058620
-0.0395392738
-0.2558351457
-0.0844104886
0.1071207374
-0.1857719570
-0.1311715841
0.2416404635
0.3352186382
-0.0727960393
0.0687994063
0.1692769527
-0.0417182110
0.0264273025
0.2715506256
0.1418684274
-0.0950200856
-0.0652584657
-0.1255618483
0.0298761781
-0.1634976417
-0.0602798909
-0.1830162108
-0.0476853140
0.4053332806
-0.0986101031
-0.0035412889
-0.0869517028
0.1798281819
0.0822881907
-0.0691430345
0.0610828623
0.2746323943
0.2685082257
-0.0050264196
0.0435598083
0.0102027776
-0.0396253876
-0.0029146830
-0.0449645333
-0.0475464016
-0.0505771898
0.0168672688
0.0067543550
0.0035668386
-0.0285393111
-0.0597614497
-0.0197807737
-0.0312500000
-0.0332427509
-0.0051319953
-0.0573574603
0.0201714877
0.0012629668
-0.0390375294
0.0079558073
-0.0256676488
-0.0023596578
-0.0209321305
-0.0414072573
0.0052324021
-0.0333932042
-0.0282067489
-0.0155729279
0.0068630418
-0.0224458892
-0.0503453389
0.0076064221
-0.0635185540
-0.0617461726
0.0191800576
-0.0026677852
-0.0031355640
-0.0138127152
0.0064757643
-0.0234311633
-0.0589969829
0.0031908525
-0.0590597503
-0.0525033586
-0.0506381616
-0.0236527976
0.0166460779
0.0189479180
0.0019369033
-0.0178679731
-0.0033816318
-0.0459017232
0.0779073760
0.2678606212
0.1262828708
-0.0640001222
-0.1360984594
-0.1418501437
0.0098791346
-0.2037808001
-0.0159636848
-0.2368132919
0.1473844051
0.3510821164
-0.0768941641
0.0291681681
-0.0104759624
0.1345414072
0.0267407466
0.0447659791
0.0982170403
0.2501404285
0.2305965722
0.0547502562
0.0756350532
0.0058785644
-0.0367336310
-0.0076521044
-0.0236457214
-0.0420347787
-0.0037481168
-0.0094807912
-0.0237235557
-0.0324060991
0.0192715283
-0.0161644313
0.0175501034
-0.0248058438
-0.0069939988
0.0023290548
-0.0072657112
-0.0168134011
0.0137065668
0.0196759552
0.0079208789
-0.0093090441
-0.0562344640
-0.0071794013
0.0006010445
-0.0358683392
-0.0562798493
0.0014865401
-0.0171832088
0.0009982738
-0.0003662968
0.0135678016
0.0171015877
-0.0246097781
-0.0559784025
-0.0427312143
-0.0589576177
-0.0408159085
-0.0284300540
0.0061230324
0.0013710872
-0.0402745046
-0.0531082153
0.0023230785
-0.0228738990
-0.0378872193
-0.0018079543
0.0177075285
-0.0177460387
0.0181823634
0.0026273567
-0.0165829435
-0.0274946168
0.0016334689
0.0010226334
-0.0410302244
-0.0212667584
-0.0264496878
-0.0553593151
-0.0490016006
-0.0244182032
0.0170218721
0.0096485261
0.0060299737
0.0008698748
0.0077266013
-0.0522663482
-0.0192796830
0.0068826131
0.0035553288
-0.0043659634
-0.0287343245
-0.0555569381
0.0065160412
-0.0270918235
-0.0011076124
0.0060013300
-0.0321888849
0.0068497173
0.0056281602
-0.0486233234
-0.0392531231
-0.0507719219
-0.0293014534
-0.0261904746
-0.0107680969
-0.0405554548
-0.0324216671
0.0034404257
0.0028400230
0.0076593496
-0.0391440168
-0.0055921874
0.0015731599
0.0111592356
-0.0080022542
-0.0225615874
-0.0279096887
-0.0251175128
0.0044144569
-0.0425189398
-0.0273367539
-0.0439895429
-0.0409439243
-0.0215595923
-0.0604447275
0.0047669364
-0.0507871844
-0.0138891563
0.0152502572
0.0215045772
-0.0465426482
-0.0112289609
0.0011725043
0.0002911703
-0.0414040349
-0.0205170363
-0.0061197923
-0.0417917259
0.0164156035
-0.0149754658
-0.0157973897
-0.0238481760
-0.0167422350
-0.0092328470
0.0062670158
-0.0195916761
-0.0125651630
-0.0355129801
-0.0481930412
-0.0180216357
-0.0510374717
-0.0503766239
-0.0494627804
0.0216863900
-0.0418715030
-0.0486722216
-0.0080107097
-0.0123916725
-0.0591691881
-0.0092524281
-0.0221662074
-0.0212175101
-0.0080596246
-0.0217483267
-0.0182220265
0.0170785915
-0.0546496287
0.0198442936
-0.0511363782
-0.0192695800
0.0172729176
-0.0521512851
0.0168335792
-0.0176900197
0.0013888150
0.0052582640
-0.0163504779
0.0142758070
0.0222489648
-0.0458869413
-0.0368172973
-0.0282778572
-0.0518422760
-0.0358146317
-0.0561570898
-0.0355529152
-0.0557456426
-0.0580526106
-0.0319919847
-0.0456553884
0.0065936707
-0.0484479591
0.0047260001
-0.0329558626
0.0037907795
0.0154923592
-0.0334349163
-0.0019280794
-0.0164277293
-0.0490723737
-0.0173801556
-0.0564706400
-0.0503268093
-0.0400634520
-0.0567040518
-0.0057913521
-0.0068195574
0.0057492410
-0.0585845001
-0.0578245372
-0.0363800526
-0.0391664878
0.0191729292
-0.0427486338
-0.0106666563
0.0220927428
-0.0542674512
-0.0544063076
-0.0460037254
-0.0457738899
-0.0138428472
0.0206207801
-0.0434434935
-0.0136538437
-0.0041937060
-0.0221696813
0.0086445073
-0.0046475362
-0.0195198525
-0.0082283029
-0.0329767503
-0.0528076850
-0.0008960607
-0.0150015587
-0.0583330505
-0.0235184915
-0.0081058443
-0.0434492305
-0.0235202964
-0.0313344076
-0.0090531688
-0.0413120575
0.0150060616
-0.0065591210
0.0074697793
0.0178546719
-0.0455629714
0.0034926913
-0.0183571856
-0.0216549709
-0.0484919250
-0.0202888064
-0.0433077104
0.0199744105
-0.0574279539
-0.0179979075
-0.0275791734
-0.0170358438
-0.0445691273
-0.0365594663
0.0186543278
-0.0501444452
0.0202851351
-0.0103991032
-0.0600055419
0.0045926650
-0.0328718834
-0.0254701581
0.0011912794
-0.0552294925
0.0042830510
0.0039535947
-0.0215795375
-0.2216159552
-0.2514479458
0.0214820188
0.2576359808
0.1496682316
-0.2230317444
-0.2374858707
0.0989385322
-0.0942669138
-0.0703264400
-0.0994108319
-0.2369093895
-0.0235979371
0.0091694314
-0.1275200695
-0.0095607052
0.1252404153
0.1123875752
0.0396378376
0.1420025527
0.3016355336
0.2070645690
0.1272249967
-0.1118311286
-0.0117510715
0.0885767192
0.2177749127
0.1539007872
0.0240386408
0.2159645259
0.1021446660
-0.0342397243
0.0922034159
0.1679651141
0.2136126608
0.0808845684
-0.1599784046
-0.1591858715
-0.1085042357
-0.0446521789
-0.2127958685
-0.3848860562
-0.1550953239
0.1378096491
0.1472886056
-0.1604731232
0.1326692700
0.2579630315
-0.0609665290
0.0687976256
0.0483020991
-0.1260550171
-0.0246482175
0.1159127504
0.2408438772
0.0108189005
-0.1938712746
0.1640301943
0.0715624914
0.0554893911
-0.1091935262
-0.1808256954
-0.0254783593
0.0722338855
-0.0519930497
-0.2418170124
-0.0421330705
0.1242479011
0.0953050628
0.2024763525
0.0884362608
0.2612704933
0.1965270340
-0.0328256972
-0.0134731298
-0.0221292488
-0.0372095257
-0.0473863967
-0.0050392710
-0.0012343657
-0.0581019484
-0.0194367189
-0.0097281253
-0.0319892280
0.0139524881
-0.0427985750
-0.0377007425
-0.0529523268
0.0059378152
-0.0121762818
-0.0329892375
-0.0289144106
-0.0177992135
0.0000886430
-0.0042526363
-0.0489727147
-0.0206169598
-0.0143395010
-0.0427076966
-0.0196220968
-0.0225741602
-0.0119712427
-0.0302801933
-0.0596967489
0.0047357529
-0.0287843645
-0.0023697258
0.0091237361
-0.0208823010
-0.0537638851
-0.0209682863
0.0178909972
-0.0438166447
0.0029984338
-0.0119749233
-0.0320376679
-0.0061553842
0.0214568302
0.0043552495
-0.0165363140
0.0204389207
0.0048909849
-0.0499393381
-0.0421713665
0.1172605455
0.0165808536
-0.0361078046
0.0768983066
0.1954586357
0.2130395472
-0.0457388349
-0.1124175489
0.2744990587
0.0343143344
0.0288689155
-0.0207417496
-0.1769426018
0.0117463302
0.0475779958
-0.0455499478
-0.1604571044
0.0217307452
0.0347236320
0.0715691373
0.1598218977
0.2284791023
0.2670027912
0.1503814161
-0.0112205129
-0.0236100797
-0.0313564129
0.0145606091
0.0003910074
-0.0187550727
-0.0504746437
0.0071557635
0.0259255264
-0.0217926744
0.0267431885
-0.0346895792
0.0095546013
-0.0091848131
-0.0542695746
0.0208302382
0.0058815544
-0.0313909799
0.0017938310
-0.0481366329
-0.0273486264
0.0072028046
-0.0292577799
0.0216835514
0.0213396624
-0.0092814043
-0.0082202936
0.0237721391
0.0214029569
-0.0020236094
0.0014295159
0.0011880922
-0.0334183946
-0.0317203365
-0.0124941133
0.0035998723
0.0220430735
0.0236443542
-0.0314250477
0.0281923860
0.0266958755
-0.0409580246
-0.0298233926
-0.0032740629
-0.0493931845
-0.0330691636
0.0297211073
0.0204876885
-0.0080236383
-0.0136393951
0.0116915265
-0.0068942611
-0.0353702344
0.0001349076
-0.0313342437
-0.0500646792
-0.0246447679
-0.0443390422
-0.0134601826
0.0063201394
-0.0355710424
0.0068505439
-0.0075158989
-0.0241653360
-0.0031050651
-0.0373744592
-0.0421788506
-0.0017883679
0.0234361347
0.0047814306
-0.0184929073
-0.0176141541
-0.0018330555
0.0105358940
0.0106549542
-0.0250850432
-0.0265002679
-0.0323548988
-0.0056651453
-0.0262565780
0.0003063781
0.0022452928
0.0264308006
-0.0246121380
0.0250022337
-0.0006270084
-0.0481924266
-0.0392150879
-0.0142235206
-0.0353963859
0.0192656163
0.0051842923
-0.0457378663
0.0102261873
-0.0165661946
-0.0049517462
0.0304326471
-0.0110564018
-0.0436918214
-0.0352848433
-0.0074790735
0.0102898013
-0.0058399886
0.0134445587
-0.0312830284
-0.0462987162
-0.0532665998
-0.0135568073
0.0177508891
0.0263922960
-0.0416358300
-0.0468183868
-0.0516728573
0.0197566487
0.0242950954
0.0284967348
-0.0538997576
0.0162802003
0.0175550301
0.0116365841
0.0189011097
0.0264909416
-0.0145605439
0.0170227103
-0.0400239788
-0.0389397889
-0.0465689860
-0.0312517583
0.0215848181
0.0291199088
-0.0138039738
0.0036261817
0.0213336274
0.0304491483
0.0327758752
-0.0102458876
-0.0538045391
-0.0546419360
-0.0382714234
-0.0464711636
0.0231652781
0.0082664462
0.0263311472
-0.0066174362
0.0135903424
0.0351126865
-0.0426207446
-0.0195393767
-0.0370424949
-0.0314890780
-0.0345554501
0.0016436550
0.0080429437
0.0006090496
0.0007101195
-0.0226289257
-0.0521801598
0.0074039870
-0.0174157005
-0.0246539451
-0.0466740169
-0.0421764031
-0.0288763344
-0.0160433631
-0.0224277414
0.0058613578
-0.0383335464
-0.0331580639
-0.0239729304
-0.0228871163
-0.0399592109
-0.0152327288
-0.0016859126
-0.0107174069
0.0238696747
0.0014374426
-0.0263848398
-0.0282244124
-0.0070205908
-0.0270856228
-0.0380574130
-0.0149306124
0.0036955790
-0.0202662572
-0.0050041792
-0.0028132028
-0.0075501483
-0.0051167677
0.0072186892
-0.0046148361
0.0248089582
-0.0195146427
-0.0433630012
-0.0320343338
-0.0488203429
-0.0202331021
-0.0336623304
-0.0317652076
-0.0413811691
-0.0304915607
-0.0465368256
0.0256000645
-0.0118440473
-0.0378940627
0.0264671724
0.0021782017
-0.0137863206
-0.0465395525
0.0146887256
-0.0279904194
-0.0139223309
-0.0301657561
-0.0200154111
-0.0268210638
0.0217724051
0.0237307437
-0.0512595065
0.0068094046
0.0213553999
0.0149109997
0.0217611510
-0.0027303263
0.0304910354
0.0015553962
-0.0262012500
0.0236504991
-0.0276480727
-0.0254261550
-0.0411224514
0.0057020849
-0.0451699533
-0.0254226923
-0.0343139321
-0.0273952149
0.0166380201
-0.0544017851
-0.0152107421
-0.0151762580
0.0223306585
-0.0397867002
0.0234239493
-0.0527268238
-0.0195058025
0.0034604487
-0.0408835486
0.0206691902
0.0287909601
0.0208790377
-0.0349200070
-0.0237294771
-0.1249695793
-0.1844088137
0.0347926654
0.0712697282
0.0336832516
-0.2153789550
-0.3035988510
-0.1098169610
0.1268017441
0.2074561864
0.0133991642
0.0322082639
-0.0548225939
-0.1331276894
-0.1293681860
0.0840730369
-0.0050819931
0.1797815859
-0.0416736566
-0.0084253969
0.2199811488
0.1353793293
0.0188933089
-0.0141846174
0.0470570922
0.1069378331
0.1504473686
0.1995977312
0.1411020160
-0.0665849820
0.0292046331
-0.0374753401
0.0906889364
0.3523057699
0.1819465607
-0.2001947910
-0.1380963475
-0.1820292920
-0.0378432274
0.1989042312
-0.1388301551
-0.1137009561
-0.2904947996
-0.2068127245
-0.0738416463
0.3385459483
0.1973644495
-0.0843478069
-0.0201498326
0.1052229106
0.0277430546
-0.0015217747
0.1376482993
0.2378880531
0.0210961848
-0.0786844492
-0.3300249875
0.0686458424
0.1968280375
0.1381538957
-0.1709582359
-0.0460434221
-0.0619241334
0.0165139083
-0.0112424167
0.0398742482
-0.0389887989
-0.1235531047
0.0503892228
0.0715208426
0.3299040496
0.2212596834
0.0817163363
0.0240123849
0.1232754439
-0.0301084593
-0.0190442968
0.0225912295
-0.0283911303
-0.0333042964
0.0136877513
0.0056524263
-0.0253851898
0.0036706275
0.0307394341
-0.0130672958
0.0049868664
0.0197841227
-0.0503555909
-0.0504606143
-0.0437305905
-0.0007873549
-0.0115475561
-0.0401321128
-0.0360762589
-0.0390384160
-0.0442954265
-0.0466503017
0.0108500598
0.0009541552
-0.0083679529
-0.0100744190
0.0190295018
-0.0001464404
-0.0491085835
-0.0378641188
-0.0494317524
-0.0427053049
-0.0053561782
-0.0378215313
-0.0017848730
-0.0108163916
-0.0454562902
-0.0489109047
-0.0119086234
0.0053625861
0.0249913521
-0.0344807245
-0.0282583814
-0.0025005655
-0.0143866269
0.0016199979
0.0295682345
0.0289687030
-0.0477976538
0.0104152402
0.0326862410
0.2311481386
0.2884009480
0.0329222269
-0.1547537297
-0.3263869882
0.0971490070
0.2346146405
0.1050597131
-0.1641675234
-0.0637188405
-0.1461203098
-0.0644833073
0.0326509923
0.0236830637
-0.1068219095
-0.0591492355
-0.0125639578
0.0668104291
0.2943893969
0.2057766616
0.0704997480
0.0493660085
0.1215272993
0.0186088402
-0.0142749809
0.0248247851
-0.0410002396
0.0281254649
-0.0129071539
-0.0378303379
-0.0002335645
0.0214378033
-0.0256780963
-0.0348268151
0.0287182592
-0.0028533104
0.0076632760
0.0313003249
0.0036930749
-0.0309660472
0.0305247884
-0.0212661773
-0.0393017195
0.0053289584
-0.0134278443
-0.0125928465
0.0182515439
0.0320620723
-0.0198665708
-0.0377461202
0.0122734355
0.0079086544
0.0367848277
-0.0407431014
-0.0361962803
0.0102104936
-0.0426838510
0.0371383764
-0.0196530689
-0.0144963404
-0.0153103080
0.0182737708
0.0336960368
0.0043605585
-0.0312443282
0.0202275757
0.0161347184
-0.0131465970
0.0040968098
-0.0317877568
0.0270490870
0.0064118253
-0.0210446995
-0.0302180164
0.0268333070
0.0056974147
0.0056625283
-0.0255655944
0.0035305039
-0.0200681146
0.0183753353
-0.0315426849
0.0039677205
0.0217851847
0.0083164256
0.0265283454
0.0135714421
-0.0274266358
0.0297483504
-0.0441778563
-0.0233234130
-0.0028440095
-0.0125647066
0.0209454745
0.0040826662
0.0184176769
-0.0108685410
0.0362109840
-0.0318461768
-0.0249669962
0.0354943126
0.0134286908
-0.0181328785
0.0060051214
-0.0300077256
-0.0409165658
-0.0421715379
0.0339060612
0.0108604413
0.0268998258
0.0298147462
-0.0325690806
0.0319889188
0.0109321335
-0.0456604548
-0.0152598824
-0.0373052731
0.0306969564
0.0275278501
0.0172428414
-0.0409187451
-0.0148748551
0.0123493541
0.0040992200
0.0155268330
-0.0023417475
0.0245877393
0.0155349923
-0.0383316763
0.0026462090
-0.0071253357
0.0141244158
-0.0148018645
0.0223417431
-0.0036547408
-0.0264765825
0.0353513509
-0.0075856606
-0.0259897094
0.0170909874
-0.0383556113
0.0329366848
-0.0204639398
-0.0291137621
-0.0145505043
-0.0284264367
0.0081883632
-0.0318182483
-0.0143164173
0.0167925488
0.0073550437
-0.0007180337
0.0139888218
-0.0331860073
-0.0182776507
0.0353966765
-0.0225801226
-0.0212309808
-0.0339490511
0.0044844570
0.0068981675
-0.0277237669
0.0338532068
-0.0050830035
-0.0311420560
0.0071714227
0.0373905450
0.0275810361
-0.0318865739
-0.0272522364
0.0156756062
-0.0015831447
-0.0132949566
0.0044708457
-0.0064566745
0.0291965920
0.0018791243
0.0200754683
0.0051158965
-0.0307278633
-0.0193426628
-0.0063437391
0.0191500299
-0.0339603424
-0.0006756030
0.0401602909
0.0106503768
-0.0369325839
0.0281633437
0.0306580663
0.0176447313
-0.0158752613
-0.0385807082
-0.0233016033
-0.0255510416
0.0377680883
0.0226005204
0.0181634389
0.0347544067
0.0138271740
0.0201685894
-0.0398905687
-0.0170265008
0.0060718944
0.0244477838
-0.0376925021
-0.0178681836
0.0174550153
-0.0301145073
0.0090080686
-0.0024139832
-0.0023955081
0.0108742975
-0.0316133462
0.0106510445
-0.0128807267
-0.0409200639
-0.0424160548
-0.0341969542
0.0028627494
0.0338426977
0.0273884032
-0.0011338254
-0.0340931565
0.0105348499
0.0164975524
-0.0291644130
-0.0311661679
-0.0020128975
-0.0129393144
-0.0024804394
0.0380790345
0.0292977337
-0.0436546206
-0.0451651216
-0.0199100990
0.0207514390
0.0189298112
0.0267800037
-0.0082511771
0.0039886273
0.0323488414
-0.0380894206
-0.0426331833
-0.0286557097
0.0398088731
-0.0029578900
-0.0134497704
0.0275112819
0.0263954606
-0.0362382829
-0.0072597852
-0.0100360196
-0.0191424526
0.0105449576
-0.0085641714
-0.0124292597
0.0148430960
-0.0241524875
-0.0047365902
0.0297012907
0.0192896239
-0.0088270409
-0.0062428769
-0.0168828964
-0.0082008513
0.0350353345
0.0374644436
0.0251185056
0.0022516621
0.0018152925
0.0038505923
0.0242720898
0.0232456047
-0.0488469265
-0.0641459376
-0.5227613449
-0.1827249676
0.1077500284
0.1138848811
-0.0604152530
-0.1920627952
0.2432336956
-0.0973403454
-0.2287957668
-0.0108822770
0.0315535069
0.0809408203
-0.0069289440
-0.0702152029
-0.0093961973
-0.0660196319
-0.0609317683
0.0014653661
0.1857321709
0.1373930275
-0.0404420309
-0.0505449250
-0.0749294385
-0.0037802604
0.0915840343
0.1332585216
0.0373747572
0.0768468976
0.2881172299
0.4333008826
0.1598410457
-0.1202335209
0.1577030122
0.0348434113
0.1218536943
0.1427082419
0.1054442376
-0.1373896152
-0.1567581445
-0.2706773281
-0.0014333059
0.0271442644
-0.1207737401
-0.0360196382
-0.2111405283
-0.1403080523
-0.2536308169
0.0174617358
-0.0673967078
0.1305606663
-0.1411891729
-0.2336263359
0.2042296976
0.1390087903
0.5455343127
-0.2499168515
0.0991881043
-0.0020967112
-0.1688356251
0.0662823021
-0.0532946140
0.1085836142
-0.0817057043
-0.0263297036
-0.1289563924
-0.0613909811
-0.1403578818
-0.0694407970
0.0710098445
0.0708996356
-0.1262677759
-0.1063279510
-0.0152096199
0.0067491531
0.0397062451
0.0032466347
0.0217158496
-0.0237975996
-0.0199164338
0.0263979360
0.0119559560
0.0291595329
-0.0191643089
-0.0393136777
-0.0283851307
-0.0331574865
0.0323645212
-0.0444717258
-0.0095257824
0.0097280852
0.0348239429
0.0020299847
0.0325786062
-0.0030718879
-0.0141742369
-0.0096981004
-0.0339111648
-0.0227098782
0.0101472670
0.0290585794
-0.0289410446
0.0231652409
0.0047794366
0.0158737004
0.0189854316
-0.0206383653
-0.0287921876
-0.0332229361
-0.0082833366
-0.0192021877
0.0313355103
0.0030679619
-0.0395081863
-0.0406273305
0.0141862333
-0.0093145827
0.0151760234
0.0310810283
0.0283432137
-0.0271652192
0.0330040045
-0.0445201285
-0.0408793837
-0.0107685821
0.1561027020
-0.1913495362
-0.1067004204
0.1487544775
0.2662252188
0.4218536317
-0.2252530456
0.1477913707
-0.0542616546
-0.1262845844
0.0790077597
0.0204840954
0.0370771103
-0.1390976608
-0.1555965245
-0.1580013931
-0.0643763915
-0.1144096926
-0.0516922772
0.1639549285
0.1107447892
-0.1928082556
-0.1382803321
-0.0132976742
-0.0040884856
0.0025365539
-0.0289488863
-0.0319467038
-0.0454977117
0.0203996785
0.0092384666
0.0118027767
0.0016245265
-0.0229216702
0.0266576819
0.0300784595
0.0207045618
-0.0048237364
-0.0103594633
-0.0316554420
-0.0283307210
-0.0404198803
0.0245706029
-0.0034214393
0.0106698042
-0.0008289620
0.0044459994
0.0170412418
-0.0281096045
0.0283671748
0.0251809638
0.0426114090
0.0338158719
0.0304553118
0.0371875986
0.0145639805
0.0226866305
0.0062207049
-0.0315476283
0.0315504149
0.0188461915
-0.0371602327
0.0196308270
-0.0331434458
0.0239804704
0.0415034294
0.0073105930
-0.0204523765
0.0326302797
0.0349540599
0.0390166491
0.0370636880
0.0134624420
-0.0230603181
-0.0334149860
-0.0296476968
-0.0161127336
0.0181661546
-0.0319470391
0.0083022499
0.0141669586
-0.0246080216
-0.0090737287
-0.0252985582
-0.0035803621
-0.0253252331
-0.0148232710
0.0000450368
0.0252637509
-0.0082023079
0.0028538101
-0.0361885503
0.0062089376
0.0231896210
-0.0028601889
0.0297020208
0.0033355700
0.0043259622
0.0046925987
-0.0305995885
-0.0141234463
0.0073337606
-0.0091879936
0.0009305828
-0.0245237593
-0.0374184884
-0.0221150275
0.0234985985
0.0046718493
0.0063214945
-0.0334020965
0.0242311526
-0.0349661447
0.0337944068
0.0063790050
-0.0260782503
-0.0410904549
-0.0199208632
-0.0149635524
0.0226172097
0.0254224781
0.0035403036
0.0384812206
0.0386674255
0.0032977555
-0.0227440167
-0.0278793871
0.0279401671
-0.0201993901
0.0110266889
-0.0180439409
0.0315520205
0.0094694160
0.0202102289
-0.0019914606
0.0027082814
0.0139451455
-0.0421896204
0.0014445812
-0.0056518409
0.0034319086
0.0338002667
0.0046191094
0.0133949835
0.0197829045
0.0184479244
0.0327741951
-0.0137344114
0.0303872116
-0.0274562240
-0.0140167186
0.0220537782
-0.0283326246
-0.0341574177
-0.0160243306
0.0333814807
-0.0249246284
-0.0279000234
-0.0288348794
-0.0288723204
0.0404457562
0.0089628510
-0.0285242703
0.0191412736
-0.0238142796
0.0161927119
-0.0319880284
-0.0210663937
-0.0326022357
0.0145072443
-0.0229614265
-0.0064014215
-0.0014332092
0.0090024536
0.0029005378
-0.0062768604
-0.0195156466
-0.0355424732
-0.0063946531
-0.0019736262
0.0016880693
0.0139360838
-0.0027927137
-0.0126017341
-0.0003211889
-0.0352243520
0.0118867373
-0.0324868895
-0.0318857580
-0.0311973877
-0.0173107795
-0.0426094346
-0.0307617430
0.0012160768
-0.0338207446
0.0287152883
-0.0315305665
-0.0224887878
-0.0247897282
-0.0173476189
-0.0197001267
-0.0190876666
0.0023724968
0.0010963248
0.0306521971
0.0138642620
0.0234600008
-0.0229522455
0.0202305391
0.0214521587
0.0229304582
0.0362673812
0.0317990184
-0.0229561031
0.0000508532
-0.0298385359
-0.0012911952
0.0193424243
-0.0049759024
0.0337256230
0.0292945914
-0.0375476368
-0.0186526161
0.0100361211
-0.0232007075
-0.0341816097
-0.0376583003
-0.0239486396
0.0092760446
0.0007749029
0.0291849095
-0.0008770716
-0.0451592319
-0.0130447168
-0.0426259264
-0.0268286206
0.0068022800
0.0051681902
0.0016895442
0.0216138884
-0.0100313704
0.0375831239
-0.0031151229
0.0304575711
0.0191904381
-0.0079241851
0.0072990083
-0.0019184367
0.0098703140
-0.0090466328
-0.0315430202
-0.0245682932
-0.0309460685
0.0007636019
-0.0109627489
0.0025392012
-0.0105590634
-0.0277140066
-0.0115431594
0.0291290376
-0.0048556230
-0.0182213597
0.0326017141
-0.0351430327
-0.0204740893
-0.0013555058
-0.0095094508
0.0146872150
-0.0186296552
-0.0410504416
0.0071692453
-0.0046795690
-0.0019737545
0.0088196537
0.0449228138
-0.1871141940
-0.1979169697
0.0328553841
0.0330732390
0.0702417046
-0.0187542494
-0.1034520641
0.0523213893
-0.3001855612
0.0431570150
0.1855886430
-0.1230352223
-0.0555622727
-0.0411144234
0.2431585938
0.1980064064
0.0259817857
-0.0107224444
0.0510969535
-0.0774024352
0.0334061645
-0.0220643450
0.1038711220
-0.0267244149
-0.0591985807
0.0321334898
0.1228461266
0.1217225567
0.0396082178
0.1138566136
-0.2013211697
-0.3210523427
-0.0125687169
0.0585388206
0.0203220211
0.0304849949
-0.0238708165
-0.0359774120
-0.2119887471
-0.0815743655
0.2635593116
-0.1934958696
-0.1748398989
0.1488976479
0.3136244714
0.2875987589
-0.0067437226
0.0879980326
-0.0614249855
0.0512338392
-0.0523344614
-0.1612103730
0.0058141295
0.0200819932
0.0892848894
-0.2112803906
-0.2899612188
0.0822460502
-0.1406604797
-0.1738479435
0.2369375527
-0.0242338367
-0.0285814200
-0.1465664208
0.0513467677
0.3994932473
-0.0998367071
-0.0338253640
0.1334696263
0.2086036503
0.0082484391
-0.0463731512
0.0373348929
0.0043196506
-0.0090910895
-0.0147144804
-0.0021919480
-0.0421900451
0.0096401116
0.0390639752
-0.0429830886
0.0285832081
0.0002660948
0.0072510135
0.0295964163
-0.0111729158
-0.0098148929
-0.0314882733
-0.0394861922
0.0334804505
0.0309011452
0.0220065471
0.0290649198
-0.0409483798
-0.0351218395
-0.0047810208
-0.0020359203
0.0145011209
-0.0308759958
0.0092467032
0.0345454626
-0.0021997683
-0.0123216342
0.0330668800
0.0382761844
0.0206904355
-0.0097634736
-0.0230343957
0.0253100097
0.0237380359
-0.0415505618
0.0285858512
0.0341777727
-0.0032956314
-0.0058598816
0.0137696574
-0.0043838155
0.0050272881
-0.0199673269
-0.0235979725
0.0068374560
-0.0060899858
0.0239933878
-0.0284768883
0.0636128634
-0.0803805888
-0.1083409116
0.0501760691
0.0449994802
0.0651839226
-0.2468890548
-0.1797346622
0.0973514840
-0.2378056049
-0.0970261171
0.2716108859
-0.1418133825
0.0037844067
-0.0544626229
0.2058659047
0.2607701123
-0.0791299641
-0.0235397071
0.1008818895
0.1124717742
0.0859040990
0.0449143834
0.0270995758
-0.0264512561
0.0189426895
0.0063805929
-0.0140207987
-0.0043921475
-0.0157049466
-0.0059282854
0.0260835085
0.0129775470
0.0141281551
0.0097830016
-0.0193107314
0.0242051613
0.0357935391
-0.0195904169
-0.0030632005
0.0020135033
0.0388432592
0.0199967958
0.0092774723
0.0443933830
-0.0313641354
0.0343864672
-0.0324403457
-0.0088629881
0.0332964733
0.0290890727
0.0265563186
-0.0206362437
0.0126057724
0.0085296426
0.0310387816
0.0178028438
-0.0188331604
-0.0066979867
0.0073558642
-0.0323248915
0.0225685220
0.0063007083
-0.0314480662
-0.0119201718
-0.0070512132
-0.0011309406
0.0454300568
0.0011845926
-0.0290396344
-0.0055385511
0.0195052009
0.0215543192
-0.0075481371
-0.0237440299
0.0324992500
-0.0150489118
-0.0027212955
0.0394289829
-0.0360587798
0.0131327584
0.0111157056
-0.0244386587
0.0444654152
-0.0074467538
0.0336872414
0.0162825976
-0.0040443740
-0.0291588139
0.0228018258
0.0440089181
-0.0298721958
0.0319070779
0.0227286164
0.0342866816
-0.0354611203
0.0174777191
0.0291391797
-0.0227333214
0.0251939576
0.0206511002
0.0306110960
0.0298559889
-0.0065884809
0.0403082781
0.0337807313
-0.0101245185
0.0122569520
-0.0284093525
0.0189413596
-0.0125216655
-0.0048430595
-0.0119539788
0.0094850967
0.0181252584
0.0213360246
-0.0296879802
0.0110501666
-0.0222529471
0.0207199361
-0.0155621199
-0.0266807992
-0.0081488956
-0.0097586922
0.0419997983
-0.0084429719
0.0031806703
0.0423041172
0.0157376677
0.0416035019
-0.0208188184
-0.0164876301
-0.0247018449
-0.0156959165
0.0340606794
-0.0364828743
0.0260987822
0.0110015981
0.0462867916
0.0052617895
0.0303877052
0.0296272244
0.0402136669
0.0412653126
0.0319272242
0.0283550397
-0.0324867144
0.0134576280
-0.0096046543
0.0434356742
0.0040742690
0.0341896191
0.0135532636
-0.0069140662
-0.0034083046
0.0244220365
-0.0301846266
0.0039567994
-0.0251476765
-0.0349142067
0.0292248223
0.0144039970
-0.0075215125
-0.0049715000
-0.0320196338
0.0238564778
-0.0338530242
-0.0253021177
-0.0408509076
0.0075119096
-0.0164790992
0.0006709485
0.0295967329
-0.0262877587
0.0368369929
0.0023296063
-0.0003176811
0.0048665567
0.0197574627
-0.0094630094
0.0266436636
0.0399108678
0.0373706222
-0.0013803174
-0.0102994805
-0.0086976700
0.0296657160
-0.0192008670
0.0028424398
-0.0397284739
0.0222523790
-0.0170156602
-0.0362552702
0.0204930846
0.0160403121
0.0326057896
-0.0226501692
-0.0309797022
0.0003739065
-0.0230522957
-0.0103843641
0.0036971942
0.0444130562
0.0229422338
0.0254583210
-0.0303101297
-0.0050128633
0.0355878584
0.0403775088
-0.0217894632
0.0221390855
0.0355812274
0.0242824052
-0.0369496122
0.0219884124
0.0315886214
-0.0299947634
-0.0277680084
0.0426447131
0.0062569696
0.0454945564
-0.0276818685
0.0170807466
-0.0012295272
-0.0211759899
-0.0260112379
0.0292000715
0.0155266887
-0.0083862478
0.0287187081
-0.0233318545
-0.0142763723
0.0046989983
0.0434260741
0.0084526706
0.0434914343
-0.0349394195
0.0036593594
0.0193202030
-0.0212379768
0.0034472942
0.0183144491
-0.0337760001
0.0051574321
-0.0091971876
0.0116211521
0.0385543033
-0.0242516454
0.0205565989
-0.0178041086
-0.0149054164
-0.0340864547
0.0330396630
-0.0015331008
-0.0314348079
0.0084207635
-0.0081331395
-0.0184531696
-0.0070920228
0.0093284184
-0.0183192007
-0.0029214933
0.0325311981
-0.0175233651
-0.0367513411
0.0406272635
0.0169968046
0.0439568236
0.0017981707
-0.0007065873
-0.0056015262
-0.0224079341
-0.0155726783
0.0257818047
-0.0979512334
0.1185512692
0.2816713452
0.0857363939
0.0149786891
-0.0861833319
-0.2226710767
0.1182557791
0.1399363428
-0.0346616805
-0.2817968130
0.0148768276
0.2106131166
0.0102223437
-0.1846342236
-0.1209980398
-0.0689279363
-0.0990407392
-0.0892623067
0.0569542795
0.0699731633
-0.0711387619
-0.0490918793
-0.0127365980
0.0515743271
0.0527976491
0.1431153417
0.0612173639
-0.1032728851
-0.2144922167
0.0676753148
0.1751783788
0.2407669276
0.1795550287
0.0548236445
-0.0190938897
-0.1626593322
-0.0218300782
0.2284580022
-0.0408915393
-0.1887074262
-0.0863765925
0.3841579556
0.0376409218
-0.3418346345
-0.0396011360
-0.1913189143
-0.0912431926
-0.0850697830
0.0199636668
0.0556406900
0.0346485302
0.2597276270
0.1232684255
0.0026661160
0.0169587452
-0.0310772862
0.1916861087
0.1461458504
-0.0951804295
-0.1260414720
-0.3059761226
0.3195183873
0.1307110339
-0.2738832235
-0.2193263173
-0.0095835356
0.2921797931
-0.2037566602
-0.0652212799
0.0606017336
-0.2154932469
-0.1827345490
-0.0113949021
0.0279216357
0.0303887147
0.0027589435
-0.0222442597
-0.0131695261
0.0212630276
0.0180133507
-0.0263540167
0.0104180444
-0.0039922348
-0.0243705120
-0.0367582105
0.0375509113
0.0023096036
-0.0255498160
0.0379406847
-0.0028482233
-0.0063400855
0.0092168543
-0.0017498498
-0.0040140501
0.0123325260
0.0281702802
0.0240717530
-0.0339900553
0.0327325799
-0.0209845062
0.0168488361
0.0422174968
-0.0296621602
-0.0198837966
-0.0274581648
-0.0120235384
0.0443113334
-0.0349565931
-0.0337945968
0.0358769596
-0.0375624150
-0.0310612433
0.0341228954
0.0375417881
0.0157030541
0.0298995581
0.0120119220
-0.0342633203
0.0095145665
-0.0176931508
-0.0170385670
0.0242798608
0.0223469697
0.0246963929
0.0039159134
0.0813120380
0.2900041342
0.0827891156
-0.0560392626
0.0106405690
-0.0247596633
0.2170769870
0.0871681720
-0.1888799071
-0.2356128246
-0.2192573696
0.4058584273
-0.0184163209
-0.2585073113
-0.1651085466
-0.0060982481
0.1441460401
-0.1327672154
0.0431261919
0.0488733947
-0.2097598910
-0.1419786066
0.0354374126
0.0545407198
-0.0098361177
-0.0075277644
0.0070642624
-0.0484758429
-0.0464519747
-0.0157696083
-0.0274143480
-0.0495941192
-0.0162850246
-0.0058268085
-0.0067021768
-0.0581540130
-0.0477282591
-0.0047747553
0.0207746308
-0.0534782335
0.0053110309
0.0104247741
-0.0226201583
0.0041375086
-0.0433842167
-0.0504550487
-0.0012898222
-0.0240294896
-0.0426159836
-0.0460169129
-0.0523273237
-0.0114704194
-0.0050292076
-0.0450656526
0.0100979181
-0.0465230159
-0.0308737624
-0.0179789923
-0.0130548682
-0.0452658683
0.0173098072
-0.0140537731
-0.0019586021
-0.0441686139
0.0017981265
-0.0427815802
0.0002055759
-0.0315762348
-0.0368375331
-0.0265592132
-0.0280711502
-0.0256483331
-0.0362174772
0.0098154051
-0.0226182882
0.0079911398
-0.0349388719
0.0203652736
-0.0058019035
-0.0512742475
-0.0289345998
-0.0571988933
0.0118071325
0.0083689420
-0.0039806324
-0.0004896815
-0.0117163202
-0.0085631125
-0.0511020347
-0.0252552889
0.0130347153
-0.0443573967
-0.0077640801
0.0054762303
-0.0039251386
-0.0383697897
-0.0408921801
-0.0177221838
-0.0430177189
0.0110547049
-0.0484678820
-0.0020782405
0.0197549667
0.0031313710
-0.0542258434
0.0001257859
-0.0069870721
-0.0478603542
-0.0154478336
0.0109057315
0.0037359195
-0.0458693206
0.0142704612
-0.0427547954
-0.0270553660
0.0272168498
0.0245191380
-0.0217309594
-0.0387166291
-0.0256133806
-0.0169674437
0.0121557117
0.0074892514
0.0065381695
-0.0444418415
0.0187936779
-0.0515258387
-0.0090770200
-0.0276838969
0.0191284698
0.0151922647
-0.0438793786
-0.0529078096
-0.0573600829
0.0080171982
-0.0047412449
-0.0116765806
-0.0186104644
0.0201683529
-0.0404398702
-0.0233656932
0.0090830047
-0.0100365086
-0.0046879486
-0.0227482952
-0.0055158911
-0.0077114273
-0.0059657912
0.0123325670
0.0237138383
-0.0102456175
-0.0406303778
0.0097170202
-0.0535501316
-0.0409539342
-0.0382982194
-0.0191835221
-0.0525631346
-0.0169561282
-0.0197748411
-0.0239844099
-0.0050086202
0.0011749711
-0.0553545356
-0.0385858864
-0.0252403505
-0.0285362490
-0.0331821814
-0.0243923105
-0.0279339440
0.0252145436
-0.0406308137
-0.0452115983
-0.0497556962
0.0019943744
0.0170409698
-0.0049056713
0.0086696306
0.0072568255
0.0154262846
-0.0187259931
-0.0183099620
-0.0117653096
-0.0029639897
-0.0078617567
-0.0541372858
0.0173914880
-0.0010689386
-0.0203294381
-0.0573024414
-0.0198209360
0.0151770785
-0.0372650586
-0.0134101594
-0.0401591100
0.0045366669
0.0017123860
0.0225647110
0.0230596103
-0.0424219035
-0.0245377459
0.0055829799
-0.0436723195
-0.0265984237
-0.0219656173
0.0016729279
-0.0329907015
-0.0174994078
-0.0480550006
0.0103177531
-0.0003135272
0.0152170984
-0.0117060831
-0.0143627683
-0.0167582203
-0.0098228306
-0.0102645252
0.0171276052
0.0245689861
-0.0457093008
0.0197332613
-0.0327702947
-0.0076538706
-0.0540788509
-0.0387573689
0.0250040404
-0.0380973704
-0.0386206880
0.0154543910
-0.0184195489
0.0129678547
-0.0514675826
-0.0113138491
-0.0230950117
-0.0116417464
0.0014778420
-0.0573880076
0.0071625025
0.0141051197
-0.0498689860
-0.0435188673
0.0124193868
-0.0466258079
0.0047469670
-0.0409423970
0.0220148209
-0.0255667325
0.0065285047
-0.0428012609
-0.0058309357
0.0195475463
-0.0149798570
-0.0513123535
-0.0328011289
-0.0365031734
-0.0161877535
0.0248335544
-0.0225292947
-0.0469269603
0.0194762200
-0.0148853604
0.0191164818
-0.0038661072
-0.0033463938
-0.0423147418
-0.0361932404
-0.0242223646
0.0143100945
0.0216770265
-0.0323058367
-0.0034478430
-0.0112799276
0.0116652548
-0.0034849888
-0.0418198034
-0.0407993048
-0.0951241925
-0.1760483682
-0.0012617382
-0.1430380046
0.0016366508
0.0702960938
-0.2238921523
0.0375511721
-0.3098488748
0.1394444853
0.1738753319
-0.1884865910
-0.0008024047
0.0260550845
0.0049596853
0.1294066608
0.0559632517
0.0994756445
-0.0108064506
-0.0395625643
0.0640895218
-0.0473633669
0.0270942450
0.0629788265
0.0697257146
0.1260372251
0.1537782103
0.0784849823
0.0164293069
0.0464198813
-0.0509065390
-0.0336111113
0.0283452813
-0.1196532175
-0.1137971804
0.1178126559
-0.0034988185
-0.1394792646
-0.1651856601
-0.0060662474
0.1742608994
-0.2335009426
-0.1223059371
0.2029337436
0.2515431345
0.0061682090
0.0465733856
0.1383098811
0.0341553576
0.0321084000
0.0428772122
0.0182614550
-0.0227119923
-0.0032559480
-0.1528002620
0.0991967693
-0.1904976517
-0.0373934545
-0.2338217050
-0.1195453629
0.3490823209
-0.2834641337
0.0010282540
-0.0632126182
0.0999694020
0.1075953320
-0.0857055858
0.0986397117
0.1264057457
0.1619933844
0.0019085187
0.0294364635
0.0374788269
-0.0453456566
0.0075572268
0.0241919570
0.0239559095
-0.0466391444
-0.0197725855
-0.0250421427
-0.0505815037
-0.0033506197
0.0056959293
-0.0348494165
0.0027642346
-0.0332868658
0.0096988641
0.0168308597
-0.0436272137
0.0062745195
-0.0044881720
-0.0507528968
0.0186298545
-0.0277558807
-0.0224798545
-0.0320334062
0.0185726397
0.0035060272
-0.0494749881
-0.0367475897
-0.0193139706
0.0143712629
0.0036787337
0.0202132948
-0.0382029414
-0.0494150557
-0.0141608687
0.0165920276
0.0155839240
-0.0565660484
0.0254655704
-0.0323168486
-0.0522514917
-0.0521276481
-0.0254116952
0.0190644003
-0.0009589922
-0.0527747087
-0.0148594864
0.0044517349
-0.0565079339
0.0030778591
-0.0431167483
0.0109378863
0.0520830415
0.0517225154
-0.0151056862
0.0039742617
-0.0883308947
-0.0744889677
0.0113208117
-0.2353501618
0.0766976923
-0.3338967860
0.0518758073
0.3027585149
-0.2580260932
-0.0044844504
0.0455811992
0.1434532851
0.0790595189
0.0100925593
0.1292344630
0.1650320888
0.0696863160
0.1115589663
0.0334824808
-0.0059548398
-0.0260088816
-0.0351537727
0.0211196728
0.0266751535
-0.0244344044
-0.0002626803
-0.0147077711
-0.0094394647
-0.0453866832
-0.0313549526
0.0226043705
0.0047299694
-0.0230525415
-0.0057403441
-0.0027507253
-0.0447457768
-0.0255102664
-0.0118887955
0.0083281975
-0.0224272814
-0.0518236198
0.0100032045
-0.0314198062
0.0260916296
-0.0151936859
-0.0043931641
-0.0555533879
-0.0529843085
0.0145343971
-0.0398681797
-0.0047447016
-0.0000171471
0.0160744432
-0.0089095952
-0.0258145668
0.0106765591
0.0322760567
-0.0071470845
-0.0187897254
0.0320676230
-0.0082169781
0.0149632068
-0.0350717455
-0.0258682985
-0.0242839325
-0.0262381081
0.0247005727
-0.0503011122
-0.0210139714
-0.0101473304
-0.0043869312
-0.0346921980
-0.0539012626
0.0192891937
0.0021597680
-0.0428932831
-0.0342304409
0.0280846003
-0.0381685421
0.0305364281
-0.0263261758
0.0033723635
0.0293828696
-0.0440293327
-0.0191183146
0.0099809878
-0.0183956195
-0.0100398706
-0.0335580558
-0.0303963330
-0.0565169081
0.0161678474
0.0165613387
0.0035902916
0.0025510713
0.0150784813
-0.0096968599
0.0154304244
0.0029976505
-0.0267823152
-0.0065527204
0.0110307708
-0.0418218337
-0.0143112736
0.0274438672
0.0047468962
0.0221581701
0.0164903067
0.0051541533
0.0106021008
-0.0332347453
0.0122390566
0.0048810476
-0.0096163303
-0.0085679991
0.0044338000
0.0235496797
-0.0032684028
-0.0070688468
0.0134307770
-0.0226680543
0.0055904700
0.0255599245
-0.0164816529
-0.0247311499
-0.0190525558
-0.0158064496
-0.0288666412
-0.0061414777
-0.0252457745
0.0243698806
-0.0047299997
-0.0502211414
0.0136504471
0.0175361242
-0.0053514778
-0.0088336291
0.0155735025
0.0287032388
-0.0516307876
0.0062825102
0.0242556464
-0.0051053083
0.0264935456
-0.0461847708
0.0093567688
-0.0237135254
-0.0216994751
0.0095505156
0.0004107105
-0.0120136226
-0.0464855060
0.0071394523
-0.0076121287
0.0212994162
0.0332836434
-0.0141960075
-0.0240790956
0.0097229024
0.0034007272
-0.0314070396
0.0236353185
0.0055387113
-0.0444575846
0.0228183102
-0.0156349614
0.0233388264
0.0086579453
0.0127984229
-0.0501151793
-0.0357350633
0.0275395624
-0.0116256792
-0.0040425537
-0.0434781723
0.0083286772
0.0307435561
-0.0123026967
0.0007676395
-0.0105376672
0.0117958710
-0.0459845290
-0.0008568830
-0.0007896061
0.0148635153
-0.0295657814
-0.0323463082
0.0055455612
-0.0394614227
-0.0362899192
-0.0001538443
-0.0441228263
0.0030469096
-0.0109560732
0.0181906540
-0.0315560661
-0.0262918472
-0.0267081242
-0.0360876247
-0.0012323778
0.0256125741
-0.0454890169
-0.0002829979
-0.0208625868
0.0276037697
-0.0342860147
0.0068270913
-0.0163606890
-0.0462797545
-0.0213620737
-0.0251563154
0.0031030779
0.0218338110
-0.0372566208
-0.0379874259
-0.0463833287
-0.0101434439
0.0128071979
0.0171208307
-0.0403627194
0.0070116958
-0.0402416289
-0.0091810897
-0.0111236442
-0.0065083420
-0.0374114923
-0.0439058766
-0.0021135048
0.0193986110
0.0075613661
-0.0233922768
-0.0046710568
0.0157271605
-0.0289124809
0.0162720829
-0.0521494485
-0.0377523340
-0.0211586040
-0.0343150198
0.0145773571
-0.0192333125
0.0198084470
-0.0216538385
-0.0031028809
-0.0249802079
-0.0384377763
-0.0141960988
0.0208111461
-0.0164925270
-0.0190780032
0.0075010802
0.0228945948
-0.0475106053
-0.0162548721
-0.0190321468
-0.0177135933
0.0081513310
0.0289622787
-0.0172075853
0.0146317016
-0.0160322171
0.0030290459
-0.0267507061
-0.0524371117
0.0281045083
0.0226256717
-0.0200209450
0.0149480309
-0.0042440970
0.0184016377
0.0234790463
-0.0394154452
-0.0474615805
0.1541858613
-0.0830289423
-0.1459724903
-0.0493223295
0.1975142956
0.2579827309
0.0435154662
0.2770790756
0.1325930655
-0.0523426868
0.1717593968
0.0351095311
0.2038862556
0.0453801975
-0.1868742108
-0.0841182992
-0.0757366866
-0.1319763660
-0.1031750366
-0.1553052217
-0.0348878689
-0.0172914360
-0.0133819869
0.0390509106
-0.0955045447
-0.1710819900
-0.1162799969
-0.1704219580
-0.2753670812
-0.4332354963
-0.0616035983
-0.0051420708
-0.1406433284
-0.0427261144
0.1534495354
0.1337229609
0.1505339891
0.3048097491
0.2258706987
-0.0151757738
0.1148646325
0.0847088322
0.0001602456
0.0483126082
0.0564085804
0.0264340788
-0.0310018510
-0.0346140414
0.0063162288
-0.1753087342
-0.0035623284
-0.0580688678
-0.1230868772
-0.2517558038
-0.2785681486
0.2612348795
0.0133418841
0.1240147948
0.1911809593
0.1269147694
0.0916815326
0.0948795751
0.2067217529
0.2054632157
-0.0503511466
-0.0512893461
-0.0399773233
-0.0706709921
-0.1382704675
-0.1754172742
-0.0753208399
0.0008147600
0.0187979694
-0.0200886596
-0.0523725301
-0.0203077141
-0.0047107670
-0.0453159772
-0.0229811892
-0.0098547023
-0.0194139667
0.0219602846
-0.0272952635
-0.0055223927
-0.0185821000
0.0215254221
-0.0038063112
-0.0462338999
-0.0144716725
-0.0277979802
-0.0169512946
-0.0511081927
-0.0400476716
-0.0283020698
0.0168695785
-0.0001322153
-0.0083073545
0.0051717758
0.0009505355
0.0040505389
0.0109398803
-0.0534979180
-0.0279614255
-0.0300046988
-0.0294220317
-0.0406701826
-0.0198033396
0.0078090294
-0.0348951817
0.0245092716
-0.0190674085
-0.0253499728
-0.0171780977
0.0156230852
-0.0145947458
-0.0459359661
0.0092747426
-0.0208310373
-0.0264871046
-0.0306455363
-0.0341715664
-0.0189697705
0.0394061878
-0.0565735921
-0.2046463937
-0.0722700953
-0.1261747479
-0.1179306358
-0.2941850126
-0.1212560162
0.2165606171
-0.0519893952
0.2026337385
0.2506090403
0.0060536014
0.1364821047
0.0910464823
0.2451702803
0.1269604564
-0.0520983711
-0.0026842167
0.0169397611
-0.0922724530
-0.1146599054
-0.1560067981
-0.0506353639
-0.0255901851
0.0411842391
0.0300473683
-0.0131951878
-0.0076637296
0.0466242060
0.0298124701
0.0140369944
-0.0254050978
-0.0100348126
-0.0110745402
-0.0271752533
0.0214578267
0.0424731672
0.0493957214
-0.0252007432
-0.0244142059
0.0263139233
0.0134227136
-0.0200402047
-0.0121104168
0.0432772711
0.0399638787
0.0310712997
-0.0231022649
-0.0113681369
-0.0321778618
0.0410122126
0.0346615240
0.0312180351
0.0087493658
-0.0320569351
0.0417590253
-0.0063319933
-0.0166618451
0.0236585774
0.0443810858
0.0502724126
-0.0036151796
-0.0192422550
0.0403493345
0.0277731866
0.0108304359
0.0116974628
0.0392423198
0.0405409932
0.0350193009
0.0164406728
0.0029352268
-0.0096466886
0.0024183448
-0.0318346098
-0.0111529874
0.0369593315
0.0406132601
-0.0137507170
0.0045491243
0.0028117143
0.0007000283
0.0088534281
0.0373762436
0.0293452702
0.0418315865
0.0245696288
0.0400034711
-0.0038437648
-0.0176899936
0.0431714952
0.0308269225
-0.0106727798
0.0326936990
0.0453152992
0.0286548026
-0.0302380230
-0.0236377157
-0.0218919292
-0.0215106551
0.0356761292
-0.0319156870
0.0283426177
-0.0271792226
0.0425588302
0.0341883525
0.0292521082
-0.0197122395
0.0187853612
0.0077815386
0.0305374749
0.0278410148
0.0094466414
0.0388958007
0.0352024436
0.0270609260
-0.0009342271
0.0384480841
0.0372267291
0.0382509902
0.0067635574
0.0438408516
0.0204924028
-0.0221930258
0.0191853847
0.0320579559
-0.0000786158
0.0044880915
0.0193089675
0.0148527846
0.0257545933
-0.0089985132
0.0383379683
-0.0098402789
0.0040931334
0.0005759734
0.0257380474
-0.0254220348
-0.0123012485
0.0309671331
-0.0026080220
-0.0040348000
0.0280293394
0.0306896642
0.0304180719
-0.0260306913
-0.0041651395
0.0131759811
0.0065163639
0.0444137193
0.0309874192
-0.0246374980
0.0021108107
0.0381508842
0.0503039062
-0.0064923149
-0.0177920554
-0.0182660036
0.0199653264
0.0468702726
0.0147448750
0.0132341636
-0.0044915541
-0.0057302970
0.0111845480
0.0395818055
0.0310872551
-0.0009533034
-0.0315854140
0.0328342244
0.0366618522
-0.0291498750
-0.0042107557
0.0310436320
-0.0242470708
0.0275141783
0.0333749875
-0.0275998916
0.0455039740
0.0334900543
0.0458498001
0.0283089317
-0.0067906720
0.0052794479
0.0189280435
0.0256751273
0.0307128690
0.0279396046
0.0242341403
0.0112530570
0.0158721264
0.0492471568
-0.0063581006
0.0046468158
0.0085950922
-0.0266365334
0.0141984848
-0.0187375359
-0.0154469647
0.0484110266
0.0497852191
0.0384571366
0.0082837893
-0.0118667185
0.0088542346
0.0000430832
-0.0027408239
0.0365603194
-0.0313312411
0.0114444532
-0.0171943549
0.0402120836
-0.0248240065
0.0036027760
0.0047466876
0.0329311602
0.0309828371
0.0384844057
-0.0187364668
0.0350988843
0.0258930027
0.0403291807
0.0421370566
0.0035339717
0.0371459909
0.0012399529
0.0313077085
0.0252117626
-0.0034163729
0.0006504909
0.0431380086
0.0157788172
0.0351169966
-0.0017014634
0.0476677008
0.0218346566
0.0337041430
-0.0268939305
-0.0038874487
0.0422379784
0.0349320173
-0.0186134949
0.0501691401
-0.0206247773
0.0386706851
-0.0172607005
0.0460634530
-0.0064052683
-0.0091940565
0.0383305773
0.0407008864
0.0435611121
-0.0328215845
0.0159427486
-0.0208752956
0.0044925869
0.0343461074
0.0124712382
0.0031357524
0.0165121537
-0.0081203720
-0.0114861783
-0.0178221278
0.0027755143
-0.0272905380
0.0458327085
0.0234179236
0.0475811251
0.0221418962
0.0167784598
0.0261601247
-0.0238097701
0.0243346822
0.0425920412
-0.0642019287
-0.0658782944
0.3084971905
0.2500631511
0.0566956252
-0.2640072107
-0.1342668086
0.2265970856
0.2033783495
-0.1601686478
0.1310839653
0.0494629554
0.0765861049
0.1939241439
-0.0299397390
-0.1171866357
-0.2628366649
-0.0769180581
-0.0252038669
-0.0761134177
0.0640411600
-0.0262335166
-0.0764955804
-0.0965901464
-0.1373900473
0.1120506153
0.0357773043
-0.0511457399
-0.2524575591
-0.1535466760
-0.0050124754
-0.3105694056
-0.0556581244
0.2538422644
-0.0088747973
-0.1658617407
0.0286716502
0.2367624640
0.1942804158
0.0096538290
0.1416808218
-0.0889396444
-0.0771479905
0.2957713306
0.1869757622
-0.1740499139
-0.4315886796
0.0144818164
0.1025701612
-0.2170425057
0.0709127113
-0.0963308066
-0.0213952661
0.1695753038
0.0615154803
-0.2056218386
-0.3111894131
0.1651716530
0.3304407895
-0.0401954986
-0.0978024527
0.1276042312
0.1442416161
0.1211902127
-0.0604663976
0.0097797178
-0.2439380586
-0.1384259909
0.1396850199
-0.1272054762
-0.0686018392
-0.2084912807
0.1223253086
-0.0745320618
-0.2585752010
0.0147117507
0.0086141732
0.0098139727
0.0404154658
0.0370858945
0.0157377888
0.0417847186
0.0109385923
-0.0058374237
0.0001204863
-0.0220483132
-0.0099440487
0.0425577089
0.0057166805
0.0044765864
-0.0197474658
0.0459309295
0.0377458520
0.0366894044
0.0041480092
0.0084762797
0.0197572503
0.0171825700
0.0094018467
0.0147376880
0.0189113747
0.0136271268
0.0220151972
-0.0262680650
0.0163641628
-0.0273812730
0.0201256778
-0.0049689300
0.0261691418
-0.0083186114
0.0258233137
0.0342019163
0.0340425074
-0.0104682380
0.0249949116
-0.0285318326
0.0458483361
-0.0299313590
0.0205564350
-0.0024413371
0.0252356995
-0.0326274224
-0.0006786088
-0.0182507820
0.0278512314
-0.0025387905
-0.0336536244
0.0450995862
0.0418964066
-0.0347448327
-0.2527751625
-0.1737599522
0.1961023360
0.2405962646
-0.0797562674
-0.0206264853
0.1359384358
0.1158642098
0.2066052258
-0.0905219615
-0.0402130373
-0.3919051886
0.0138495415
0.0912974849
-0.0976489782
-0.0698819831
-0.1810871959
-0.0314898603
-0.1601878256
-0.2085567713
-0.0036736687
0.0192253198
-0.0055945613
0.0335026793
-0.0298592057
-0.0345702805
0.0134242028
-0.0246838797
-0.0050151432
0.0244636685
0.0404666774
0.0319291279
-0.0306019764
0.0059243869
-0.0140513238
0.0029715362
0.0027937547
0.0234910399
-0.0091754226
0.0357772857
-0.0287606083
0.0352216996
-0.0158771332
0.0037379027
0.0188986659
0.0225278493
0.0390588790
0.0413001329
0.0231174212
0.0391459838
0.0025509845
-0.0161844064
0.0144851794
-0.0294685103
0.0224418994
-0.0159020312
0.0469300635
0.0378130749
0.0222160742
0.0058572921
-0.0297605712
-0.0175947994
0.0394390598
-0.0357296802
-0.0061115311
-0.0184258334
-0.0399470180
-0.0085103689
0.0108460747
0.0392379947
0.0245902259
0.0239685029
0.0208966397
0.0081641693
-0.0056440076
0.0185838044
0.0098225353
-0.0211549718
0.0035329883
-0.0084759640
0.0173822101
0.0429247133
0.0177018382
-0.0314875543
0.0338860080
0.0299926866
0.0231751334
0.0366094559
-0.0074236249
-0.0304096472
0.0299719628
0.0197851714
-0.0007711467
0.0181264039
0.0461983681
0.0078444015
-0.0164011009
-0.0210940465
-0.0348310508
0.0222186930
0.0030278247
0.0171365738
-0.0144406250
-0.0044463263
0.0347726829
0.0075022574
0.0026382413
-0.0156555679
0.0078266934
0.0245427005
0.0333744064
0.0203582365
-0.0186620671
0.0439083241
-0.0147558311
-0.0309001487
-0.0118205836
-0.0356176682
0.0331660621
-0.0250462759
0.0365421548
0.0141511103
0.0071567008
-0.0351995677
0.0223506559
0.0136718117
-0.0185123533
0.0425224639
-0.0292917304
0.0161038451
-0.0196226053
0.0431628600
0.0458694100
0.0260574818
0.0129488893
-0.0345797054
-0.0071952608
0.0155757265
0.0366581455
-0.0265324786
0.0150198573
-0.0198541153
-0.0338401571
-0.0060323700
-0.0182050336
-0.0191377643
0.0228402838
0.0272882041
0.0353950188
-0.0163970497
0.0398537517
-0.0194000080
0.0287320577
-0.0331257582
-0.0240905322
0.0445841178
0.0360492170
0.0131610641
0.0045943563
-0.0034480833
0.0013844072
-0.0045366213
-0.0116771627
0.0472671650
0.0318658277
0.0203882046
-0.0387779400
0.0202109534
-0.0228325371
-0.0356554613
-0.0298690982
-0.0061480221
-0.0074249171
-0.0302004423
-0.0245343447
-0.0231823009
-0.0069048516
0.0421973355
0.0024968381
-0.0133746034
-0.0327103287
-0.0271406211
-0.0337311737
0.0388401374
0.0132467505
0.0377268270
0.0492332280
0.0111356443
-0.0090320595
-0.0115943104
0.0058760084
-0.0188428853
0.0345811099
0.0315123647
0.0388763919
0.0307995640
-0.0336217880
-0.0266533457
0.0122192800
0.0464457795
-0.0326900668
0.0432339311
-0.0213050283
0.0168580171
-0.0078439033
0.0100140600
0.0159229785
-0.0254636426
0.0147735514
0.0272504017
0.0001156607
-0.0283878855
0.0222064089
0.0436450094
0.0374430344
-0.0008908527
-0.0024074502
-0.0305976886
-0.0307256468
-0.0020871148
-0.0249526128
-0.0335459746
0.0193663947
0.0327209122
0.0089667728
0.0068180021
-0.0177989360
-0.0223676842
0.0303425808
-0.0291650705
0.0297745354
0.0032608698
-0.0273881983
0.0082443999
0.0257070214
-0.0000395242
0.0173674356
0.0282579977
0.0459062234
0.0374262072
0.0107648950
0.0439129397
0.0455277599
0.0113135921
-0.0188898835
0.0045161699
-0.0380229354
0.0394967236
0.0204480086
-0.0252518877
0.0322532393
-0.0238747522
0.0370625034
0.0100082532
-0.0232729372
0.0389884450
-0.0282646306
0.0248965826
0.0150594218
0.0261567328
0.0448423550
-0.0053066746
0.0234386381
0.0220530741
-0.0332775116
0.0425365567
0.0010719430
-0.0324108712
-0.0050791344
0.0001525605
0.1359532773
0.0430398956
-0.2034873068
0.0262595490
-0.0085496316
0.1201868355
0.3419607878
0.1155281737
-0.1014591455
-0.1353363246
0.1828398556
-0.0935358927
-0.2459573001
0.0127611915
0.1700045019
0.0948772281
0.2175116539
0.0154259745
0.0024910301
-0.1114490852
-0.0856729820
0.0891102254
0.0555419177
0.0137208849
-0.0272536613
-0.1052418873
-0.1570855230
-0.2804037333
-0.1291625947
0.1056393310
-0.0844953433
-0.1587125063
-0.2507160008
-0.1562608778
-0.0570311174
0.0318720341
0.1288642585
-0.0322970487
-0.2090472728
-0.0251978263
0.0949318707
0.0278626680
-0.1710270792
0.0595991015
0.1948597729
-0.1637404263
0.1662055254
0.2937167585
0.0282838549
-0.1104314998
0.0049920343
-0.0147706373
-0.3678381443
-0.1579724252
0.0406070761
-0.0154122598
0.0653408021
-0.1699702889
-0.0158721805
-0.0482249483
0.1428038478
0.1715201735
-0.3041624427
-0.0850086138
0.1316455454
0.0462298840
-0.0325904377
-0.0815735459
0.0758601576
-0.0753662959
-0.1548481584
0.0890459791
0.1264992803
-0.0035388449
-0.0870911628
0.0076567098
-0.0319623500
-0.0279362407
0.0321934260
-0.0122006144
-0.0021098745
0.0159032773
0.0360841006
-0.0161430426
0.0392939374
0.0325877964
0.0194647983
-0.0133969253
-0.0143556204
0.0390005969
0.0297936704
0.0140293017
-0.0064906571
0.0144587765
-0.0236153137
-0.0094160940
0.0429681800
0.0296715777
-0.0288662910
-0.0113721834
-0.0334819816
0.0306556355
0.0211387221
-0.0336039513
-0.0091585284
0.0043431488
0.0418486819
0.0247540921
-0.0055988454
-0.0163773447
0.0177019220
0.0278612301
0.0119639812
0.0145636024
-0.0176811758
-0.0039574616
0.0184195638
0.0021685662
-0.0083690537
0.0026748285
-0.0128580341
0.0084007625
0.0323237628
0.0205306858
0.0409657992
0.0102343177
-0.1059884354
-0.3590239882
-0.0867689401
0.0843810141
0.0881637782
0.1040038243
-0.1255396605
-0.0178194456
-0.0134092476
0.2481814325
0.1267404407
-0.2836405933
-0.0027719461
0.1294716597
0.0619945638
0.0523885004
-0.0995069146
0.0005396911
-0.1075296327
-0.1484962851
0.1410717964
0.0899172276
-0.0158492364
-0.1051065475
0.0319975130
0.0150672197
-0.0292972717
-0.0139847612
0.0279358793
-0.0309371985
0.0299262498
-0.0241739526
0.0117654093
0.0403845347
0.0296297390
-0.0077804253
0.0034816437
0.0293734521
-0.0091684582
-0.0227017850
0.0256564803
0.0460422263
-0.0210707858
0.0354956463
-0.0059548174
-0.0096655171
-0.0222019907
-0.0099510979
0.0286383145
0.0458427221
0.0211979654
0.0299928077
0.0041602077
-0.0288720671
0.0058199321
-0.0146554736
-0.0141447224
0.0215568431
-0.0366164446
-0.0162238199
0.0108708227
0.0047153104
0.0072504785
-0.0079580406
0.0334534906
-0.0110049993
0.0459389873
-0.0297689103
-0.0195185356
-0.0009293722
0.0424110256
-0.0088843219
-0.0129141314
0.0336475372
-0.0292475242
0.0237472225
-0.0154614244
-0.0282727741
0.0079222331
-0.0133212721
-0.0217156652
0.0513474792
0.0287932213
0.0372965857
0.0098151574
0.0062364172
-0.0017467116
0.0411532149
-0.0092665600
-0.0299870223
0.0492472984
-0.0032328500
0.0011209388
0.0465805493
-0.0128078880
-0.0141565548
-0.0252485778
0.0099647865
0.0329224989
0.0271970816
0.0125215873
0.0438107923
0.0122077120
-0.0069361348
0.0060972702
-0.0207174923
-0.0036855359
0.0258902628
0.0163524002
-0.0325230509
-0.0193430502
0.0124548869
0.0143722286
0.0304852352
0.0332611315
0.0017213285
0.0266107507
0.0278980955
0.0322973430
0.0189735014
0.0511583313
0.0048228130
0.0426409505
0.0262285862
-0.0269590225
0.0435811616
0.0185876079
-0.0030125813
0.0449350439
0.0101030413
0.0411721207
0.0396254025
0.0047922353
-0.0230841413
0.0506202057
0.0147638889
-0.0255751666
-0.0185908843
0.0424280055
-0.0196601059
-0.0110377865
0.0299111400
0.0092564020
0.0305228662
0.0396628194
-0.0290018432
-0.0221468490
-0.0118042650
-0.0301326234
-0.0163205285
-0.0098021738
0.0186410528
0.0299740732
0.0353793204
0.0170510728
0.0291674081
0.0314508826
-0.0064391233
0.0229865890
0.0284622610
-0.0175925624
0.0421885997
-0.0195876434
0.0294376984
-0.0217391998
-0.0232448224
-0.0038635333
0.0406557135
0.0173894335
-0.0222741812
-0.0314659663
0.0415692963
-0.0075301258
0.0400596634
-0.0226367638
-0.0225856621
0.0431191362
-0.0114781372
0.0440817885
-0.0076154233
-0.0269411560
0.0456856936
0.0093680946
-0.0235774145
0.0066847824
0.0146317016
0.0417259075
0.0262464881
0.0086086085
-0.0238949582
-0.0145537527
0.0271493290
0.0011691388
0.0177065674
0.0022374659
0.0243414249
-0.0012829421
0.0248823985
0.0429045446
0.0080504287
0.0071939933
0.0375357829
-0.0300957039
0.0309828985
0.0358134694
0.0102379713
-0.0226681270
-0.0267020669
-0.0042960071
-0.0001893088
0.0425722823
