-0.5059377551
-0.6676706672
-0.6636657119
-0.6794188619
-0.9783987403
-0.4877230823
-0.2066544890
0.0619202442
-0.1900931746
-0.2400521636
0.3499895036
0.2548717260
0.1657198370
0.3404488266
0.3991541266
1.4955140352
1.5467193127
1.5176714659
1.2467341423
0.9298050404
1.1120332479
0.2741369009
0.1021489650
0.1955890208
0.6641278267
0.7925095558
0.4638399482
0.2621771097
0.3980225921
0.6824004650
0.4216303527
-0.1895636916
-0.2906482518
-0.1682266891
0.2784306109
-0.1404831558
-0.5616962314
-0.4031328559
-0.8237156868
-0.0730051100
-0.0846675113
-0.6224526763
-1.0859506130
-0.5250797272
0.0838163421
0.0357382074
-0.6688589454
-0.6350378394
-0.1189430580
0.0989587978
0.6535143852
1.5906769037
1.4344375134
0.7318034172
0.5330495238
-0.0241342597
1.0501019955
0.9609674811
0.5349006653
0.0546347275
-0.0187070444
0.6389030218
0.3661097586
0.2297356874
-0.3067944348
0.1166196838
0.3854314685
0.1501155049
-0.1468045712
-0.7212240696
-0.7848902345
-0.5455241799
-0.9472622871
-0.9616830349
-0.9265462756
-0.3511642218
0.0464866310
-0.0807943493
0.3069518805
-0.1432939321
0.4648832083
0.5040628314
0.8264570236
0.7802115679
-0.0032614237
0.4368658066
0.9418582916
1.1419739723
0.8189731836
0.1074540541
-0.3215557039
0.5566063523
0.4102627933
0.3217002451
-0.4407163262
-0.4749801457
-0.2446169257
-0.3686194718
-0.6920305490
-1.0073611736
-0.7784507275
-0.5840609074
-0.6149869561
-0.6653017402
-0.5842574239
-0.8550211191
0.0121938344
0.2548322380
0.1189014763
-0.2021539062
-0.3799625039
0.8316842914
0.8306766748
0.6789197922
0.5623638630
-0.0662252232
0.8395295143
0.9699113369
0.5212704539
0.4861145914
-0.2638472617
-0.0261805113
0.2609487772
0.3093954027
0.2690325379
-0.3699175715
0.0661894158
0.8969405293
0.8764209151
0.3403234184
-0.2476706356
0.4841526449
1.2105134726
0.6393948197
0.5502976775
-0.5183659792
0.3284260631
0.7154413462
0.5435679555
0.2901846766
-0.3010301292
0.4871310294
0.4433076680
-0.0010447300
-0.2288835198
-0.8826712370
-0.5159823298
-0.8374869227
-0.7652203441
-0.8936244845
