-0.1237458587
-0.1612518877
0.1038910896
-0.2296080589
-0.0618990958
-0.1319402456
-0.2331923842
0.1378972083
-0.1924850941
0.1893598437
-0.0789055824
-0.1267731488
-0.1517395675
0.1436989009
-0.2132036686
0.0652688667
-0.0341393650
0.0463622846
-0.0734583810
-0.2777447402
-0.1024175361
0.2838823199
0.0615106933
-0.0702628791
-0.2832657397
-0.0511310697
0.1489668936
-0.0255895555
-0.0759585276
-0.2062333822
-0.0518072993
-0.0908402130
0.1615645587
-0.1614184380
-0.2377962321
0.0195802599
0.1589220911
-0.0204667840
0.0384502001
-0.0350220501
0.0428646132
-0.1585794985
-0.1200948581
0.2951143980
-0.0475807078
0.1227514446
0.0063025984
0.0671949089
0.0181827787
-0.0334256627
-0.0312551036
-0.3856633604
-0.2094074190
0.1054245010
0.0600349084
0.2379044294
0.1742199510
-0.1824894547
0.1266027838
-0.1235618666
-0.2615070343
0.0899032056
0.0447407849
-0.1102126390
0.0364746936
-0.2472123802
0.2766844034
-0.0397309735
0.0686119422
-0.5175399780
-0.2320547849
0.0077793193
-0.0913248658
0.0337727144
0.1026306227
0.1156386584
0.2712767422
-0.0240914710
0.0688530579
0.0142142884
0.3599761426
0.0342800505
0.0679823682
0.0451828279
0.0347151197
0.0421444625
0.1903478801
-0.1570734531
-0.2465941310
-0.0190181229
-0.1403478831
0.3877522051
-0.0231976714
-0.1002916694
0.1434852779
-0.2139479369
0.0087191351
0.2957061231
0.1661866903
0.1441703290
-0.1318525523
-0.0826717690
0.1808191389
-0.0914618000
-0.1267043948
0.0097940098
-0.0633945167
-0.1013717651
0.0736477375
-0.0310291518
0.0037633064
-0.0297722369
-0.2698658109
-0.1075791270
0.1793196350
0.0120568443
-0.0953838080
0.1152034998
0.0123525802
-0.2439198345
-0.1957961470
-0.2957628071
0.0281922501
-0.1639839560
-0.2023235410
0.0302718636
-0.2013070136
0.1937226355
-0.0794248581
-0.0323138796
0.0544724129
-0.0030579763
-0.3251824379
-0.3121426702
0.1178709716
0.0432918891
-0.0533947609
0.0503070503
0.0229656659
0.0149439145
-0.1103675440
-0.4424902201
-0.0866063237
0.3469527662
0.0066364571
0.0357307009
0.2202932835
-0.1538064182
0.2941484153
0.1304644048
-0.3010058999
-0.0248177461
0.2380717844
-0.0022563017
0.1631783396
0.0498104692
0.2441881895
0.1987974644
-0.1788607836
0.1701632887
-0.0920206085
-0.0724724531
0.1267023087
0.1430362612
0.2234339565
-0.2208650112
-0.0665692315
0.0027391340
-0.1213440225
0.1295564473
-0.1870653629
0.3167629838
0.0328273475
-0.0172281004
0.2674138248
0.4054515958
-0.2106029391
0.2120696753
-0.2106451541
-0.0873723179
0.1575639099
-0.2756085098
-0.1222899258
-0.6559704542
-0.0157925282
-0.1533177793
-0.4649991095
-0.2372044474
-0.1266280413
-0.3308634758
-0.1435803026
-0.1659727693
-0.1374447197
-0.0034860552
-0.1513289362
-0.1568517834
0.0156664588
0.1887425333
-0.0763684213
-0.1144479662
0.1736865938
-0.1189630851
0.0073335934
-0.4580844939
-0.1649890244
0.0721304417
0.1630690694
-0.0205782335
0.1841103733
-0.0720892623
-0.0823575109
0.0592746027
-0.3675716817
0.0406791233
0.0375782624
0.0428293757
-0.3276188970
0.2509816885
-0.2063749135
0.0009761990
-0.0831819475
0.0776811242
-0.3833458722
-0.0159853175
0.0474421531
0.2205320746
0.0248524584
-0.0399098247
-0.6184151769
-0.1053671464
0.1243899688
0.2218486816
-0.1014283672
0.1632459015
0.0208100043
0.0035905507
-0.1380413175
-0.0632373244
-0.1394415796
0.1960214376
0.1233733147
-0.2878189981
-0.0798191801
-0.3491898179
0.2502305806
-0.1964863688
0.1692540050
-0.1675070077
-0.0994807035
-0.0210491884
-0.0499061793
-0.1645695418
0.1033788100
-0.2495519221
0.0112641547
0.0820858777
0.0402233303
-0.0972279832
0.0546189100
0.2809942663
0.4914123416
-0.1522049159
-0.0006919603
0.5296894908
0.0379447192
-0.0481938832
-0.2735279500
-0.3480373025
-0.0289338175
-0.0551146530
-0.1617744416
0.1035953164
-0.0857850611
-0.0366687998
-0.0356078856
-0.1063490510
0.1992369741
0.1151689664
0.0513914227
-0.2143542320
0.0826217160
0.1182075590
-0.1229428947
-0.1585586816
-0.3391073942
-0.0588383637
-0.0602028742
0.1870836616
-0.0365240723
-0.2242904156
0.2198148668
0.2001116127
0.0661236048
-0.0451912396
-0.0001536305
0.2310860902
0.2334999740
0.2217588127
-0.0190167669
0.0553809367
-0.2870257497
-0.3126977384
0.0123217925
0.1642701179
-0.0558561049
0.3760138452
0.0101361154
-0.0653201491
0.1119479388
0.2971509397
-0.3697888553
-0.3783820271
0.0637054294
-0.1095486507
0.3364218771
0.1622830331
0.0638709292
-0.1648613811
0.3143414557
0.1305440515
0.1640700698
-0.0327123143
0.0150585761
0.1757689118
-0.0773030594
0.1908213496
-0.1181343645
-0.0724608451
-0.0002307410
-0.0138280084
0.1142235696
0.0183197930
0.1008621305
0.4359968305
0.0133277830
0.0137083437
-0.1199908108
0.0038406823
-0.0625603423
0.0083169444
-0.1654346585
0.1918151230
-0.1034817323
0.0744536370
-0.5091450214
-0.2348809987
-0.1699112952
-0.5223821998
0.0430662185
-0.2644339204
0.1424512863
-0.0177014899
0.0232835393
0.2599252164
0.2007965297
-0.1213986129
-0.1449160278
-0.0275789946
0.0487739407
0.4990196824
0.1048968136
-0.1808164418
0.1468118429
0.1495845765
-0.0621103086
-0.0817343146
0.0114652161
-0.2123693973
-0.0772298500
0.0320791230
0.0805752277
0.1071084663
0.1933625191
-0.5839839578
-0.2391881198
-0.0231293701
-0.1702205539
0.3161250055
0.2361462712
0.0527670458
0.0639030188
-0.0700047538
0.1609078348
0.1848372221
0.1114131138
0.0556011871
0.0454628952
-0.1667321175
0.1565642655
0.1392894536
0.1880019605
-0.1479390711
-0.0870710760
-0.0918728635
0.1190869138
-0.1179096177
-0.4191120267
0.1580964327
-0.0004415190
0.0832166597
-0.0108518908
0.1171800345
-0.0931708366
-0.0258743204
0.2529184818
-0.0552600808
-0.2198781520
0.1958460808
-0.1641552746
-0.0150727453
-0.1760447621
0.1707978696
0.2660614252
0.1328146160
0.2213000804
0.1449526101
0.0302497447
0.2884016633
-0.0539382100
0.1799039245
-0.0545713454
0.0192191955
-0.0925646722
-0.1405223459
-0.2178283334
0.1622197777
-0.1766192168
-0.1051998958
-0.1453614235
0.1115804464
0.0840492100
-0.0288574900
-0.0805621967
-0.2361145914
-0.2133016139
0.0254822187
-0.1628580391
-0.1994626522
0.1648890525
0.2137426883
-0.1695067436
-0.2895298004
0.0787849277
-0.2842389941
0.0900516063
-0.1439698786
-0.1708297282
0.0679558367
0.0270892903
-0.0169244763
0.0023069493
-0.0967885107
-0.2973539829
0.0833364129
0.0056966813
-0.1632500738
0.1095646769
-0.1067151204
-0.2465583384
-0.0174744539
-0.2396361828
0.1483798474
0.0370216072
-0.1517010033
-0.0073632738
-0.0333647393
-0.3235778511
-0.1249447763
-0.3541583121
-0.1494791806
-0.1522314399
-0.0588768385
0.0757970884
0.1120021045
-0.1565973759
0.1128689796
0.1053337380
0.4624819458
0.1228602380
0.3814323843
-0.2142152786
-0.2502023578
-0.1953462809
-0.0681758001
0.0042416546
0.0830255970
0.0348915420
0.0272087287
-0.2098492831
0.1101787314
-0.1040018946
-0.0941508114
-0.0472982638
0.1563340425
-0.1834689826
-0.0468646698
0.2679190636
0.1304562092
-0.2938480973
-0.2549336553
0.0804948211
0.1500962079
-0.2404529750
0.2327636331
-0.0485585444
0.0856876001
0.0609679297
-0.1097664982
0.0155403968
-0.2172985822
-0.0183192287
0.0035958032
-0.0186065398
-0.0442097299
0.0738416091
0.0136500020
0.0751260668
0.1053538248
-0.0900450423
-0.2341630906
0.2148893923
0.1052194312
-0.2149682343
-0.0063791750
0.1365325898
-0.1677484214
0.0511248186
0.2765073180
-0.1839586198
0.0387803391
0.0196260195
-0.1585858762
-0.1037464142
0.0234470069
-0.1193127707
0.1188620850
0.2753016949
0.3680259287
-0.0574642494
-0.1636540741
0.0284807514
-0.0551051944
-0.2232896984
-0.0608738549
-0.2791246772
-0.1063869670
0.0427386165
0.0405048355
-0.0170864314
-0.3364106119
-0.2384013087
-0.1519978344
-0.0627627820
0.0520353988
0.2311865538
-0.0015651251
0.0443646610
-0.1685212404
-0.0423737876
0.1431413442
0.2524288893
0.0857877508
0.0814591125
-0.0499495119
0.1024006456
-0.2234161645
0.0248914286
-0.2771530151
-0.0749747008
-0.3080826998
0.0447063781
0.2580057383
-0.2072813958
0.2225635946
0.0549950935
-0.1546767056
-0.0795861706
0.1302240044
0.1432143450
0.1210328788
-0.0617815219
0.0591515675
0.1179839969
-0.2107706517
-0.1021216661
-0.1481901258
-0.1376389414
-0.0386375599
0.1894285232
-0.2686069012
-0.1180815697
-0.1556709260
-0.2272899151
-0.2600690424
0.0192929395
0.0435809046
0.0718391836
-0.0513560101
-0.0025660386
-0.0331652202
-0.0198728479
-0.0776615664
-0.1214953810
-0.1433204859
0.3760660291
0.0303081870
0.0600942671
0.2099327147
0.0123345023
-0.1299400032
-0.3189626336
0.3744898438
-0.1040411741
-0.4264793098
0.0432424881
0.1778802425
0.2114632279
0.0282829721
0.1167317405
0.4014258683
-0.0598008931
0.2456495315
0.2007461339
0.1066178307
-0.2180940211
0.0835093856
-0.2478804737
-0.1394206285
-0.2610740662
-0.0578415468
-0.2937558591
0.2035786062
-0.0357104614
0.2167664617
-0.0529200956
-0.1204411760
-0.0590609424
0.1557185799
0.3742173910
-0.3291555345
0.0180564746
0.2388793081
0.1761410683
0.0022852679
0.1901114583
0.0735919699
-0.3293311894
0.1496142000
-0.2343352139
0.0643315837
-0.1748729944
-0.2731818855
-0.0769914836
0.0680910870
0.1553295702
0.0432032980
-0.1580404937
0.0998218805
0.0304017272
0.0689860582
0.1925054789
0.0090583162
0.2817097902
0.2292982787
-0.3468518257
-0.2781945765
0.2062926888
-0.2126452774
0.3836127818
-0.0536347218
-0.1669348627
-0.0191472843
0.1904777735
-0.1461395472
0.3054054677
0.0696924031
-0.1834598035
-0.1625797749
-0.3529538512
-0.1563531756
0.3288571835
-0.1128559187
0.0410336629
0.1994977742
0.0891914293
0.1008758917
-0.1332145035
-0.2587468326
-0.1010896266
-0.0835972801
0.2077073902
-0.0487428866
0.1222699508
0.0755871460
-0.3896263540
0.0796666145
-0.3656768501
-0.0329241678
0.0811588615
0.1833155453
-0.2460980266
-0.1934185475
0.1775887609
0.0610498078
-0.0054693054
-0.2381501943
-0.0674217567
-0.3687847853
-0.0073554767
-0.1751089543
-0.0667809099
-0.1028382406
0.0841288790
0.0560266115
-0.0750084892
-0.1068176851
-0.1162486672
-0.1511038244
-0.0885635838
-0.0554868653
-0.2347560227
0.0255138986
-0.1200494766
0.1268038750
0.0119293835
-0.1362974346
-0.0777661055
-0.1374787390
-0.0884681195
0.0225853920
0.0098812431
-0.1643052399
0.0923797935
0.3612345457
0.0161778107
-0.0750711262
0.3108648658
-0.0742430463
-0.1862441748
-0.1437740922
0.2255691737
0.1256617010
-0.2324267626
-0.1384482980
-0.0369851105
0.0474588163
-0.1444724947
0.1128018349
0.0976180658
-0.4104428589
0.0290799551
0.0060807131
-0.1324740797
-0.3778848648
-0.0247005615
-0.3007490039
0.3483934999
0.1452514529
0.0477817059
-0.1350346506
0.1933116317
0.0044373716
-0.0410125181
-0.3730788529
-0.3534898460
-0.1673196107
-0.0803966150
-0.1195282787
-0.1556806266
-0.1604090780
-0.0364522897
-0.3096271455
0.0492907204
0.2483033985
-0.3378588557
-0.1226315647
0.1506308168
0.0703365579
0.0369700491
-0.1917443573
0.0885498226
0.0635699555
-0.1452465057
0.1332775205
0.1385376006
-0.0465402752
0.0072717620
-0.0156784207
-0.1157234311
0.2952427268
-0.1334265023
-0.2385500968
-0.1447848827
-0.1405458003
0.1982211620
0.1170618683
-0.1343232393
0.1121724695
0.0882541686
0.0922720507
0.1104158014
-0.1401502937
0.0540449470
-0.0918891132
-0.1129157096
-0.2933807075
0.0846817940
0.1529861391
-0.0521603525
-0.2514171898
0.0040529403
0.3038462698
-0.1088909507
-0.0201590564
-0.1048811451
0.1772045195
0.2142030448
0.0058151162
0.2016445100
0.1380470097
0.0939126983
0.0638965890
-0.2406168282
0.1382958293
0.0904982314
-0.1082490310
-0.2050487846
0.0087964470
-0.0088186199
0.2368468344
-0.1240268946
0.1864486635
-0.0275031850
-0.2319704294
0.0660206228
-0.0791555792
-0.0483238809
0.0980453268
-0.1446847320
0.1284963638
0.1862738132
-0.4094756842
-0.1697745919
-0.2065595835
-0.1800168604
-0.1060766727
0.0727043599
-0.0258362517
-0.1978061050
-0.3428334594
0.0077666747
-0.2721106112
-0.1553959697
0.3030414581
-0.1047281027
0.0529835895
0.0723704621
-0.0666701272
0.0276237223
0.0346354358
0.3785106838
0.2565796673
-0.0471809208
0.0644335896
-0.1353142411
0.2599033415
-0.0412065722
-0.0954074860
0.0553637184
-0.3332976103
0.3572561443
0.1083014384
-0.0692785233
-0.0364835411
-0.2150788903
-0.0101886308
0.4755672812
0.1304134578
0.1546743065
-0.1530730277
0.0419199206
0.0057841688
-0.1569701880
-0.5288126469
-0.2407365441
-0.0885445029
0.0539253466
0.0838227496
0.0730105713
-0.4603364170
0.1347548068
-0.3871562183
0.1200254783
-0.0234982762
0.0323029794
-0.1638000757
0.3333052099
-0.0707814619
-0.2221786231
-0.0701555014
-0.0984151810
-0.1105124354
0.0398300029
0.0544761904
0.1046536416
0.0038914757
0.1143463403
0.1303101480
0.2463374585
0.2036449313
0.0545012653
-0.2415122092
-0.0486749299
0.0144027090
-0.0381371379
0.1699928492
-0.0119600501
0.1221844107
0.2197476327
0.3687902093
0.0450026914
0.0784977227
-0.0520017780
-0.1044034511
-0.0484041274
0.0395211913
0.2445430160
0.0401452407
-0.0832668468
-0.0920917839
0.1560489088
0.2884607911
0.1454416364
0.0658106804
-0.0052142646
0.1916627586
0.0834007412
0.1895028502
0.1750147194
0.2629415989
0.0400352515
-0.0128507819
-0.1445910335
0.4034106135
-0.3331511617
0.3198015094
0.0007247288
0.1192336455
0.1886202693
-0.1097788289
0.1239516065
-0.1019484326
0.0464884974
-0.0773870572
0.2911174893
-0.0973348841
-0.2840930223
0.3392592669
0.1614159644
-0.0606168620
0.0567809939
-0.1936643422
0.1998904496
-0.2347356826
0.1755581498
-0.1051744446
0.2807438374
0.2338110805
0.0420153812
-0.0431492999
0.1644587964
0.1494556516
-0.0673382878
-0.3040443957
0.1434275359
0.1530397534
-0.2452301085
-0.1390179247
0.2496016026
0.2161367685
0.0697093457
-0.0511945672
0.2755553126
-0.0136094932
-0.0792365521
0.3000337481
-0.0462637395
-0.1210336611
-0.0704213008
0.5308113694
-0.1991302222
0.2998541594
0.1458258331
0.3503628969
-0.0094132284
0.1360366344
0.1329019815
-0.2160388380
0.0486731566
-0.0059869243
-0.0657002777
0.2251609713
0.0610975102
0.2260530740
-0.1146232411
0.1917510331
0.2724024355
-0.2005368769
0.1229516268
0.1653031707
0.0460535623
0.1846571863
0.3398909867
-0.3467249274
0.1192175448
-0.1349830180
-0.3796131611
-0.3766082823
0.1370403916
0.2619077563
-0.1337763518
-0.0387335457
0.4334462285
0.0818242356
0.0761789754
0.1649960726
0.3030780554
-0.1197523773
0.3818346262
-0.0117214834
-0.0415460803
0.1923587769
-0.0060017924
0.3594561219
-0.1328308284
-0.0299665648
-0.0830562338
-0.2075724006
-0.0666288435
-0.1862143278
-0.0366564170
0.2293624729
-0.3083285391
0.3062940836
-0.0770527720
0.5550876260
0.2311750799
-0.0222922005
-0.3011734486
0.3665101528
0.0561295636
-0.1477266252
0.3032808006
-0.1440754682
0.2132533193
-0.1098772064
-0.0406231359
0.0272356309
-0.0004840301
-0.1201430559
-0.1897691786
-0.1675289720
0.1846332699
0.0786983222
-0.5427017808
0.1523940414
-0.0859577507
-0.0314251445
-0.1423149407
-0.1005116105
0.1333284527
0.1357717514
0.0450433791
0.1320450008
0.2187493443
0.0559592769
0.1540619135
-0.3917802870
0.0590116978
-0.2297676355
0.1428619325
0.1552160680
0.0706811175
0.0194409285
-0.0537650324
0.0276369005
-0.1625074744
-0.0208532400
0.0390144922
0.0802011043
-0.1631218940
0.0226520021
0.1192674190
0.1739086807
0.1594920754
0.0212236010
0.1975626200
-0.0206172783
0.3078641891
-0.2093414068
-0.3694284260
0.1889903545
0.2239117920
-0.6208225489
0.0610886700
-0.1282844841
-0.0472848527
0.1410339475
-0.0957041979
-0.1269576848
0.1643136591
-0.1432328969
-0.2713079154
-0.0916390270
0.2358976901
-0.2271552384
-0.0873651803
0.0507409796
0.2512294352
0.1546925902
-0.0790586621
0.1066045985
0.2844674587
0.0314570144
0.2465674430
0.1497817636
-0.2463617325
-0.1374991387
0.1522882879
-0.1501591057
-0.0836924762
-0.3417225778
0.0957151055
-0.0284363162
-0.1306747198
-0.4254001081
0.0037919229
-0.1327333301
-0.0300246160
-0.0056553581
0.0705983564
0.0815772414
0.0976766050
0.2130053192
-0.0213714987
-0.2293908596
0.0271129031
0.0037693081
-0.1430707276
-0.1417950392
0.2825901806
0.2681694329
-0.0411776006
-0.1710284352
-0.0361231863
0.1832410097
-0.1506439000
-0.1304604411
-0.2074439526
-0.1550540626
-0.0784151480
-0.3265247941
0.1485449821
0.1450084150
0.2660929859
-0.2327254415
-0.0642780438
0.1150962263
-0.1217478290
-0.2352842987
-0.0109391203
0.1528998911
-0.2141869217
-0.2809225321
-0.1978690475
0.0425585881
-0.1501724720
-0.3420675397
0.0467036068
0.0799689814
0.0314435363
0.1521076113
0.2526303232
-0.0888025612
0.3040081859
-0.0043961196
-0.1418790370
0.5256326795
0.2485663891
0.4931772947
-0.0054364176
-0.0156851113
0.0811442882
-0.1581506878
-0.3463033438
0.0308438968
0.0276786759
0.2159968466
-0.0826470926
-0.2871176004
-0.2621615529
0.2392426580
0.2116129100
-0.0546001382
-0.1585514694
-0.1180982143
-0.4210349023
0.2507822216
-0.0384083204
0.1244773939
-0.0320665091
-0.0898178667
-0.1551281214
-0.4137910306
-0.0389363356
-0.0851858109
-0.1947938651
0.1504321843
-0.2612352669
0.0271998737
-0.2334289402
0.1306613684
-0.0564659499
0.1882219613
0.1297826916
-0.3123044074
0.0387973003
-0.0435133241
0.2683759034
0.1971610785
0.0463662520
-0.1890492439
0.1886971891
0.0065133013
0.2120582163
0.1505313963
-0.2286040038
-0.0390772671
-0.1536705941
0.2051610351
-0.2275292128
0.0983892977
0.2510690689
0.5051816106
0.1495803446
0.0505951419
-0.2099342644
0.0652720258
0.1600406319
0.1655917466
0.1781840324
0.3165081143
-0.0670637712
0.0714122579
-0.0848482624
0.4036180079
-0.1651286185
0.1809700727
0.1148978844
0.0962260589
0.1383609623
0.0914039835
0.1129925251
-0.0947959423
0.0485734232
0.2544833720
-0.1808600873
0.0533459447
-0.2500687838
-0.1502484530
-0.2047998905
0.0917010382
-0.1880671382
0.1662384868
-0.1148399338
-0.0317975581
0.0679205060
-0.2775968015
0.0852732286
-0.4912693501
-0.1090797558
0.0912589133
0.2371487767
-0.0275347698
-0.0241627600
0.0150319664
-0.1316743046
-0.0187875684
-0.1194896027
-0.0039702877
-0.2455104440
0.0066032005
-0.1282368153
-0.2225803286
0.2075483352
0.0072778785
-0.1740229428
0.1096659079
-0.2612868845
-0.1592487544
0.2247287184
0.0933562368
0.2812679410
0.0216570813
0.0771156028
-0.0904335752
-0.1050150469
-0.1583746672
-0.0453512222
0.1156801060
-0.0696402416
0.2304604203
0.1026300713
0.0179863479
-0.1924721897
0.1137126461
0.2309606075
-0.1026766822
0.2047219574
0.1253146678
-0.1693304330
0.0020876206
0.0089138802
0.0898167863
0.1724094898
0.2039074451
0.1780839264
0.0009072406
-0.1050838530
0.1094443277
-0.1108646169
-0.1109463647
-0.1584719867
0.0286323894
-0.0909232348
0.1651439220
0.1486007422
0.0668501779
-0.1803499162
-0.2376121730
-0.1887153536
0.1849021912
-0.2423094809
0.0019156717
-0.2336227894
-0.0312966295
0.0440546833
0.2147803009
-0.0647238269
-0.0583394468
-0.1148822829
0.0115274340
0.1353946328
0.2398528010
0.2034725845
0.0883532315
0.0845719725
0.1533498913
0.1457628310
-0.4446180463
0.1390720457
-0.2077551931
-0.1763500422
-0.0345480070
-0.0049417098
-0.0348287970
0.2502186596
0.0953000113
-0.0524779931
0.0782526508
0.0176848453
0.0957472771
-0.2764987648
-0.1302576512
0.1109402105
0.0257985573
-0.1045422107
0.0231300257
-0.1826247573
-0.1833682656
0.0966535956
-0.0030565895
-0.0828314498
-0.0701764598
-0.0194704141
-0.1870312840
0.2331952155
0.0095165316
0.3734678924
-0.0758173019
-0.0926280618
-0.0816169679
-0.1192755252
0.3128446043
-0.0231480598
-0.0544347651
0.2467412800
0.1806041300
-0.2236022651
-0.3125847876
0.0874400660
0.1017973870
-0.1413240284
-0.0491666421
-0.1055036038
0.0718059018
0.0422179997
-0.2742314339
-0.4153210521
-0.0039979964
0.2573504150
0.1717752367
-0.0864955038
-0.0156265441
-0.1913128048
0.0859168395
-0.2376420051
0.0156400613
0.1827819347
0.3109310567
-0.0700298250
0.0515421554
-0.0179766193
-0.0509861074
-0.0636089668
-0.0667022392
0.2040317655
-0.0896495581
-0.0049027107
0.1519716680
-0.0156578496
-0.0293565355
-0.3025746644
-0.1888958365
-0.1551171541
0.0907365084
0.0240815002
-0.2499209195
-0.1690667272
-0.3726482391
0.2676829398
-0.0310206525
-0.1020826027
0.2146284133
0.2206291109
0.0984413922
0.5320193172
-0.2957111299
0.1613788009
-0.1639638841
-0.2106783390
-0.1417701691
0.1540713906
0.2399115115
0.0562716015
0.1762656718
0.0580162071
-0.1026911959
0.0273630433
0.1494876295
0.1759725362
-0.1346736699
-0.0750161335
0.1355200559
0.3061698973
0.1006033868
-0.1637767553
0.2420295924
0.0222268477
0.0565599166
-0.1514650732
0.2394003123
-0.0103362240
0.0773742199
-0.1291332096
0.0321976654
-0.0917785764
-0.1300722063
0.2090675384
-0.2751399279
-0.0547996052
0.1010672674
-0.0343969539
-0.4103134871
-0.0862432867
0.0505596474
0.1114834473
-0.1076664552
-0.1662245244
-0.2231004387
-0.1810918301
0.2522737980
-0.1889739484
-0.0143842790
0.2418905944
-0.1694466472
-0.0016465337
-0.0701335669
-0.0419841222
0.0375713557
0.0912832618
-0.0327739790
-0.0138686681
-0.2162330151
0.1197716147
-0.0104705598
-0.0230188351
0.4277330637
-0.0625613630
0.3864424229
0.0562765300
-0.0167763624
-0.0638966113
-0.2359846234
0.0275578760
-0.0587727875
-0.0452298410
0.4048069119
0.0041608452
0.2534765899
-0.3429035544
0.1129760146
-0.2223002315
0.3261330724
0.1501425356
0.1019638851
0.2746900618
-0.2083713412
0.2087964863
-0.0167193674
0.0746082664
0.0526172891
0.2257283032
0.0006926369
-0.2685773969
0.1683729738
0.0948956534
0.0023772628
0.2286402732
0.1952854991
-0.1491014808
0.1255789995
-0.5310302377
-0.2101197541
-0.1037966684
0.0952528715
-0.0217261724
0.1689387113
0.0892417282
-0.0281532519
-0.0951750353
-0.3121721148
-0.1856307685
0.1876757741
0.0197829530
0.0233562104
0.0988745540
0.1644093990
-0.1485889554
0.0332273282
-0.1160661429
-0.0958248302
0.0016386376
0.0934553519
-0.1758476198
0.0828992352
0.2553213239
-0.5179494619
0.1218139157
-0.0474139489
-0.0888599157
-0.0238388944
0.3130367696
0.2477544546
0.1215509698
-0.0325360745
-0.2573244274
0.0032408293
-0.1270029843
-0.0796700567
-0.1812032908
0.2309562117
-0.0017965445
-0.0804173350
0.1365310252
-0.0976266786
-0.2668913305
0.0762330517
-0.2243716270
-0.0730230659
0.1206367761
0.0072650528
-0.4110629857
0.0651253462
0.1203042269
-0.1556914598
-0.0387218148
0.1121828780
0.1633423716
0.1528093666
0.0331205726
-0.1169069782
-0.1070566997
-0.4051504433
-0.1309820712
0.0691696033
-0.2147764713
-0.0903686360
-0.1378836185
-0.2739269435
-0.3312036097
-0.2199416459
-0.0300619509
0.0370747633
-0.1148573682
-0.6619546413
0.1704215109
0.1540787816
-0.1632245183
0.0293230265
0.0670275241
0.1521964371
0.0229757577
-0.0250506420
-0.1104075015
-0.4914656281
0.0376384333
0.3116049170
0.1243055686
0.0969482884
-0.0634958073
-0.0360617638
0.1010709330
-0.2301592827
0.2102240324
-0.0784905478
-0.3166643679
0.0690681189
0.0040935194
0.1551383734
0.1664267927
-0.3567496240
0.1768710762
-0.0629175305
0.1100386754
-0.1738939136
0.0721292198
-0.1057541296
0.1411540061
-0.2245427072
0.0443215221
0.3090048730
-0.1472254246
-0.1099697351
-0.0557772703
0.2775817811
-0.0993843973
0.0539892130
0.2404903769
0.2834966481
-0.2739879191
0.1869577914
-0.1474167109
-0.4366294444
0.0217972696
0.2677085698
-0.0242394637
0.2139626294
0.1467196047
0.3396302164
0.0234775394
-0.2554901540
0.0700560212
-0.2427255064
0.0298266802
0.1919230521
0.1699334532
0.3245606124
0.1183479428
-0.2403616309
0.0957015455
0.1892852932
-0.0164528284
-0.0953695253
0.2782035172
0.0968808755
-0.1709303707
0.3324066997
0.1462930888
-0.1806437075
-0.1979896128
-0.1363518238
-0.1521497071
0.0843835324
-0.0626156777
0.1232352480
0.2368388474
-0.0028424002
0.2495920211
-0.0234183632
0.1905426234
-0.1591391712
0.0797744840
-0.0968522131
-0.1894181669
0.0718987286
0.0386310890
0.1106588244
0.1745889634
0.0023403687
0.0665149167
-0.1836815476
-0.0863929838
-0.1966023296
-0.2224041075
0.0580173880
0.0191096310
-0.0938894823
0.0689944923
0.0090431059
0.2147431225
0.0586993955
0.1148958281
0.2372996807
0.1518715769
-0.2300077528
-0.1944710612
-0.0615190268
-0.0341856033
0.1195786744
0.0927379951
-0.0465318374
-0.2767794132
0.3242353201
0.0563083775
0.1771897376
-0.0482565053
-0.0659590662
0.3102740347
-0.0131029254
-0.0248506945
-0.0524054952
-0.1437189728
0.2922374010
0.1525786817
0.3213596642
-0.0363331698
0.1215881184
-0.1866577864
0.1129062921
0.2553817034
-0.0294203218
-0.1151272804
-0.3172968328
-0.0564538501
-0.0172328260
-0.0077481293
0.0748561993
0.0482910983
0.1283987612
-0.0733295605
0.0912699327
-0.2027932853
0.1854941994
-0.0500498489
0.0469328240
-0.0820552111
0.2686894536
0.2087181360
-0.2440946102
-0.1197412089
-0.1229694858
0.0953325033
0.1547861844
-0.0874349847
-0.0302798431
0.1943922341
-0.2423747778
-0.2593753934
0.0600879490
0.2734039128
0.0085119028
-0.0557455644
0.0922013745
-0.0318830237
-0.3299864531
-0.1162367314
-0.0170046054
0.1153358519
-0.0734509602
0.1624172926
-0.1365800798
0.2500810921
0.0600826591
0.0248747822
-0.2324865013
-0.1858379096
0.0377231054
-0.2916620374
0.0668612868
0.1087606698
0.2774835825
0.1574551165
0.0382863469
0.0106697585
0.0912230909
0.0577011332
-0.2953897715
0.0209187847
-0.0237618200
-0.1032956466
-0.2249155045
0.1187858507
0.4112508893
0.1125463024
-0.1997676194
-0.2361687720
-0.2279578000
-0.2243651748
-0.0024910718
0.0107758604
0.1160719395
-0.0697500706
-0.3284353316
0.3229542077
-0.0395543426
-0.0603472255
0.3614539802
0.1374700069
-0.2191452235
-0.0512235574
-0.2408574820
-0.1783331931
-0.1495752633
-0.0086341146
0.1478184611
-0.2693869770
-0.1226322874
-0.1564199328
0.1610113233
-0.1290272176
-0.0414409898
0.0420586057
-0.1720589697
-0.1635593772
-0.0711464137
-0.0354954153
-0.4115827978
-0.0019615337
-0.0278272200
0.0232616849
0.2968528271
-0.2222401500
-0.1190448031
-0.2349855304
-0.3329789937
-0.0265722591
0.0144819515
-0.2148745954
-0.0383279286
-0.1152631566
-0.0186924189
-0.1094134375
0.0229229834
0.3652239740
-0.0382477343
-0.1504579633
0.1770562381
-0.2608357072
0.2866395712
0.0778502673
0.1486117244
0.0086279437
0.0049321800
0.1137266681
-0.2436226606
-0.0179372765
0.1720638424
0.0924460217
-0.1658499539
-0.4650708735
0.1235981733
-0.1827809364
-0.0261855647
0.0553875938
-0.0927471370
-0.0863399506
0.2647261322
0.4466149211
0.1241446286
-0.0052928873
0.1862311214
0.0017638055
-0.0964678451
0.0012366869
0.2964993715
0.0635323897
-0.0881260037
-0.1596834362
-0.1352443993
0.1059319153
-0.0062959651
-0.4125037789
0.0103026032
0.2604826391
0.0410613306
-0.1175221950
0.2138270587
0.0274534896
0.1648880839
-0.0047648260
-0.0255538318
0.0549191125
0.0456858464
-0.0537141226
0.1822045892
0.3245259523
-0.1067794561
0.0248188321
-0.0658553317
0.0309649166
-0.0608035512
-0.4130270779
0.1972483546
-0.0649898425
0.0707927942
0.2100133449
0.1398315579
0.0492015369
-0.3541386724
0.5081712008
-0.2075794935
0.1240036860
0.2654769719
-0.0719349235
0.0183080826
0.2619447708
-0.2959520817
-0.3330648839
0.2344234139
-0.0202214271
-0.4753388762
-0.2331420481
-0.1947637200
0.0772489235
0.1922897547
0.3085615337
-0.1457269937
0.0258172061
0.5168018341
0.0227954946
0.0937768817
0.0938676745
-0.1492754817
-0.2823862433
0.2001562566
0.4390478134
-0.1086800173
-0.0777395219
-0.0823735744
-0.0036883145
-0.0275935866
-0.0613822527
-0.0414648280
-0.1880281568
-0.1101785973
0.2934682071
-0.3612169027
-0.1919387430
0.3414933980
-0.0169716887
-0.1541074812
0.0486187823
0.1020298749
-0.1296573430
0.1739053875
-0.3034159839
0.0685281977
-0.0117578348
0.0867375880
0.0216533523
-0.0378450081
-0.1155783758
-0.3669999838
-0.0796165019
0.0455641933
0.0210955609
-0.2486383617
-0.1667979807
-0.1474111378
-0.0844926760
-0.0406145900
-0.0820399597
0.3894357085
-0.3521258831
-0.0168411396
-0.1179615110
0.3939042389
-0.0690386593
0.2907497287
-0.0375659987
0.2597424984
-0.2125682980
-0.1036318615
-0.2016491890
0.0590237454
0.1323065311
0.0007336292
-0.1420449615
0.2072226554
0.1291403919
-0.0643379018
0.0730743408
0.0458441116
-0.0262634084
-0.0452386774
0.2115768194
0.0787985474
0.1569150239
-0.1384866089
0.1298749745
0.2970164120
-0.3872053325
0.5496151447
0.0925395042
0.1785110682
-0.1338879168
0.1795038432
-0.2227263451
0.0286147743
0.0895851851
0.3754239082
-0.2584802508
0.0790876672
0.0910141841
0.1672174484
-0.3335259259
-0.3665300310
-0.1307143867
-0.1070388407
-0.1371457577
0.0141815785
0.3779141009
-0.0207585655
-0.1513453275
-0.1100724638
0.1542617381
-0.1888253689
-0.1849414706
0.3026461601
-0.2427895665
-0.0186108779
-0.1552882046
-0.3437475264
-0.1542887688
0.2353606224
-0.3689584136
-0.0685407221
-0.2329437286
-0.1818943918
0.0851522982
-0.0991398171
-0.0301577486
0.1043738276
0.1207131669
0.2282496691
-0.1298133284
-0.2536682487
-0.2095106840
0.1433185041
-0.0927059427
0.1002491638
0.2225569338
-0.0568959936
-0.1334019750
0.2065840065
-0.0065700188
-0.1002583578
0.0526003502
0.1301642060
0.0436861701
-0.1533730924
0.0452488810
0.1727499962
0.1401315629
0.1894374341
0.3663695753
-0.0487797856
0.0457338430
-0.0479565635
-0.0301087070
-0.0947737992
0.1670063734
-0.3095860779
0.3773968220
0.1009265035
-0.1159010082
-0.1102284193
-0.2358205914
0.0519081354
-0.4929930568
0.0604196042
0.1916712523
-0.1044032276
0.0861565098
-0.1018532142
0.0603576079
0.3064728379
0.0541648529
-0.1043589413
-0.1984587312
0.0862845257
0.1430628896
0.4419903159
-0.0012256531
-0.4319355488
0.3378949761
-0.1463058889
0.1699852347
0.0944117159
-0.1633719802
0.1057805717
-0.2781233788
0.1277386695
-0.1840608269
0.3413573802
0.1800546497
-0.2278484702
-0.0872443840
0.2215950042
-0.1074649245
0.0185217503
0.3020459116
-0.3221746981
0.0277265515
-0.1089953631
0.0885421187
0.0307254270
-0.0017979421
0.1033122540
0.0686896667
-0.2832589447
0.0981428325
-0.1096595973
-0.3913371861
-0.0595329329
-0.0636603683
-0.0615976043
-0.0179238319
0.0108928531
0.0760745108
-0.1413442194
-0.2146185189
-0.1781947464
0.4073587656
-0.0941404626
0.3317293227
0.0747328028
0.0511403270
0.0193396844
-0.1539332420
0.2342584282
0.0898404792
0.0320230089
-0.2928346395
-0.0027750148
0.1626281887
0.0925320312
0.0253762715
0.1458691210
0.1477946341
0.1544672847
0.0535339788
-0.0799200982
-0.0931529030
-0.0885093659
-0.0441680141
-0.1004734933
-0.1957097650
-0.2142930180
-0.4861566126
0.1450878829
0.0393111631
-0.1940470487
0.2352588326
0.0191926956
0.0181440786
-0.0747926310
-0.0089935185
0.4332162142
-0.2036844045
0.0478108823
0.2471951544
0.2339157313
0.1381454468
0.2262864560
0.1574419737
0.0905321985
-0.0265194979
-0.0873357505
-0.1915723681
-0.0961973295
0.1813768446
0.2035703510
-0.0069008400
0.1506208181
0.1856079251
-0.2647466362
0.0942352563
0.3045928180
-0.1116938591
0.2576260567
0.3534580171
-0.1790182590
-0.1086871177
-0.1234800741
-0.3999588192
-0.0718785971
-0.0888583660
0.1685895324
0.2711575031
0.4729282558
0.2578903437
-0.1749828309
-0.0096028447
-0.3006649315
0.1492929608
-0.0652787462
0.1081275567
-0.2065836489
-0.0387412496
0.3388534486
-0.0980815738
0.3670172989
-0.2960444093
-0.2995315492
0.1126783714
-0.2994760871
-0.1817095280
-0.2685908675
0.1294161975
0.3367524445
-0.0434869640
-0.0769677684
-0.2352241874
0.4168688953
-0.1424348801
-0.2701293528
-0.4316233993
0.1427365243
-0.0069080968
-0.0649447888
0.2665702105
-0.4490822256
0.3242130876
0.0931643620
-0.1952746511
0.0363199487
0.1674387604
-0.0112051060
0.0779488459
0.0986232534
0.1758521646
0.0026822279
0.1416476965
-0.0756445527
-0.1389644295
0.1718056649
-0.2145655602
0.1842356026
0.0599326268
0.3148090243
-0.2704408467
0.2023177743
-0.1020404100
0.2140363157
0.2219174206
-0.3842051923
-0.1968355030
-0.5344232917
0.0581076965
0.2997045517
-0.0086249691
-0.2124101520
-0.0720785856
-0.1242987812
-0.3511969447
0.1135044843
0.3616122603
0.0037324750
0.1864448041
-0.0223491602
0.1358017176
-0.3054071963
0.0931650475
0.0736960396
-0.1386018991
0.2596269846
0.1686122268
0.1428451687
-0.1592655182
-0.2289694846
0.2799308300
-0.0363743976
-0.2236365229
-0.0996960774
-0.0718519464
-0.1301453710
-0.1019208878
-0.0362679660
0.2256324589
-0.0455706865
0.1284942478
-0.0700735077
-0.0111213028
0.1133145094
-0.1882692575
-0.0111502884
0.1823192090
0.2627731562
-0.1656799465
0.0018793517
0.3673610985
0.1740419418
0.0704778433
-0.0407532118
-0.1348343492
0.2578624189
0.1505603194
0.1962031722
0.0293658562
-0.0255611036
0.2622433603
0.0651774257
-0.0094773248
0.2339639664
-0.1731265932
-0.0152664417
0.1492824703
0.0019233032
-0.1459068954
-0.0287268646
0.0339027010
0.2363843471
-0.2104789168
0.0659629181
-0.1333134621
-0.0711969063
-0.1964263916
-0.0058554509
0.2714794278
0.3536914587
0.1134797409
0.0779168978
-0.2351824194
0.1657009274
-0.1355487555
-0.1931525767
0.1016399264
0.0415398739
0.2562998235
-0.0008862506
-0.1104089096
0.0087446468
0.2691348493
-0.0056997281
-0.1531484574
0.0955283940
0.0370643102
0.2382551134
-0.4838567674
-0.4470409751
-0.2228855491
0.0992882475
0.2507291734
-0.1839922667
-0.0043273726
-0.2464599311
-0.3080952764
-0.1917792112
0.1358261257
-0.0130261499
0.1262983233
-0.1843223870
0.3661209643
0.0426854715
0.0495097972
-0.1369971037
-0.0563889481
0.1055167392
0.0410517678
-0.0408006608
0.3172722459
0.1102839857
-0.2107528001
-0.2528591752
0.1159234494
-0.0677200928
0.2372432798
0.2951445878
-0.3946295083
-0.0172931682
0.0597042255
-0.2306980491
-0.0148098124
0.0862365067
0.2128840089
-0.2006897181
-0.3039966822
0.1413405985
-0.2916806340
-0.2291677147
-0.0545143187
-0.3079872429
-0.1789381504
0.1352445334
-0.3301331699
0.2151399553
-0.3001774848
-0.2682353556
0.2109588683
-0.1077922136
-0.1250419021
0.3520066738
-0.0043752207
-0.0843751431
0.0292178039
-0.2267114669
-0.0987428203
-0.0661525875
-0.1604413539
-0.1368066370
0.1513748467
0.1205066517
0.0569560416
-0.0829163268
-0.0304067191
0.1699837148
-0.0884779990
-0.0183203649
0.0759395584
-0.2683432996
-0.2383523583
0.1798281223
0.1898744851
-0.0559969097
0.3168306351
0.1577306241
-0.0103940628
-0.0739516020
0.1994904578
0.0390473753
-0.0185029171
0.0167370625
-0.0574248433
0.2084773034
0.1952057183
-0.1251496524
-0.0630561858
-0.0584742948
0.0313493088
0.0310481638
-0.1976527423
0.0460234918
0.1029047221
-0.0638836250
-0.1582286507
-0.0379084647
0.2035714686
0.0929703414
-0.4446890652
-0.2822113633
-0.1381838173
0.4029973447
0.0308271367
-0.2618374527
0.4184734225
-0.1790465564
-0.0013446447
0.0108798584
0.0373386294
0.2674749196
-0.0979543701
-0.1085216179
-0.2067973316
0.0648517013
0.1631345302
-0.2634883523
-0.0472857840
-0.1173582450
0.1955775917
0.2444103360
-0.1533365995
-0.1980756968
0.0507356636
-0.3165672719
-0.3005424738
0.0501099415
0.0220440719
0.0979981050
-0.0479844511
-0.0678175613
-0.0125216646
-0.0737659559
-0.0366570279
-0.1839237660
0.0831505656
-0.3051197827
0.0623826571
-0.4303297400
0.1875535548
0.0018918691
-0.3280776441
-0.1073008031
0.1912308037
-0.0290218089
0.1512157023
-0.0031916413
-0.2281934917
-0.1658257991
-0.1162548587
-0.1002044082
-0.0675670281
0.0291135702
-0.4622243941
-0.2409187406
-0.2044161856
0.0891366228
-0.2700079679
0.2658646107
0.1770418733
-0.1277945489
0.0692167282
-0.1103792265
0.0242440440
-0.2542527914
-0.2069169879
-0.1563401073
-0.1861942559
-0.4428568184
-0.1854181737
0.3388672173
0.0950082019
-0.2890877724
0.0526349731
0.0574181490
0.2854210734
0.0057611060
-0.0106748864
-0.0242438111
0.2471672446
0.0327477790
0.0357438177
-0.2778210342
-0.1135137454
0.0444419645
0.0564673804
0.0532367341
-0.1692344248
0.0707890168
-0.2414232790
-0.0900425464
0.0328344628
0.1950790137
0.0213184301
0.0236080252
0.0259384066
-0.2614052594
0.1370137483
0.2750432193
0.0920900777
-0.3759677410
-0.0055818805
-0.0430468693
-0.2162549645
-0.0812068880
-0.0217156727
-0.0189017169
0.0798141435
-0.0849515051
-0.0716873631
0.3085092604
0.0589624047
0.0435474925
-0.0222016685
-0.0141395433
0.0617661551
-0.1514266580
-0.0866616145
-0.5345419049
-0.1296872199
0.1870058775
-0.2039388269
0.3528880775
-0.3218128085
-0.1440003812
0.0934519619
-0.1781159341
-0.1045949310
-0.1693534702
0.0352803133
0.2612923384
0.3388513923
-0.0336136818
-0.2372719795
0.0118742883
-0.0137460250
0.0976603404
-0.3356596828
0.0902046040
0.0443560891
0.1136697903
-0.0389625728
-0.3735789657
0.2456361502
-0.1572712958
0.1711828411
0.2044498324
0.1910793930
0.1104424149
0.2340715080
-0.1201965213
0.3793693185
-0.0108426670
-0.1580919176
0.2124750316
-0.0033573462
0.0349926390
0.2176148295
0.2256128937
-0.1890954673
0.3826002479
-0.2455828041
-0.2806428969
0.1892837584
-0.0517322496
0.1595665962
-0.1789042652
-0.0139528662
-0.1996951252
0.1003422067
-0.0587664135
0.0282940492
0.1224158183
-0.2739608288
-0.1042484641
-0.0979227647
0.1487154365
-0.0669266731
-0.1627669036
0.1156323701
0.1076305211
-0.0620814897
0.1181450039
0.0160512794
-0.1007021442
0.3219690621
-0.0268089138
0.1763022244
0.0345503837
-0.0901629403
0.1817454845
0.0763407946
-0.2310957015
0.1292609274
0.2515987456
0.2731305659
0.2212710679
0.0674142092
0.0706182122
0.2299377322
0.0029270242
-0.1603076905
-0.2558124363
-0.2202978134
0.0951363519
-0.1175515503
0.0870073810
0.0255536418
-0.0726491138
-0.0457414165
0.1603059471
0.0872403830
0.2261896878
-0.1549463123
-0.1230295151
-0.1071150601
-0.3328929543
-0.1605768204
-0.1301176697
-0.1852868646
-0.2795908153
0.0897779837
0.0357040167
-0.0739402026
0.1149628311
0.0763163120
-0.0190000162
0.0467789248
-0.0834708810
0.0940742195
-0.0829553232
0.1003593653
0.2382412255
0.0382974446
-0.2096909732
0.1677869558
0.0452572741
0.0159875751
-0.4016378820
0.1329656243
0.1868625581
-0.1580761522
0.0410385169
-0.1121729389
0.1165147126
0.0680705458
-0.0909797177
-0.0957013816
0.0725430623
0.1404663920
-0.1500750631
0.1308842301
-0.1859440655
0.1479933113
-0.1600859165
0.1215794086
0.0827897713
-0.1988908201
-0.0864189491
-0.0805609226
0.0737266392
0.1119683087
-0.0692534745
0.0411577001
-0.1204852909
-0.0395368598
0.0244496595
0.1203312725
-0.0055759391
-0.0469907112
-0.0791408420
0.1640411317
0.1952134520
-0.2302032709
-0.1125418320
-0.0950163901
0.3289902806
-0.0469001457
0.2938646972
-0.0221296418
0.1755772531
-0.1862705797
-0.3447307646
0.0702013969
0.0334592573
0.0311699100
0.1740991473
-0.2544640303
-0.2821864784
-0.2648490667
-0.0474800244
0.3122332990
-0.1339160949
0.1753679663
-0.2519187629
-0.1292658001
0.1435318738
-0.0833773389
0.3111110330
0.0806025341
0.2324249297
0.0607614629
-0.0965131149
0.0976686999
0.0392371044
-0.1165731028
0.1621153504
-0.0729106143
-0.0685960948
0.0302981287
0.2172034532
0.3448056877
-0.0338166356
-0.1388022900
-0.2272015810
-0.0858088136
-0.0746386573
-0.0507968552
0.0230163727
0.0059673241
0.0825191140
-0.0058711693
-0.1206482351
0.3186068237
-0.1386972368
-0.3114571273
0.0496809371
0.1439396143
-0.1031800583
-0.0718970448
-0.0838724077
0.0749430656
0.4414292574
0.2152882516
0.0518479645
-0.1108633354
0.0010721844
-0.1591358334
0.1159074605
-0.1146986261
-0.0234260336
-0.3480721712
-0.2290080339
0.0975048915
0.4530391097
-0.2133381665
0.1187520027
0.1969659328
0.2306543291
0.0306448508
0.1746987402
0.2171937823
-0.0481386334
0.0553423129
0.1132394299
0.0317476355
-0.0016900068
-0.1563641578
-0.3714212775
-0.2711379826
-0.0870721489
-0.1398093849
0.0896808431
0.1525983661
-0.2111380100
0.1077940613
-0.0868261009
-0.1948487908
-0.4413174093
0.0504247472
-0.1408642679
0.2559323013
0.2392300665
0.1659540236
0.2625860870
-0.1051123366
0.0082772262
0.0973353907
-0.1258014441
-0.1588863283
0.0327760689
0.1101169363
-0.0297496319
0.0592251793
-0.1033194289
-0.1972166598
0.1284753829
-0.1804625690
-0.1181286573
0.0146149220
-0.1323527247
0.2601023912
-0.3025754094
0.0202398766
-0.2149468064
-0.0994621739
-0.1813355088
0.1538436413
0.0105431993
0.1127323657
-0.0930346549
-0.0016860912
-0.1060647815
0.0156455114
-0.1255376488
0.1563814878
-0.1271425635
0.1265039742
0.0741353780
0.0094582671
0.0173858423
0.0959260464
-0.0482008234
-0.1114969626
-0.1374413073
0.0167475957
0.0100963535
-0.0898978710
-0.0796950758
-0.0754751936
0.2091687173
0.1225834861
0.3386100233
-0.0210358799
-0.1337710768
-0.2120160609
0.0472365171
-0.1992554069
-0.0633695573
-0.0669242293
0.3372820914
-0.1013408527
-0.1680600196
0.1364832968
0.0987953767
-0.1217160150
-0.0757415146
0.1455234587
-0.3314676583
0.2948710024
0.0266898666
0.0054209945
-0.2244360745
0.1182551831
0.0397007987
0.0230226628
0.1217848286
0.1445389688
0.0774715170
-0.1728329211
0.0861981064
0.0525762290
0.0536041297
0.0066550621
0.0125431735
-0.1591922343
-0.0779010728
0.1518246382
0.0121685276
0.0891730785
-0.2927715480
-0.2453445345
-0.1582167596
0.0691385344
-0.2350032777
-0.0574449189
-0.0773996860
-0.0089322943
-0.2456636876
-0.0033846740
-0.0330708474
0.0124035655
-0.1821664870
0.0073284488
-0.2156252861
0.0487147085
0.0890259743
-0.1783963740
-0.5474613905
-0.1663216949
-0.0324764736
0.0704897046
0.1640273631
-0.0225480329
-0.0347879343
0.0927174091
0.0399421491
0.2082650810
-0.2430703044
0.1725714803
0.1905325651
0.0131706279
0.0419177376
-0.0093949260
0.0973070487
-0.0922536850
0.0782087222
0.0912053958
0.1226533279
0.1321617514
0.3707005084
0.1091333553
0.0781177208
0.1063317955
0.1833662093
0.0118036922
0.1120760739
-0.1527152807
-0.1294948757
-0.0427672192
-0.2213973254
0.4025951326
-0.1536877155
-0.1286989450
0.4009862840
0.0498956852
0.1029097140
0.1440098137
0.3845398724
-0.0546042882
0.1030753627
-0.2700180709
-0.3283966184
-0.0043055410
0.1149784401
0.0867868885
0.0552097335
0.4077025950
-0.1620684564
0.2120356262
0.0905990154
0.1684427708
-0.0639585033
-0.2507914007
-0.0644171610
0.2282285094
-0.0930388570
-0.0581427626
-0.0578931719
-0.0734793320
0.1080359668
-0.0690958798
-0.3086774051
-0.0298279170
0.0773024708
-0.2452148944
0.1076836213
0.1952107698
-0.1042427123
-0.3292401433
-0.1846626252
0.0266581140
0.3247604072
0.0263989158
0.1196957678
-0.2304355800
-0.2770836353
-0.2249189317
0.2339311242
0.1284794211
0.0640609935
0.2080173790
0.3376570940
-0.1677840799
0.1972068697
0.0353521928
-0.1325409412
0.0050624041
0.2621879280
0.0166588835
-0.0244890824
0.2323226929
-0.0790126473
-0.0730087459
0.1001079828
-0.0422006361
-0.0444521047
0.1857990026
0.1483750790
0.1478833556
0.2934632599
0.3696758747
-0.0301585887
-0.0374742076
-0.1249140650
-0.2485414743
-0.3601032794
0.1195928082
-0.0950411707
0.0227031764
0.2011255622
0.3184277415
0.1363231838
-0.0543094575
0.0581336617
0.3235087991
-0.1319544464
0.1168152392
0.1550502926
0.1171735376
0.3148492873
-0.0021278686
0.4816523492
-0.2984180152
0.0011548593
-0.1791750342
-0.2339471132
0.2065337449
-0.1065381840
0.0627845153
0.3139883280
-0.1600510627
0.0979751125
-0.2385364026
0.3946643472
-0.0671749786
-0.1342644989
-0.1954071373
0.1124504954
0.1329955906
-0.3857564032
0.2508103549
-0.3038471937
0.1720734239
-0.2060595453
-0.1710655987
0.0420306660
-0.0492476113
0.0470017903
-0.2476365119
0.0623653866
0.2154201269
0.2090158015
-0.3023440242
0.0898680612
0.1613568068
-0.1606941074
-0.1735261977
-0.0033932722
-0.1057811379
0.1618386358
0.1604965031
0.1586230695
0.0289576352
-0.1776662767
0.0814374983
-0.1958067566
0.1417573094
-0.1211663559
-0.0836982056
0.0335581116
0.0317404121
-0.3651147783
0.3613198698
-0.2372992039
-0.2296968997
0.5109208226
0.0124101546
-0.2813224494
-0.0342513435
0.1263190508
0.0546689220
-0.3662272990
0.0621463768
0.3914908469
0.3904849589
-0.1025088057
-0.0502165928
0.4213669896
0.2859056890
0.0160216242
0.1296453774
-0.0673329011
-0.3548304439
0.2419831306
-0.2082906067
-0.3559319675
-0.0363169089
-0.0399130918
0.1591395140
0.2595731616
-0.0302841663
0.1776560247
-0.0435791165
0.0630597696
0.2163257897
0.1331340224
0.1300461888
-0.0446619242
0.0373145826
0.1515046805
0.3017094731
0.1943366528
0.1437820196
0.0913258046
0.0230776388
0.3122354150
0.1871319711
-0.1057329923
-0.1438793242
-0.1535289288
0.3226006925
0.2060499489
-0.0766779557
0.0178600401
0.0619206131
-0.1117228121
0.1959429085
0.0456072167
-0.0502875671
-0.2326934785
0.0430555083
0.4157101214
-0.1655105352
0.0443791486
-0.0067588785
-0.2335090041
0.2013651580
-0.0388768092
0.2043332607
-0.0428456739
0.3010090888
-0.0563328117
0.0987623110
0.2803334594
0.3372695446
0.0257829521
0.1979646087
0.1376909912
0.1379972994
0.0385149047
-0.1967539042
0.2991969287
-0.1060231179
0.0875870734
0.0431502908
-0.1640506387
-0.0045947107
-0.1161591485
0.0597426407
-0.0409634896
0.1017616838
0.1286650747
-0.0112085612
-0.3979934752
-0.1349259466
0.0211424883
-0.1734983474
0.2574478984
0.1323170066
-0.1792748868
0.1334716976
0.3090017438
0.0558050722
-0.0696153566
0.0552320257
-0.2246825099
0.1978034377
-0.1845184118
0.0414344780
0.0759054646
0.4961481094
0.0034394939
0.0002379769
-0.2979777157
-0.1347531825
-0.1482769847
0.1784080714
0.0716151446
0.1353604198
-0.0975171328
0.2093605548
0.0024851239
-0.2562074959
-0.1793330163
-0.0778545812
0.0896710902
-0.1932222694
-0.1083360091
0.2558080554
0.0733472407
0.0043308493
-0.2990797460
-0.0928319246
0.0609556623
-0.0849052817
-0.0078327507
0.1526301354
-0.0034681244
0.0718613416
-0.1631954461
-0.0363510810
0.2399266362
0.0239826981
0.3671615422
0.3805189133
0.1240925938
0.1984130591
0.2417056412
0.1860486716
0.1367565095
0.0623910911
-0.2509517074
-0.1278031617
0.1268960834
0.1170972213
-0.0512793623
-0.0224159434
0.1043305621
0.0698144138
0.2128214687
-0.1233981475
-0.1204358190
-0.0257951040
-0.1690116376
0.0490893014
0.0735851377
-0.1294424683
-0.0131374225
-0.1522527188
-0.1910636276
-0.0757228732
-0.0379492082
0.0704985857
0.1990239173
-0.1627207100
0.0907091126
-0.0944015384
0.1275524646
-0.1831604987
0.1207584068
-0.2260566950
-0.2016292065
-0.0684586763
-0.2155919224
0.0772123113
-0.3390596509
0.0317945555
-0.5599597692
0.2100409418
0.0097138304
-0.0116166286
-0.0176835284
-0.3914511204
-0.1201797202
-0.0646916553
0.1921382546
0.0231483914
0.1013670042
0.0350787789
-0.1486885548
0.1065592393
-0.5184305310
0.1083930507
-0.1655149311
-0.1628512293
-0.1881984323
-0.0963807106
0.0388563462
-0.2523308992
0.0282209534
-0.2363362610
0.0243073609
0.0251561888
-0.0763010532
-0.1866285056
-0.1737563610
-0.0625383183
0.2355315536
0.1466109157
0.0305556040
0.0247981213
0.1305495501
-0.0779907778
0.0051733623
-0.0325535126
-0.0502567925
-0.3406136930
-0.0224648789
0.0755009800
0.0258711725
-0.3391209841
-0.0548515692
0.1316365600
0.0343293250
0.0256409422
0.1565922052
-0.0697077513
-0.1866826117
0.1260937303
0.0263466146
-0.0728768036
-0.1077591404
0.0884992257
0.0502107851
-0.0669398159
0.2174309939
-0.0709526539
-0.1821928471
0.0943290442
-0.3057379723
0.0050398353
0.1902152300
0.0679628775
0.0358840972
0.3028976917
0.0217505712
-0.1158674359
0.1056517810
0.0871873349
-0.0623266064
-0.0247639883
-0.2987891734
-0.0064048334
-0.0366032608
-0.0846008360
-0.1595546156
-0.0397249050
-0.1362835616
0.2096534520
0.0056653735
0.0586871840
0.0128787765
-0.2673365176
-0.1863334626
0.1961131692
-0.0718476772
-0.2419785261
-0.2464747727
-0.2022275031
0.0561829209
-0.0411267392
0.1735815555
-0.2468965203
-0.2200250924
0.0574776307
-0.3003531992
0.0369796194
-0.0805404410
0.3393794298
-0.2240653634
0.0143785169
0.2229994088
-0.3214213848
-0.0484462306
-0.0629493520
0.0098619321
0.2785785496
-0.1436288208
-0.1059054360
-0.0523702353
-0.0435783304
0.3249337673
0.2887301743
0.2703382075
0.2492446899
-0.1467846632
-0.0460719690
0.3701555431
0.0011860372
-0.0812732652
-0.0744142309
0.1311956793
0.0606674328
0.3506746292
0.1875225008
0.2419796139
0.1701412946
-0.1128342599
-0.1273541600
0.1748724282
-0.0047156485
0.2166925520
0.1474323720
-0.0817082524
0.0165723693
0.0598683134
0.0593123734
-0.0896811485
-0.0203025136
0.0583508536
0.1370690316
0.0593747012
0.0498752259
-0.0576075390
0.3697411418
-0.1608673632
0.0564089306
-0.1630275846
0.3310893774
0.0824436694
-0.1289335936
0.3653898239
-0.2954631746
-0.1518216133
0.1089469790
0.1996904314
0.0691814572
-0.1064556390
0.1158783063
-0.0331169963
0.0434377864
-0.0650853515
0.2200399041
-0.1334878504
-0.2802655697
-0.2493862957
-0.2606553733
0.1461867094
0.1750054955
0.1850749999
0.0124852601
-0.0781876147
0.1680164337
0.3527362943
0.3607477248
-0.0833304599
0.2714864016
-0.0471605659
-0.0881861448
0.0689706579
0.3116818964
0.2036375403
0.1600843370
0.1353428811
0.1158895418
-0.0977377445
0.1367433816
0.3574644625
-0.0231524333
-0.1807098687
0.1574677676
-0.0253591612
0.0637956485
-0.2580135763
-0.1922119260
-0.0840875283
0.0485902764
-0.1109662652
-0.2707862854
-0.0644460842
-0.1618557125
0.0342021771
0.0239563137
0.0427289754
-0.2464080751
0.0214693975
0.2941770554
-0.1624304354
-0.1960715353
0.0977182016
0.0154758459
-0.1590241343
0.2253037393
-0.0131997522
0.0119204354
0.0382283516
0.0210421216
-0.1866705567
-0.2128579170
0.0212742388
-0.0889796019
0.0180386659
0.1682288796
-0.0730113909
-0.0025996645
-0.1766286194
0.0631245524
0.0534341633
0.0762021244
-0.0113873212
0.2367855906
0.1148524806
0.1813033670
0.1561555266
-0.0524350479
0.3801439404
-0.0725607276
0.3035242856
0.0987314731
0.0516192168
0.0739254728
-0.2015896738
0.1721269786
-0.0921989828
-0.0199495964
0.1867893785
0.0294184051
0.2857341766
-0.1218762398
0.0817941874
-0.3382260799
0.3155443668
0.0753526464
0.0119069535
0.1603158712
-0.0889463499
0.1078911722
0.1504663229
-0.1268054694
-0.2640376985
0.2448689342
-0.0562756285
-0.0579728335
0.0215998050
0.1536138058
-0.2502584457
-0.1832470447
0.0821894631
0.0458135121
-0.0542525910
-0.2927573025
-0.0300004166
0.1716292948
-0.0253117960
0.1389758587
0.2060547769
0.1089548916
0.0356263816
-0.0874632150
-0.1620304883
0.3234214485
0.2915150225
-0.2933324873
-0.0197582338
0.2252915204
-0.1746675521
-0.1433504969
0.1618114710
-0.1487279087
-0.1110478267
-0.1980897039
-0.0295329150
-0.0168865770
0.1997656524
-0.0193728451
-0.1929317713
-0.0928119496
0.1211913973
-0.1592777967
-0.0423454903
0.1681964248
0.0854032263
0.0171272010
0.1386858970
-0.1997548491
-0.1170876548
-0.2074144334
-0.0577902384
0.0705571622
0.0595295653
-0.2386000007
0.0665616095
-0.1027098969
-0.1767953932
-0.2029332966
-0.0539742149
0.0326116346
-0.3591707945
0.0408668295
-0.1723771691
-0.0747485086
-0.0583236180
0.2609409988
-0.0303948410
-0.0321168527
0.0545401573
-0.0813640058
0.1159101501
0.1299396008
-0.2115632892
0.0194452833
-0.6714395881
-0.0776406080
0.1094545722
0.0181477014
0.3052991927
0.0542292558
-0.0424472876
-0.1893842965
-0.0174419153
-0.1206787378
0.0618388876
-0.2096372545
0.0371921547
0.1536233872
0.2144118249
-0.2525873780
0.0055529815
-0.0990923271
-0.1178396642
-0.0816551298
-0.1360571533
-0.0045923060
-0.1908566952
-0.2123188078
0.2199397385
-0.2026639283
0.0710973516
-0.2469476908
0.0114037758
0.0218436755
-0.1650910378
0.0852051303
0.0821662769
0.0175836701
-0.1601073146
0.1817921847
0.2560803294
0.2048868835
-0.0418581851
0.1737268269
-0.1152533591
-0.0486054793
0.0773193985
0.0321366191
0.0858334452
0.4023124576
0.1246267632
0.0602203608
0.0466758870
-0.1331735104
0.4255430996
-0.1247070730
0.3642186224
0.0226245839
0.3518664837
-0.0161609035
0.1163788885
-0.2831391692
0.0223875009
0.1296389550
-0.1271977127
0.3605280221
0.3379263878
0.2192768157
-0.1525127143
0.0919667184
0.0546675697
-0.0203262828
-0.1246931553
0.0061142151
-0.0893297195
0.0321593396
-0.0624931492
-0.0100167077
0.2949175239
0.3582300842
-0.0495067649
-0.1023992896
-0.2757789791
-0.0781343654
-0.0912292674
0.2158779502
-0.0456461906
-0.0307121351
0.3085376620
-0.0663414448
-0.3540010154
-0.1829665899
-0.1118300483
0.0782875121
-0.2450429797
-0.1381207258
0.1413161308
0.3405213654
0.2320957780
0.1905112565
0.3360688388
0.3298324645
-0.0746552944
0.0884633213
0.3197478056
-0.2008223534
-0.0482049435
0.0419774689
-0.0784011185
0.1924355179
-0.1465269625
0.0400323868
0.0175305419
-0.1551148742
0.1363983303
-0.1956167966
-0.1533218920
0.1256029159
0.1302418560
-0.0091987737
-0.4813335240
0.2885544002
0.0292434171
-0.1143558547
0.2419285029
0.0096186642
-0.2098372281
-0.1498227268
0.2318026423
-0.3061633706
0.0943324119
0.1371620297
-0.1573535949
0.0033200833
0.0667332411
-0.0962945446
0.4626294374
0.0544109568
0.2515465617
0.0610829927
0.0326830298
0.0410607979
-0.1136220917
-0.0230195187
-0.0169658307
-0.2895145714
0.1043758467
-0.0066438401
-0.2469648719
0.2360854149
-0.0151523277
0.0733499229
-0.2633193135
0.1429969519
-0.2226762623
0.2852327228
0.0852173045
-0.2284073234
0.0618317612
-0.2010310739
0.0521304794
0.2236273438
-0.0551371127
0.0341090560
0.2040973604
0.0577568375
-0.0097092763
-0.0306973662
-0.2015816122
-0.1252031326
-0.1651536673
0.1796409786
-0.0432523414
-0.2603697181
0.4076822400
-0.0630931482
0.1749024093
0.0370310545
-0.1147756353
0.0791674182
0.2038855404
0.0632533282
0.1641272902
0.1230430901
0.1472314149
-0.2352113873
-0.2645209730
-0.0641444698
-0.2340681553
0.2214119434
-0.4769291878
-0.0500870645
-0.0367213190
0.1363921463
0.0563510731
-0.2477127761
-0.1308936924
-0.2146850675
-0.1843488216
0.0223021042
0.3007629216
0.0173246153
0.0357516892
0.1531271189
-0.0776604712
-0.3990465999
-0.4038300216
-0.3592642546
0.1293376535
0.1490387768
-0.0000797090
0.0593837723
-0.1525171846
0.1788411885
-0.3501155376
-0.1307412237
-0.0537415668
-0.2768725157
0.2124163806
0.2133255750
0.0933742002
0.1723362803
-0.1414545625
0.2859907448
-0.0326067396
0.0386801362
0.1174382493
0.0990689471
-0.1955483705
0.1181755513
0.2810347676
0.2005858421
0.0755314529
0.1017514467
0.0319795348
-0.1770470887
-0.0344425365
-0.2646883726
0.0986224040
-0.1421981603
0.2644126117
-0.3922128081
0.0324646570
0.0780140609
0.4502371550
0.1462853700
-0.0990289152
0.1289217770
0.1598921269
-0.1434442103
0.1053676903
0.2366587073
-0.1526759118
0.1809534580
-0.0338259749
-0.0476936884
0.1785666943
-0.1832218319
-0.0319305770
0.1896342188
0.2946530879
-0.1640477180
-0.1124767289
0.0693630353
0.2674311101
-0.0030823064
0.3422462642
-0.0917879492
-0.1214626878
-0.0781053454
-0.1391491443
0.1862891763
0.1949912161
-0.0701482445
0.1195911169
-0.1676054299
-0.1403383762
0.0761902928
0.0171246286
0.1813868582
0.1303085983
0.0814049020
-0.2291694880
-0.0275929030
-0.1258311272
0.2915570438
-0.1547204107
-0.0807863325
0.1627157032
0.0798517242
-0.1189890057
-0.1363352984
0.0143180778
-0.2112588137
-0.0095656905
0.3057596982
-0.4727999866
0.2900881469
0.0991284326
-0.2572039068
-0.2133507729
0.3189995289
-0.2508804500
0.2313537896
-0.2998279333
0.0961311013
0.1264008135
-0.2177738696
0.2127714604
0.0048692287
-0.1718929559
-0.0848464444
-0.0811996907
0.1675309986
-0.0083301589
-0.1233382598
-0.2202577591
0.0620907024
0.2428658307
0.2876749039
0.0874979794
-0.0673686117
-0.1143347397
-0.0929729119
-0.0987147540
-0.1265899241
0.1208228618
0.1737259179
0.5019273758
-0.0128031820
-0.0796112940
0.2082215250
-0.0496636927
-0.1463664174
0.2597621381
0.0779729933
0.0116455406
0.2151277214
-0.1054002643
0.1408089101
0.1722931564
-0.0719422325
-0.0576684028
0.0839359015
-0.2026990652
-0.1483067572
0.2254739553
-0.0270201787
0.1314619780
0.1058038101
-0.0121837808
-0.2702409625
0.2371314317
0.1194065884
0.0999398157
0.0536260866
0.3576605618
0.2756599784
-0.0294948220
-0.0514861569
-0.1510082483
-0.1093525887
0.1536834538
0.2224768251
0.3094287813
-0.0784085095
-0.0217421129
0.1268072426
-0.1751186103
0.0697815046
-0.0610319041
-0.0794438422
-0.3643266559
-0.2653152049
-0.3538232446
0.0763704106
0.0938967541
-0.1509388089
-0.0566661619
0.0228148922
0.0857496560
-0.0220072456
-0.2705184817
0.2267864347
-0.4035281837
0.2565777898
-0.2567331791
0.2829284370
-0.1510275006
0.2192847431
-0.4794099331
-0.0230645835
0.3643040061
0.0477256402
-0.0338727497
-0.2241145968
-0.0590765513
0.0290359613
0.3059290349
-0.0242615286
-0.1420742422
0.1513017118
-0.0228489954
-0.0877170041
-0.0644416586
0.3138170838
0.2505086660
0.0812655911
-0.0908649564
0.0329070389
0.1358782500
-0.1371021420
0.0202490017
0.2487325370
-0.0579796769
0.1158925146
-0.0230714623
-0.0724020004
0.2842362821
0.1312228590
0.1234804466
0.2057373822
-0.3830900490
-0.0400693081
0.1553366035
0.0463662222
0.2014840394
0.1277195662
0.1099969745
0.0096929967
0.2017177194
-0.0608929321
0.1238800585
0.0159422215
-0.3126773238
0.2206230462
-0.1149244681
-0.2679589689
-0.0426053777
0.2336993217
-0.1077537462
0.1165869310
-0.0494395867
-0.0387861729
-0.0172935799
0.1478219330
0.0889346823
0.1740716994
-0.1405251473
0.2088982314
-0.0204297155
0.2280828208
-0.0791470036
0.0227195900
0.1414653659
-0.0195610821
-0.0544096045
-0.0712340921
-0.0786828548
-0.1323790997
0.3740155101
0.0155275445
-0.1970244497
-0.0562831424
0.0466884598
0.1267833412
-0.0941238850
-0.0029318607
-0.0339276493
-0.0303846970
0.4343667626
-0.4444462657
-0.1121490896
0.1368190497
-0.1008988470
0.0065667019
0.2740730345
0.1578908265
-0.0684842989
0.1159297228
-0.1438839436
0.0861531869
-0.0011533411
-0.2024232894
-0.2425975204
-0.1434926093
-0.2151628286
0.3269922435
-0.1785497814
0.0196488481
0.2610155344
0.1028371155
-0.0030423999
-0.1494800746
-0.2396891266
-0.1350856125
0.0064706416
0.0120195327
0.0219188817
-0.2735421658
0.1175785661
0.2483154386
-0.1317453235
-0.1046320722
-0.5328985453
-0.1430030167
-0.1613435596
-0.1352764666
-0.0173431709
0.0142159313
-0.1261003762
0.1448927373
-0.0379920639
0.0947064459
0.2276222557
-0.1672000736
-0.0586219989
-0.2880522907
0.3289855719
0.0613303520
0.1764525324
-0.2128326744
0.0487666465
-0.1375705153
-0.2368835062
-0.1006000414
0.0408968069
0.1896157414
0.0666658729
-0.0253477506
-0.1370744258
0.2363071144
-0.0872816816
0.1804808974
-0.1073018014
0.1057777777
0.1762350202
0.1231259182
-0.0212489665
0.0920319185
-0.1900234073
-0.0602689683
0.1915966272
-0.2392323464
0.3211711645
-0.0281636026
-0.0298629478
-0.1930773705
-0.1107544005
-0.2425016016
0.0307200309
0.0651617646
0.1842121333
-0.2714283168
0.0505699255
0.1311107725
0.3097683489
-0.2132788152
-0.2724078000
-0.2727571428
-0.0427732356
0.0931829363
0.1483105272
0.0013399083
-0.0010945186
-0.0942680836
-0.0122192418
-0.0256742071
-0.0269554239
0.4060314000
-0.2420620918
-0.0173043255
0.0791349933
0.1655992866
0.4545846283
0.2231440842
0.0284936465
-0.0109421620
-0.2066366971
-0.1378493011
0.2938011885
-0.1028560251
-0.0828919783
0.0837217942
-0.3666085005
0.0184670389
-0.2444651872
-0.1233720034
0.3001211584
-0.1514287293
-0.1495253444
0.0042105489
0.2942490876
-0.2741735578
-0.0680859610
0.2544506788
-0.0813527182
-0.0060146861
0.0944938883
0.1081098616
-0.0237900130
0.1334899813
0.1356144249
0.1331055909
-0.2791373432
-0.1819323003
0.1711764932
-0.2362381965
-0.2619849443
0.0903222188
-0.1228286922
-0.2204502076
-0.3174623847
0.1456933469
-0.2339001298
-0.2084956169
-0.4846447408
-0.0237856377
-0.0723670200
-0.0549144894
0.1249081790
0.2305140644
0.0157418456
-0.0111594275
0.0728049427
0.3107228577
-0.2008257508
-0.1170915365
-0.0158783179
-0.0795140713
0.0799608231
0.1036010012
0.3872221410
-0.0010780834
-0.3328016400
-0.1093075573
0.1794731468
-0.1621323675
0.1638449728
-0.0398004502
0.1464395523
0.2402888238
0.0478608608
0.0041787224
0.0307146236
0.2091388553
-0.1044280156
0.1223405302
0.2422378361
0.2452289313
-0.1125764176
-0.0064176600
0.1541341096
0.1546224207
0.2271780521
-0.0240818001
0.1620679051
0.1747925729
-0.1534325927
0.1485597193
0.0483730435
0.0074564726
-0.0380422845
-0.1509882659
-0.1401490867
0.4073892832
0.5046873689
0.2540844679
0.1945359856
0.0102515556
0.5777051449
0.0318058133
0.1064173281
0.1963301599
-0.1552453935
-0.1587326080
-0.0866877437
-0.0757089034
-0.0519608632
0.3550575674
-0.1247326061
-0.2927818894
0.1646621227
-0.1889475137
-0.0496614836
0.2106087059
-0.2284339368
-0.3228472471
-0.1138314605
0.2532404959
0.1099792793
0.0428004861
-0.0187482052
-0.0004225644
0.1012045965
0.0561488532
-0.2784861624
0.0328933187
-0.2402472198
-0.1373179406
-0.0520795994
-0.0269806348
0.0618017204
0.0324408859
-0.1106792614
-0.1044514999
-0.3017707467
-0.0230726376
0.1170804650
0.0904536769
-0.0458949097
-0.0347878337
0.1373728514
-0.2154912502
0.1217254400
0.1069732085
-0.0510012321
0.2586561739
0.4150546789
-0.1078869700
-0.0985932350
0.1273766309
0.0208757427
-0.0266781803
0.0035170659
0.0487188399
0.1536758393
-0.3440226614
-0.0494242460
0.0117182638
0.3516224027
0.1229664236
0.0094607985
0.0012230045
-0.1152539328
-0.3809203804
0.0606425814
-0.1888503283
0.2718775868
0.0695207939
-0.0491578989
0.5549108386
0.2539245188
-0.1472651958
-0.0827024058
-0.2060328275
-0.1931604594
-0.2094431221
-0.2355930805
-0.0846888945
-0.0983170494
-0.1714436412
0.0510138907
-0.0297374558
-0.0145024229
0.1331992894
0.2765016258
0.0346513838
0.0838077366
-0.0617390797
-0.3713211417
0.2166048288
-0.1015310213
0.2260316014
-0.1189184412
-0.0927063748
-0.1344438791
-0.2090871781
0.0574225076
0.1320768446
-0.2622202039
0.1012565419
0.0386157706
-0.1515602618
0.1079842001
-0.0654707998
0.0348097235
-0.1516959965
0.0407987088
0.0995142832
0.0044522136
0.0589812510
0.1356265694
0.1481782645
-0.0854512975
0.3036078215
0.1218792424
0.1403778940
-0.0579206869
0.0902733132
-0.0246701781
-0.1416093409
0.4244450927
-0.0340284221
-0.2096155584
-0.0333995335
0.1725633889
-0.0728696287
-0.2444269955
0.1201306805
-0.1449012905
-0.0423764102
0.0665366873
-0.1785794348
-0.2630179226
-0.1643421203
0.1860715300
-0.1524620503
0.2060735524
0.1952933520
0.1028851867
-0.0075781285
-0.0660440773
-0.0561407097
-0.1724555343
0.1512128115
0.0542609543
0.0107942438
0.0072907130
-0.0527228564
-0.1073068604
-0.3628500402
-0.1820020080
0.0213642661
-0.2711575329
-0.3242684007
-0.0028114114
-0.0765552595
-0.0970201492
0.1238038689
0.0477732196
-0.1544666439
-0.0088966414
0.0569064207
0.0148831699
0.3140032887
0.0583755597
0.3790709972
0.0519308150
-0.1340751946
0.2963108420
0.1995232701
-0.1191251799
0.2516020238
-0.3747214973
-0.0782580003
-0.0381403379
-0.2481655478
0.1322070807
0.1817679703
0.1348397136
0.0392633714
0.2291958332
-0.0916465744
0.0264750849
-0.2441708744
0.0261577405
-0.3222052455
0.0578355417
-0.2159834206
0.0429124348
0.3293403089
0.0234690439
0.0417853035
-0.3995335996
0.1029609218
-0.1959592402
-0.3162951171
-0.1885478944
-0.2423817813
0.0960264206
0.0530919358
0.3635959923
0.0675857738
0.0862502009
-0.0383266769
0.2380668819
0.1628119946
-0.0361358896
0.2310562730
-0.1990592629
0.2437721491
0.0709776208
0.0705283731
-0.3452517986
-0.2479383051
-0.0150021529
0.0729550868
-0.0688622072
0.1218441501
0.0270260219
-0.0062463959
-0.2247286290
-0.0388027988
0.1164472178
0.2062685788
0.2279937565
-0.1310184300
0.0441679247
0.1517110616
0.0862899497
-0.2463113666
0.1482203901
-0.2322514802
0.0573769547
0.4619583786
0.2720645070
0.0459430814
0.0975366682
-0.0465285815
0.3094271123
0.0611012280
0.2224866897
0.1533896625
0.2249735892
-0.0285336860
0.1267475784
-0.1947272569
-0.2812896669
-0.0500683449
-0.0297694355
-0.0807129741
-0.1279528290
-0.0960656106
0.1512332261
-0.1243925914
-0.0465520807
0.0012485920
-0.0806908756
0.0314831845
-0.1879622042
-0.0522653721
-0.1878670454
0.1371846348
0.1081765294
-0.0676207617
-0.2013022900
0.1830085814
-0.0323227942
0.1503063887
-0.1507577151
-0.1842470318
0.1908336431
-0.1191061810
0.0422220044
-0.0640533194
-0.1565391123
-0.0312982947
-0.0717620105
0.0504771583
-0.2677785456
0.3145007789
-0.1739094853
0.1657176912
-0.1490816474
0.1189368367
-0.1224370450
-0.0441558659
0.0372168534
-0.0924662873
0.0497373119
0.1174284443
0.0156065756
-0.0206335336
-0.4364578724
-0.2400017381
-0.1242914125
-0.1195055768
0.3435329497
-0.1385895163
-0.1878298223
-0.0618596114
-0.1403499544
0.1033834741
0.1609761715
-0.1188212857
-0.1659029424
0.0955056846
0.2660509050
-0.1382339150
0.2120780796
0.0942870677
0.0545468107
-0.3552554548
0.0064618425
-0.1588842869
-0.2148676962
-0.2258084714
-0.1754987836
-0.3501066566
-0.2585106194
0.0691248029
-0.1591548175
-0.2153034955
-0.4444448054
-0.2058545798
0.0932006985
-0.2332204580
-0.0605168752
0.3280686438
0.0676496401
0.2678668499
-0.2293117046
0.2134738415
-0.4456970692
0.0067172493
-0.4498500526
-0.4279368520
-0.0454046614
0.2596489191
-0.1592223197
-0.0788178667
0.0112938127
-0.5100672245
0.2724390626
-0.2249353826
0.2787619233
-0.1324223280
0.0256157834
0.0538448468
0.2930262089
-0.0418766402
0.1920137405
0.0661850572
-0.0889411047
0.2170394808
0.0396583602
-0.0822078288
0.0035603417
0.0874724761
0.2019295245
0.0096845413
0.0943991244
0.0460342132
0.0405400619
-0.2604829073
0.1470692605
-0.3292687237
0.3477519751
0.1673924923
0.1620579660
-0.2194933891
-0.0590359829
-0.2049286067
-0.1928161830
0.0823193043
0.0106901610
0.2119507045
-0.1801588386
-0.0195647143
-0.0667610541
-0.0663649663
-0.1560844034
-0.0727812648
-0.2692918181
-0.0242601205
0.0269067381
-0.1697455496
-0.0487400070
-0.1882330924
0.1848882288
0.1132197529
-0.1599343270
-0.0612248927
0.4536881745
-0.0092712902
-0.0193274245
-0.1651866138
-0.1192864254
0.1796892583
0.1587174833
-0.0214842353
0.0297896806
0.2516274154
0.2047738433
-0.1105233505
0.2479612529
0.0545692146
0.0743251741
0.1141839847
0.2048262805
0.0322951376
-0.0657622144
0.1039598286
-0.0650918186
-0.0006530160
-0.0611789487
-0.0668954849
0.1791621894
0.0893514454
-0.0419551916
0.0799944326
0.3297164738
0.1970538497
0.2044542134
-0.1688142121
0.3175599277
-0.1887303442
0.0702694580
0.0169876777
-0.0166738350
-0.1774154752
-0.1363656372
0.1256996840
-0.3106587827
-0.0615050867
0.3454199135
-0.2197598666
0.0184137262
-0.0210885126
0.2694883347
-0.2780984938
-0.1132766306
-0.0234823152
0.1918703020
0.0683208555
-0.0163781177
-0.0950365663
-0.0237889942
0.1621597558
0.0240847673
0.0816685334
0.1901344508
-0.0855010301
-0.1077495515
-0.1225708053
0.2321009487
-0.1314800680
0.0963431001
-0.0484674647
0.1206279919
0.0033275725
-0.3144291639
0.1585461348
0.0738291889
0.1225741282
0.1256625205
-0.1469121277
0.0842102021
-0.1022143960
0.0228114352
0.0180995166
0.1288421750
0.0157796517
0.2827798724
-0.1833801121
-0.0973950177
-0.1200009808
-0.2067197710
-0.2596484423
-0.3293065727
0.1729036421
0.0106239617
-0.1511126906
0.2942107022
0.2593725324
0.1319962293
-0.2224365920
0.0221854541
0.2907501459
0.1728838831
0.0633144900
-0.0380799621
0.0098589025
0.2693024576
-0.0801392347
0.0053193513
-0.1148767993
0.1061864942
-0.2782484889
-0.2737583518
-0.1758949310
-0.0640041083
-0.2182192057
0.0179811921
-0.1923231035
0.0817413256
0.0688053742
0.1862603277
0.2074848711
0.1038044617
0.2119965553
0.1703941971
-0.1729646772
-0.0742052794
0.2056628913
0.1399822831
0.1462082118
0.1090187430
0.1377961636
-0.3559497893
0.2161783278
0.1273228973
-0.0780332983
-0.0406436697
-0.0605782345
-0.1346231103
0.1341940761
0.0751302466
-0.0487995669
-0.3472883403
0.1375235915
0.0699826553
-0.1988418400
0.0638383031
0.2089860886
-0.2022884041
-0.0223786570
0.0103697898
-0.2163383812
-0.2893710434
0.0656973645
-0.3169956505
-0.0966147110
0.1555866152
0.1241775975
-0.1342868656
0.4426628053
-0.0338239111
0.2457571626
-0.1748473793
-0.1907274276
-0.2276067138
-0.1526722908
0.2652265429
0.0242501553
-0.0527047217
0.1219622642
-0.0414264314
-0.0523562841
-0.0127050066
0.2462922782
-0.1152366698
0.1406340450
-0.3650360107
-0.0530555919
-0.0333830975
0.0144703984
0.1581480503
0.0145892715
0.1642796695
-0.1075892746
0.1222190112
-0.0166672170
0.0494590625
0.2995463908
-0.3117970526
-0.0925574675
-0.0224208292
0.0597727820
-0.2408535779
0.1900496781
0.2490239739
-0.0266659372
0.1382298321
-0.1869798303
-0.1371172816
0.2233351469
-0.2063275427
-0.1755458862
0.1122184992
0.3510941267
0.0578039996
-0.1569530517
-0.0856307521
-0.1182328016
-0.0417758264
-0.0893550441
0.0750867799
0.1930719465
0.0445984975
0.0416941121
-0.1785815060
0.0494340286
-0.2947565317
0.1060934961
-0.2313653529
-0.0459018722
0.3576273918
0.0052501261
0.0815270692
-0.1331112981
-0.0230452660
0.2212030292
-0.0252923220
-0.1318442076
0.2016835511
-0.0665296093
0.1067969501
0.0490382574
0.1969664246
0.2417875826
0.1093957499
-0.1062259898
0.1096614525
-0.0153912567
-0.0996784717
-0.2010381669
-0.2121641040
-0.2883418798
-0.2968306839
-0.2683126330
0.0599708743
0.0172244608
0.0917329714
-0.0089274822
-0.0127234133
0.1316400617
0.3582540751
-0.0414146259
0.0243680663
-0.2211092561
-0.0971037894
0.1329295635
0.0246766806
0.1230939031
0.2437283546
0.1704274416
-0.0321078785
-0.1613037288
0.0212841071
-0.1400535554
0.0472415239
-0.1205870733
-0.0799116418
-0.1040869579
0.0598837771
-0.0620363206
0.0404020436
-0.0312492829
0.0898340642
-0.2472244501
0.0129836919
-0.2310195714
-0.4062819779
0.2397393584
0.1702479869
-0.0307170358
-0.0451600589
-0.1813567132
0.0760613531
0.1217522696
0.2085663676
0.0591156632
-0.5258941650
0.1196603626
-0.1357393265
0.0268141329
0.0042265332
-0.0618930422
-0.5005615950
0.0562850051
-0.0168219935
-0.1200594977
0.0858906955
-0.1154140458
-0.1425379217
-0.1041930467
0.2836081088
-0.2000131160
-0.2196247429
-0.0148996040
0.2763742208
0.1675685793
-0.1396944523
-0.1569115371
0.0764026046
0.0129850777
-0.2565943897
-0.1357370764
0.1746234149
0.1625959277
0.2492101640
0.0908527523
-0.3557351232
0.0815753788
0.1463884711
-0.1947926581
0.2208727151
0.2615568340
0.1814066023
0.0873583034
-0.2812046409
-0.0756212324
0.0077407206
0.0995031372
0.1062234715
0.0537791662
0.2218594104
-0.1664423943
0.3654480278
0.0803890526
-0.0741458014
-0.4037824869
-0.2292710543
0.2281978875
0.0075900177
0.0353985950
0.0326147489
-0.0530298576
-0.3378414214
-0.0534527861
-0.2352277339
-0.3296659589
-0.2468423545
0.0091044689
-0.1901033372
-0.0104145259
0.2164580226
-0.0326056778
0.0244059078
-0.0464173444
0.1461664587
-0.1795518100
-0.2277611196
-0.0943825021
0.1278470010
0.3241528571
0.0772933885
0.0253551342
0.0573549718
0.0727541149
0.0554941706
-0.0002755227
-0.0884716734
-0.0378231890
0.3354515433
0.0960184559
-0.1015799344
-0.0988150612
0.1564560384
0.1101053506
0.0147631560
0.1410055459
0.1326501966
-0.1094748005
0.2176117450
0.5223364234
0.0640538856
0.0733686760
-0.1786309183
0.1436782926
0.2083021104
0.1485404670
-0.0379504375
-0.0513299890
-0.1099497080
0.1804717183
0.0200116187
-0.0534993745
0.2289070040
-0.0165620968
-0.3159893751
0.3087884784
-0.1419638693
-0.2207346857
0.0766464546
-0.1267269105
-0.0846021920
-0.0167952795
-0.1536700726
-0.0701602399
-0.0019523919
0.1420666426
-0.2565225959
-0.2529083490
-0.2098811567
0.2293729633
-0.2749624252
0.4635961652
-0.1986020505
0.0075437678
0.0769984871
0.0018379746
0.3007472157
-0.1378522217
0.3463318944
-0.0891533569
-0.0757961869
0.0323442258
-0.0297916532
0.5345546007
0.1186119989
0.1012841389
-0.2429395020
-0.0348626785
0.0021607070
0.2208572477
-0.2692640722
-0.1884778440
0.2245913148
-0.0386426225
0.1907369047
0.0819950104
-0.1629124284
-0.0003183110
-0.0912876129
-0.1996568441
0.0655972064
0.1538080126
0.3645676374
-0.0341041461
0.0125902733
0.2552984059
0.4320805073
-0.1859076172
0.0269767139
0.1961174011
-0.0545415431
0.0161964297
0.0165470578
0.0663418695
0.2740773261
-0.1647945940
-0.1197747439
0.1615474075
0.1427208483
-0.4156657755
-0.3967567682
-0.0304212999
-0.0796322078
-0.4800063670
-0.0507609621
-0.0093610147
0.0041346140
0.1734789759
-0.0089110704
0.1957380176
-0.1277078241
-0.1305214018
0.1386067420
-0.2199124396
0.0219866149
-0.0491470955
-0.2281756848
-0.0969241485
-0.0378836878
-0.2264032662
0.0338911489
-0.2836637199
0.0642758682
0.1186567321
-0.1043056995
0.0982540101
0.4247663021
-0.1579393297
-0.1731467247
-0.1019247919
-0.1544451118
0.1239093989
0.0205009505
-0.4679868817
-0.0029372398
-0.1142881364
0.1429818422
0.1979352981
-0.0632710233
0.0468889773
0.2427465618
-0.1426532269
-0.2549229562
0.0959967598
-0.1292141080
-0.1953634173
0.0746290162
0.1529158950
-0.1454989016
0.2350279838
0.0691321045
-0.1719676107
0.1060502753
-0.0676671416
0.3046317995
-0.2344965041
-0.2529295981
0.1499235332
0.3596951365
-0.0405506678
0.2417086065
0.0754636973
-0.0348575003
0.0884298980
-0.2304574400
-0.1175786331
-0.1771435887
-0.0286321379
-0.0432093441
-0.0536857881
0.1863534302
0.2067156136
0.1355382800
-0.3900234699
-0.3963721097
0.1321264952
0.1860743314
0.4721279144
-0.2106904387
-0.0915266648
-0.1997399628
0.0164394081
-0.3103279769
-0.1696709096
-0.0006898110
0.1523755193
0.0442992598
-0.1056325883
0.0610610917
0.0421053730
-0.1996048838
0.0981895924
0.0385381654
0.1040662006
-0.0053264722
-0.1446757317
0.0014476952
-0.1417572051
0.0250400156
-0.3544574976
0.0263563693
-0.1603240371
0.0857800841
-0.1339373738
-0.1884182394
-0.2397741824
0.0174147878
0.0162881836
-0.1844632924
-0.0953760445
-0.4965607822
-0.2688539922
-0.2223543227
0.1356364489
-0.0898471251
-0.0916155577
0.2381020039
0.3039188683
0.0673652366
0.1107366234
-0.1716918498
-0.0584441014
0.0310369916
0.0523634627
0.1425808370
-0.0178349707
-0.2996180356
0.1851934195
-0.0750833303
-0.1837894917
0.5258259177
0.0039107259
-0.1895932555
0.1307007521
0.1589038372
0.1052786559
-0.3982959390
0.1093914956
0.1082720906
0.1655874550
0.0428967997
0.3420961797
0.3021841347
0.2206902504
-0.1839154959
0.1917216331
-0.0059000510
-0.0869686380
0.0308307260
-0.0978252292
-0.2153660208
0.1948308647
0.0121715898
-0.0389588326
0.1137419119
0.1063997895
-0.2007405460
-0.2092355490
0.0629400611
-0.0708364770
-0.2414156795
0.0797416419
0.1872028708
-0.1600612104
0.1647257805
0.3113270402
0.4714445174
0.1119639426
0.0942812338
-0.2595997453
-0.0152593199
-0.0543077067
0.0690605193
0.1146687865
0.0196572635
0.0108975135
0.2858920693
-0.0022233604
0.2201033086
-0.2887383997
0.0117428182
0.2025485188
0.3448771238
-0.0679966882
-0.3254583776
0.1456636786
0.2437054813
0.1479227692
0.0353013612
0.0948707238
-0.0882722735
0.0424603447
-0.1485112756
0.2889743745
0.2116367817
-0.0049339221
-0.1810977310
-0.0488877520
0.2332602739
0.1373164952
-0.0490337573
0.1795809269
0.0569087528
0.1904294938
0.0941807628
-0.1248101592
0.1841082275
0.1448627710
0.1913942993
-0.1494753510
0.3058331311
0.0377367064
-0.0092562558
-0.3451536894
-0.2483060360
0.1093782485
0.1517667770
0.2594825029
-0.0639653653
0.3394312859
-0.1261603385
-0.2900995314
-0.2029057294
0.2562428117
-0.1260401756
0.1171437725
0.0980170891
0.1293490976
-0.0141321104
-0.1187920272
-0.1977067590
0.0986247882
0.0044478313
-0.0444622114
0.2373559475
0.3650978804
0.2850770950
-0.0872705206
-0.1055404693
-0.1024331748
-0.2060617656
0.2646700442
0.3190326095
0.0994517431
-0.0006810721
0.0944204256
-0.0243849028
0.0110480366
0.1290941685
0.0920713395
0.4190760553
-0.0434524119
-0.1441608220
0.2114728093
0.1844993979
-0.2794605494
0.1291434467
-0.0074235518
0.0658414438
0.1014612913
-0.2222595662
0.1225562692
0.3120940328
-0.1236729920
-0.1387438476
-0.0008211335
-0.2541716397
0.0025501475
0.2963212132
0.2499872893
0.2515662611
0.0705352202
0.3529065847
-0.0370202474
0.1914900243
-0.0991646126
0.1444335878
0.0187985804
0.4330337346
0.2160895318
-0.0833767429
-0.0248769801
-0.2468023747
0.0626321137
0.1817504466
0.0575529486
0.0759714171
0.1374254376
-0.1364521235
0.1353118271
-0.1229681075
-0.1082179770
0.1180961132
0.1189043373
-0.3097859025
-0.0793097764
-0.2502290010
-0.0399858244
0.1520986259
0.0674260482
-0.1363151073
0.0082998788
0.1197831035
-0.0823461115
-0.0375418030
-0.1422633231
-0.3657490909
0.2324413508
-0.0060947323
0.1036377326
-0.2737772167
0.1577129066
-0.4760793447
0.2320176214
0.0552691408
0.0485986210
0.0087526115
-0.1691262871
0.1091730818
-0.0088395597
0.4063970745
-0.0280363746
0.1035823077
-0.0589182004
0.2436134219
-0.0349764451
0.1052665263
0.2024634182
0.1552467793
0.2810917795
0.0472147278
-0.3191785216
0.0755472779
-0.0781957880
0.3075377345
0.1913187504
-0.2089113444
-0.0266813207
-0.1160614267
-0.0416075513
0.2155569792
0.0924831554
0.1143198907
0.2341662049
-0.1129334942
0.0422805548
0.3241375685
-0.1305145174
0.0775561854
0.0444412231
0.2385650277
-0.1687506586
0.3247339725
0.1655494422
0.2766092122
-0.3805312216
-0.1433940977
0.0754308701
-0.0217331145
-0.2313767672
-0.2481679171
-0.0392434634
-0.1767302155
0.0664442927
0.1648609638
-0.1785609722
0.3273020983
-0.0663603693
0.3214755356
0.1217977554
0.0331376642
-0.0112286676
-0.0716653094
0.0496463329
-0.0413904600
0.0643425658
0.5705435872
-0.1295162588
0.1746692955
0.1772778481
-0.2890556455
-0.1415798962
0.3084512651
0.0170089360
-0.1961105168
-0.1122340709
-0.3528042138
0.2948779762
-0.0091920141
0.1916356534
0.4223925173
-0.0062399223
0.3670693636
-0.3734416366
0.0759427696
0.0794990584
0.0408299938
0.1297387481
0.2291413695
-0.0241041239
-0.1584742367
0.1211045310
0.0317035541
0.0471205227
0.0022589716
-0.2137685865
-0.3145302534
0.0549217239
-0.0269273408
0.3472290635
-0.2557569444
-0.1619653106
0.2755620182
-0.1897832751
-0.2199299037
-0.1000839621
-0.2740639150
0.0413513891
0.0601523779
-0.1028317511
0.2155734450
-0.2249557376
0.1175741553
0.0511690117
-0.0162103418
0.0177283082
-0.5089726448
0.1552042067
-0.2031112462
-0.0936108232
-0.1600943953
-0.0692702681
-0.1092085466
0.1095310524
0.2256778926
0.0697016418
0.2181794196
0.0491633229
-0.2452845275
-0.0046866448
0.4296482205
-0.0087088607
0.0132095618
-0.2401254922
0.2181632519
-0.1577949673
0.0181407090
-0.1064674780
0.0471559726
0.3562742472
0.1774205565
0.1694481224
0.1414223462
0.1962168366
0.1389359534
-0.0638744459
-0.1601705551
-0.1122659668
0.2893659472
-0.0717355683
0.0817272440
-0.0552259237
-0.0067345658
0.0204008464
0.2678629756
-0.3124173284
0.2166548222
0.2373878062
0.2843768895
-0.0583473481
0.2738879025
-0.2972412705
0.3325174153
-0.1733280122
0.1690670699
-0.3772331774
-0.1330149770
0.1472839713
0.0347392075
-0.1505483836
-0.0233875848
-0.2342184782
-0.0691826195
-0.0298359152
-0.0576990172
-0.1560437530
-0.1302164346
0.3443989754
0.0035619936
-0.1213680878
-0.1157232076
-0.0379188247
0.1829653233
0.0063327397
-0.0055376287
-0.1568722427
0.3244571090
-0.0719016939
-0.0514644682
-0.0069505554
-0.0863523185
0.0383301489
-0.0097463187
0.1391074210
-0.0411697999
-0.0190880932
-0.1947678477
0.0091827819
-0.1897663325
-0.1067148075
0.2662751377
0.0389603749
0.0243118349
-0.0448249318
-0.0964044929
-0.1479765475
-0.2214555889
0.0761178881
-0.3473055959
0.1709892452
0.5546054244
0.1014597490
-0.1501531452
0.1931767017
-0.0020660092
0.0008646220
0.1125282124
0.0275576413
0.0695154890
-0.0748502165
-0.3549210131
-0.0647823960
0.1368755847
-0.0725341067
-0.3197350204
-0.0835954994
0.1960032731
-0.5256456137
-0.3823364973
-0.0067207240
0.0850638896
0.1223248914
-0.2349823266
0.6105997562
0.0413986892
-0.1446427554
0.3941151500
0.1440382153
-0.0989549235
-0.0651142225
-0.1636491269
0.2644330561
0.3309378624
-0.0113744680
-0.2712820470
0.1609802842
-0.0579357520
0.2511788905
0.3086765707
0.1812800467
0.0948954523
-0.2403666973
-0.3911927640
0.1126752794
-0.1217908189
0.2287687361
-0.0482341349
0.1703319550
-0.2515593171
-0.0533214882
-0.1661237627
0.1379304528
-0.3473971188
0.2242335677
0.0554158688
-0.0561986752
0.0536372513
-0.0239943489
0.1447560489
0.0261936393
0.0718522146
0.2540921569
-0.2009997368
0.0796931684
0.2453227937
-0.0951310620
0.0416321792
0.2386926115
-0.2351928353
-0.1119814292
0.1299917996
0.1027449742
0.0024418058
-0.0745744705
0.3352075517
0.0059894375
-0.1981745958
0.1156462803
0.1878764927
0.0842199251
-0.3029668033
-0.3264800012
-0.0847604945
-0.1689062119
0.1768012941
-0.0199953634
-0.3755058944
-0.0370700434
-0.0339692645
0.2407192588
0.0877536163
0.0441085435
0.2565004528
0.1048242673
-0.0026300882
0.0667810589
-0.3344620764
0.1425255239
-0.1856808066
-0.3222600222
-0.1136686578
-0.0856374428
-0.1354044229
-0.2310051471
-0.1096816063
0.1067844257
0.0136500718
-0.1362542212
0.1320558935
-0.1778595746
-0.2497557700
-0.3404977024
0.3191540837
0.0463766120
-0.0663171634
0.2911379337
0.0871655345
0.0156926904
0.1303441972
0.1695234627
-0.0232085660
0.0819721445
0.1776069403
-0.1588082463
-0.1184256524
0.3793302178
0.0192922950
-0.2614492774
-0.0536059774
0.0039141322
-0.1162470430
0.1661572158
0.1075317040
0.1213391051
0.3493095934
0.3214576542
-0.1578346640
-0.0705937147
0.1143909097
-0.3474844694
-0.1735431850
-0.1805697978
0.1220310405
0.0006295784
0.3857580423
0.4165454805
-0.0554977581
-0.0904930234
-0.0640357360
0.1615661830
-0.0622303374
0.1242403537
-0.0259938203
0.0488376319
0.3511953354
-0.1170888841
0.4181414247
-0.1114164442
-0.0566404387
-0.1934580356
-0.3030432761
0.1136771888
-0.3045606911
0.0690629408
-0.0318242498
-0.0851887167
-0.0630926788
-0.0373315625
0.4325172305
0.1080125719
-0.1463594884
-0.1497696191
0.2341828793
-0.0531391129
-0.3094145358
0.0732338056
-0.4063967466
0.2203041762
-0.1025733873
-0.0632961318
0.1809000522
0.1851013154
-0.1630045474
-0.2046692371
-0.1631870270
0.0917180777
0.1195805669
-0.0090498952
0.0806237385
0.1450455636
0.0788188204
-0.1743171513
0.1617782414
0.0898488015
0.1519301236
0.1084084362
0.1458926499
0.0493781529
0.2107158303
0.1981499493
-0.1066592410
-0.0047020940
-0.2013974637
0.2116797119
-0.1430728287
0.0593049452
0.1673863083
-0.3017026186
0.1673943102
0.3929971159
-0.1105243042
-0.2817776203
-0.3367782831
-0.0233085249
0.0802237615
0.1115739122
-0.1927831918
-0.1544783711
-0.0143279424
0.1234544888
0.1196181700
0.3448139131
0.1916792542
-0.1041803434
0.1579321623
0.0609682277
0.2187647223
0.0426833071
0.2950872779
0.3686203659
0.0274432525
-0.0842091367
0.4201307297
-0.0461855121
-0.0237657391
0.0146678034
0.0466865450
-0.1420558542
0.2597882748
-0.2889910042
-0.0512154065
0.0696847737
-0.0736089647
-0.1644714028
0.2068570703
-0.1023623198
0.0237021819
0.1188115403
-0.0066295927
-0.0270496961
0.0148259671
-0.2978701591
-0.2588063180
-0.0717498735
-0.2078978866
-0.0120587042
-0.1189427376
0.3188211918
0.0152948247
0.0747605041
0.0341297165
-0.0157820694
0.1377878934
0.0287064724
0.0390889198
0.1580384821
-0.1813744009
0.0076337806
-0.1568813622
0.3278087974
-0.0655589253
0.0483321808
-0.5121402740
0.2116322517
0.0826848075
-0.0600376129
0.0588880740
-0.1209622622
-0.2109673023
-0.3277792335
-0.0422858000
-0.1661530435
0.1042491123
-0.1593655050
0.0409535579
-0.0212253202
-0.0477716774
0.2296630144
-0.1424987614
-0.0295679662
-0.0406470634
-0.3167710006
-0.0086851874
-0.0663707927
-0.0864542425
0.0760435238
-0.2779895663
-0.3086048961
0.0248518251
-0.3384815753
-0.2884305418
-0.0493146107
0.0412983596
0.0846049115
-0.0632906109
0.1820351332
-0.1706192046
-0.5164063573
0.0078322766
-0.1607076973
0.1972308010
-0.1277456284
-0.1095863208
-0.1052027866
-0.2094573826
-0.1460058838
0.0524478666
-0.2362887114
-0.1600608230
0.1157703027
0.0678859800
-0.1252790838
-0.2335518748
0.2101375014
0.2695698440
0.1502303481
-0.0374360159
0.1817723215
-0.0663906410
-0.0932382271
0.1616469175
0.2746357620
-0.2383060306
0.0669231415
0.0331918336
0.2145926058
0.0003109904
-0.0022026736
0.0672025904
0.0236945860
-0.1743821055
0.1746138930
0.2506625950
-0.0210245103
-0.1397785246
0.1194190457
-0.4680781364
0.1096474007
0.1238995939
0.0797322839
0.0453401916
-0.0861575454
0.0423254520
0.0809708983
0.1720429957
-0.0519529656
-0.0224930551
-0.2316464782
-0.0750434771
0.1106605008
0.1176277921
-0.2352826595
0.0966402888
-0.1031777561
0.1914864630
0.1257849932
0.2929488122
-0.1419855356
0.0829206258
0.1909647882
-0.5098642707
0.1696072817
0.0208841376
0.1100651249
-0.2359340042
-0.0004429972
0.0084998868
-0.0567917973
-0.0317939408
0.0010958260
-0.1526827663
0.3645100296
0.0186546538
0.1413370818
-0.1728616059
0.1609599441
0.4792399704
0.2046824694
0.1025405452
0.0319495313
-0.1914051622
-0.0349609517
0.2127614021
0.2401131541
-0.0801880732
0.0061060786
-0.0144694597
0.0703490004
0.2837837040
0.1495512575
0.1556315273
0.1325957775
-0.0515399501
-0.3020547628
0.0534688383
-0.1660773456
0.2308739573
0.1598787159
0.1145249456
0.0194070898
0.2163154185
0.1261523962
-0.0099185901
0.0737871006
0.0133859711
0.2034680247
-0.1310655922
0.2355513871
-0.2278043032
0.2889451981
-0.1124730110
-0.1507717818
-0.2074059993
0.2899754643
0.0525249057
0.0404857323
0.0091286628
-0.1427374184
-0.0535003394
-0.2309485078
0.0489641502
0.0791967884
-0.0433276407
0.0543413982
0.0144904554
0.2261125296
-0.2072735429
-0.0649969056
-0.3085772097
0.0234749485
-0.1769213974
0.0701686293
0.1345475763
-0.0512890629
0.2600216866
-0.0189193804
-0.1453299373
0.1129874438
-0.3163630068
-0.2821885049
0.0212118551
0.0029231049
0.1943544298
-0.1536327749
0.0568331033
0.3112275898
-0.0941011310
0.1017591283
-0.0973544568
-0.2922743857
-0.2976085842
-0.1358060390
-0.0016697915
0.1036058590
-0.0248295981
0.0425262339
-0.2166735381
0.1572095603
-0.2164637595
-0.0115736146
-0.0309668556
0.0147058628
-0.1521940231
0.0670250580
0.1038480178
-0.2489059567
-0.0462063961
0.1788663268
-0.1765450239
-0.2670235932
0.1042632237
-0.0629238412
0.1691273004
-0.1315753907
-0.0632494017
0.1825321019
0.2037044466
0.0675544441
0.1255746037
0.0668743253
0.0375325680
0.2319764048
-0.1177656800
0.0791895315
-0.1027655751
-0.0258852523
-0.0015227514
-0.1355472654
0.0133731551
-0.0283513051
-0.1887795329
0.3532411754
0.0185551010
0.0325276107
0.0580106340
0.1273492128
0.3748988211
0.1889466047
0.0611882135
-0.1695064008
0.1444633752
0.0335882269
0.0240605436
-0.1576868743
0.0078117768
0.2034553140
-0.0910350829
0.1049413234
0.2334609926
0.1918657720
0.0715657845
-0.0023306001
-0.1685556322
0.0811763182
-0.1881614029
0.0910729021
0.3164979517
0.1405699402
0.0016414982
0.1398027241
0.2945742607
0.1403065026
0.0509884171
-0.0751174390
-0.1385552287
0.1613679528
0.1168576702
0.1852674186
0.0595145859
0.2103311121
0.0279940516
-0.2246389687
-0.3410370350
0.1754066199
-0.1140418872
0.2984794080
-0.2090623379
-0.0481081754
0.2055347860
0.1150316149
0.1303159297
0.2390769869
0.0555261001
0.0866607502
0.0882765502
0.0958276168
0.0436293483
-0.0348628759
-0.1088326201
-0.0198559985
-0.0880327076
0.3364420831
-0.0290499404
-0.1398566514
-0.0506739803
-0.1745743006
-0.2337125242
0.0164931454
-0.0737604573
0.0601309501
0.2762768567
0.1566429883
-0.1151478291
0.1398452371
0.0006136773
-0.0906529352
-0.1023827195
-0.0581167191
0.1368533671
0.1667324603
-0.0226270240
-0.2800145447
0.2256390005
-0.0950198174
-0.0709550008
0.0296625588
0.3122509122
-0.2230187804
0.2303487211
-0.0921284482
-0.0120355496
0.0719508454
0.0765081644
-0.1190617681
0.1173515692
0.0710329115
0.1199005917
-0.1211714074
0.2974658310
0.2919971943
0.1939527839
0.1823885739
0.1817139685
-0.0087758154
-0.0612423643
-0.1565761715
-0.1283520460
0.0529127456
0.2387572974
-0.0616207570
0.2683151960
0.1589841247
0.0178326387
-0.0042087208
-0.1265010238
0.3252775967
-0.2769446969
0.1821275800
0.2309837937
0.1140013561
0.1180199906
0.0301373657
-0.1826598048
-0.0833372474
-0.2010284811
0.0125559773
-0.2472124100
-0.2823116183
-0.0636440516
-0.1176493391
-0.2767736912
0.1998518556
-0.4309216738
-0.2510933578
-0.0155157233
0.0243039336
0.2755087018
-0.1609779894
0.0594016351
-0.0077890381
-0.1971734464
0.0470983349
-0.1204941124
0.3613962829
0.0233894251
0.1824434549
-0.2082094699
-0.1650471836
-0.0701081902
0.0060536009
-0.0679407343
-0.0678584129
0.0584193841
0.0652512982
-0.0433326587
0.0320027806
0.0935527384
0.1404712647
0.0494349040
-0.1884593815
0.1047295481
0.0646811277
0.1288699806
-0.2327596992
0.1572871357
0.2782818377
0.1665179282
-0.1473084092
0.1866818815
0.0959268659
-0.1986559033
-0.1789255142
-0.2140779346
-0.1422419995
0.2187332958
-0.0095455507
0.0449297875
0.2118562162
0.1695948392
-0.1126415431
-0.0584976040
0.2667129040
0.1534969658
-0.1123180017
-0.1562862843
-0.1596456617
-0.1216041371
-0.2207843065
0.0197580084
0.1702169329
0.0920502916
0.1781931967
-0.0071185916
0.3355390131
-0.0341089405
0.0391665772
0.1635438800
0.1553773433
0.0705040470
0.1658935398
-0.1889778078
-0.1685645133
0.1345176995
-0.2495982051
-0.3205609024
-0.0272758380
-0.0917961523
0.1297729611
0.1243881583
0.1352525055
-0.2350769937
-0.2741922140
0.1854602993
0.0976877138
0.1246758699
0.1384544373
-0.1309635937
-0.0208072234
0.0852155611
0.4113091826
0.0392636545
-0.0259334650
0.1320866793
-0.0184074603
0.0481592529
0.1805077493
-0.4410116076
-0.3462139964
-0.0358784497
0.1450510174
-0.1354484707
0.0959855840
0.1772885919
-0.1286088377
0.0110815670
0.4990411401
-0.0899934024
-0.3850601315
-0.3958083093
-0.2028100193
-0.0000928979
-0.0474799611
-0.1076198965
0.1301476657
0.2373445332
0.1890129894
0.0981701463
-0.0986089930
-0.2489287108
-0.0086276243
-0.1605094671
0.0249606017
0.0792507678
0.1797876507
0.2365654558
-0.1685993224
0.1892072409
-0.3045671284
0.3019713461
0.1485135406
-0.1872430295
0.0707089305
0.1555497050
0.0754692256
-0.0653548390
-0.1629232168
-0.4049022794
-0.1664272398
-0.0053345151
0.2289859504
0.1683573723
0.0398467816
0.0307738539
-0.0184821039
-0.0050679892
0.0910169482
-0.1216151342
0.1360738277
-0.0437176302
0.2043260932
0.0551354513
0.3141402602
0.2010288537
0.0096761584
0.3339303732
-0.1112286448
0.2765626609
0.0207155924
0.1517599970
0.0872244835
0.3078577220
-0.2069368660
0.3905001879
-0.0462836474
0.2921268940
-0.1512550563
-0.0140940342
0.1872504205
0.1697594374
-0.2280483097
-0.2971872091
0.1076638103
0.0760292187
0.0585745163
-0.0877383500
-0.1328713894
0.0054220138
-0.1486025155
-0.1864558160
0.2821051478
-0.0408397578
-0.0905280709
-0.1451322436
-0.1685640663
0.0184537098
-0.1001334339
-0.0421924740
-0.1743691415
-0.1244740039
-0.0194423478
0.1251341999
0.2914965749
0.1869290173
0.1023627371
0.0035677340
0.2263303399
0.1091881916
0.0120792044
0.4415076375
0.0788829178
-0.3292760849
-0.0932160690
0.0842601359
0.2895805240
-0.0436836332
0.1861247271
-0.0829799175
-0.5572878718
-0.1162378266
-0.0780261457
-0.0682649016
-0.1550968289
0.0086122062
0.0277008656
0.2038974464
-0.3267998099
-0.0074049570
-0.1528739184
-0.0615432039
0.3067125976
-0.0701131895
-0.1511402726
-0.3202066123
0.2837218344
-0.1095147803
0.1430134922
0.1418458670
0.1372540891
-0.0076576797
0.1488854885
-0.1434116662
0.2063738853
0.0371842347
-0.4017312825
-0.2690986991
0.2408454120
0.3911586106
0.0857938305
0.3311415017
0.4537334740
-0.1291128099
0.1866315156
-0.1195373759
0.2194637954
-0.1762625873
0.0751444250
0.0129111102
-0.0281354319
-0.0637860894
-0.1311160028
-0.0007238861
0.1252108663
0.1964976490
-0.0558777936
0.2156455219
-0.2087775171
-0.1121442914
0.1703304350
0.0487923771
-0.1014208496
0.0951584429
-0.0740072355
-0.1058829427
0.1171205193
0.1251719892
-0.0068881931
0.0308497399
-0.0960950479
-0.1094451770
0.2365057468
-0.0947995260
0.1005742624
-0.0153653109
0.0585323386
-0.0109771574
0.4193919301
0.3211906552
-0.7047204375
-0.1785017848
-0.1472169459
-0.2385686338
0.0006986149
-0.2925674021
0.1156430766
-0.2180547863
-0.1385106742
0.1250377148
-0.1109659523
-0.1714398563
0.1010722890
0.1058512032
0.0103705321
0.2923969626
0.1717467308
-0.2395386100
-0.3164792657
-0.1592954248
0.3707933426
-0.1305669248
0.1165829003
-0.2891870737
-0.0150365941
-0.0796617940
-0.1128188670
0.0069272011
0.1570114344
0.0181004647
0.1172718704
0.0257772598
0.1824146211
-0.1680091918
-0.0901086852
0.3604134917
-0.0142593579
0.0233214237
-0.1894820035
0.1757937074
-0.1259766668
0.1695952863
-0.2643816173
0.0625210330
0.0167976022
-0.2483096570
0.0241415855
0.2376028448
-0.0689115375
0.0174057316
-0.0951650143
-0.2684977949
0.2221294641
0.2630466223
0.2027458251
-0.0190718677
0.0702332705
-0.0589945912
0.0917085335
-0.2533573806
-0.1851041913
-0.0951679721
0.0651229322
-0.1344838589
-0.1890593171
0.0204473492
-0.1010405868
-0.2624665797
0.2428360581
0.2044418454
-0.0999316126
-0.2497885078
0.1108326986
-0.1502726078
0.1590569913
-0.0330020860
0.0824886039
-0.0414492600
-0.0845187232
-0.0564607084
-0.2018866092
-0.2218809426
-0.0949237794
0.0302118156
0.3441399336
0.3817639649
-0.0190996733
-0.1766044199
0.2262837440
-0.1391379088
0.3521068990
0.3297881782
-0.1163028777
0.0082457671
0.0680716410
0.1799630970
0.1642644703
-0.0657679364
-0.1145648137
-0.2158194333
-0.0016411566
-0.1505230069
0.2527514994
-0.0645165816
-0.0559990816
-0.0806574970
0.0575475208
-0.1427894533
0.1458125263
0.3338394463
-0.2024301142
0.0484045669
-0.2386523634
-0.0960193574
0.2525646985
0.2717114985
-0.0845392719
0.1793608814
-0.2265875936
0.1993198246
-0.0874852017
-0.1878087223
-0.0153974602
-0.1330875456
0.2128985673
-0.0352827124
0.1456730813
0.1475351602
0.1352407783
-0.0767296478
0.0784435943
-0.1231319606
-0.0936958045
-0.1408004314
-0.1320130527
0.1119528338
0.1618069261
-0.0814847648
-0.0440168269
0.0611180328
-0.3481779993
0.0684632510
-0.2116227150
0.1142142862
0.1203657389
0.1422065794
0.0689618960
0.0608300231
0.0059946757
-0.3665280938
-0.0570251271
-0.0843917876
-0.1369647235
0.0727840289
-0.0986790434
-0.1463611871
0.1375276595
0.1249145865
-0.0594396591
0.1066134647
0.0738099068
-0.1343834847
0.1400627494
-0.2684890628
-0.1116103157
0.2366690189
0.1313802302
-0.0467826501
0.0971808881
0.1887052804
0.0057699056
0.2582936287
-0.1949558258
-0.3106736541
0.0476995818
0.2951298058
-0.0533861145
0.0268755835
0.2675971687
0.2783117890
0.2512952983
-0.0757122785
0.0862616226
0.3124375641
0.1519829780
0.0922459811
0.1688585728
0.2623008788
0.0791801140
-0.2148604989
0.3957645297
0.3118670285
-0.0667128116
-0.0318552256
0.0192498527
0.1678409725
-0.3421939611
-0.1558263600
0.1777526587
-0.0404467322
-0.1109854728
0.0279918574
0.0514563024
-0.0806330293
-0.0860898569
-0.3914136887
-0.0624180622
0.2713454366
-0.0570911989
0.0860233456
-0.3849777877
-0.0504396521
0.0406757295
-0.0064054988
0.0826915950
0.0424648710
0.1050499603
0.2177675515
-0.1581448019
-0.0245136134
0.0401573554
0.2754141688
0.1190822199
-0.0200405400
-0.0341883115
0.2608550489
-0.2652859092
-0.1640198529
0.1156917289
-0.0138640516
0.0522033311
-0.2948146462
0.1041424498
0.1489201039
-0.1165861264
-0.0670590326
0.0278842021
-0.0689051375
0.4169057310
-0.0699713752
-0.1826792508
0.0743780881
0.1050633416
-0.1585468948
-0.1763774902
-0.0288724713
0.1217594370
0.0794720128
0.0953998789
0.0848502591
0.1772763729
-0.1097535864
-0.0908494741
0.1440953761
-0.0314417966
0.2112777829
0.0258907937
0.0547446087
-0.1910959184
0.0116172051
-0.1542354375
-0.1567380130
0.1607574672
-0.0683935285
-0.0705026686
-0.0811738446
0.3643061817
-0.3666338921
-0.1196232587
0.1962309033
-0.2662855387
-0.2011302263
-0.0929505751
-0.1636845171
-0.2377353907
-0.1939817816
-0.0862187520
-0.0817444324
-0.1942661405
-0.1389824152
0.0686625317
0.0073012738
0.2600983083
-0.1927974969
0.0803518966
0.2318438888
-0.1034185514
-0.1692192256
0.3515411317
-0.2315389365
-0.0282803643
0.2345857620
0.2181127965
-0.1706692129
-0.0602514185
0.1338817328
-0.0433376804
-0.0879082903
-0.1009290665
0.0350288749
-0.2644157112
0.0199920833
0.2119570374
-0.0129804099
0.1898851544
0.0541206300
0.2898605466
0.2142776698
0.1344109625
-0.0643018782
0.0117624877
0.1622983515
-0.0698143020
-0.0548332334
0.0886410400
0.0083241379
-0.2657833397
0.0342076793
0.0835857764
-0.1430839002
0.1336495876
0.3231811523
-0.0718668997
-0.1285811663
-0.0188890733
-0.2090685219
-0.1949222535
-0.0078516426
-0.0195867512
0.4560902715
-0.3233802617
0.1557700336
-0.0387730598
0.0822216272
0.2848747373
0.0800805017
-0.1720035225
0.3320821524
-0.1967558265
-0.1035667956
-0.0434607677
0.2474417984
0.0399491228
0.2396745980
-0.2732991278
0.2237382680
-0.0369733237
0.1532695293
0.0137723982
-0.2161369622
0.2575384080
-0.2580241859
0.1054324806
0.2116966844
0.1799426526
-0.1196119413
0.0591574125
0.0934486687
-0.1518447101
0.3303857446
-0.2646622658
-0.0612499379
0.0882253125
0.0359523557
-0.3331973255
-0.1763304621
-0.0280818157
0.2643664777
-0.1526229233
-0.1100881845
0.1186721176
-0.0313818827
0.0343988314
-0.2325316072
-0.1172938421
0.0986217111
0.0616050698
0.0722471476
0.2836179435
0.2316831797
-0.1994697154
-0.1765321195
0.0111617595
-0.0952053964
-0.0932331830
-0.0839814469
0.1398123354
0.1444330662
0.2356955856
0.1919697970
0.1306049228
-0.1071616784
-0.1542288512
-0.0401219726
0.1811261028
-0.1317648888
-0.0386447124
0.2469409406
0.2167482674
-0.1130338907
0.1925011724
-0.0571533330
0.2557651401
0.1168895885
0.1844922006
0.1661683321
0.0435242280
0.0799735859
-0.1661281884
-0.1912810802
0.0025044673
-0.0097669801
-0.2841822505
-0.2704357207
-0.2115735859
0.0677498430
-0.3820156157
0.1147826612
-0.1149009466
-0.0223719683
-0.0617979951
-0.0428050905
0.1610018909
0.1076023430
-0.1284876615
-0.1751733720
0.1752654463
0.1649098247
0.0879084542
-0.2194155455
0.3108960688
-0.0763662830
-0.0752239078
0.2494908422
0.1000443920
0.1382456571
-0.3126343191
0.1380564719
-0.1251086742
0.0456179418
0.0157277696
0.2319237143
-0.0737027228
0.0905681103
-0.3524889052
-0.3768858612
-0.0776237994
-0.1319162250
-0.2274636626
0.0358038619
-0.3357902467
-0.1969781220
0.0564489961
0.0638352931
-0.1165401340
0.0103764329
-0.2498119771
-0.1326815188
-0.0865468681
0.0901494622
0.2856160700
-0.0498663932
0.0649492964
0.1605144292
-0.0648457557
0.0953470692
-0.2252324969
-0.0115881460
-0.2113556564
-0.0435327180
0.1283854693
-0.0482072681
-0.1089931726
-0.0134378029
-0.1850320101
-0.2838410139
0.1684221327
-0.0195578113
0.2640932202
-0.3713307083
-0.1146587282
-0.0576293878
0.0924733803
0.1487784982
-0.0772965178
-0.0470726229
-0.2069406211
-0.1943033934
-0.1866629571
0.0834792852
-0.1584440023
-0.0311838146
0.0486504957
0.1519607157
0.1320200711
0.1575055271
-0.1223925129
-0.0989167094
-0.0045992834
0.0057770293
-0.1293099672
-0.0169699248
-0.2704271078
-0.1421772242
-0.1514303237
0.2670524120
0.2069602609
0.0609731451
0.0773185417
-0.0825875178
-0.1409978420
0.0019940182
-0.0773704648
0.1366667897
-0.0861075222
-0.0407530144
-0.1007490680
-0.1138976514
-0.1029459387
0.4232695699
0.0603636466
-0.1876106411
-0.2010859102
0.0765449777
-0.0109818624
0.2057226449
-0.0867396891
-0.2907453477
0.0125117041
-0.0561548807
0.1156245545
0.0964757428
0.0414733589
0.1213163882
-0.1993391812
0.3561414182
-0.0079378178
0.0016955533
0.1879416555
-0.2810478210
0.2180702090
0.0669943094
-0.1336677074
0.1096182838
-0.0492002815
0.2510609329
-0.0073695234
0.4695022702
-0.0322499722
0.1532727629
0.0902077556
-0.0530090444
-0.2397320867
0.1420733631
-0.2672753036
0.1718644798
0.0909100845
0.0443283878
-0.0999682769
-0.4821436405
-0.3800575733
-0.0362752229
-0.4904086888
-0.2160853595
-0.3531563282
-0.1987017691
-0.2210797668
0.0042542508
-0.1770976633
0.0229618736
0.1002682000
0.0350428969
-0.0271014236
-0.2450956404
0.1850983202
-0.3484249711
-0.0206145942
-0.2003761530
-0.0310974680
-0.1316604912
-0.0606448539
-0.1062597036
-0.3334448338
-0.1966266632
0.1072736457
0.1278250962
-0.0510881394
0.0823504776
-0.2706221640
0.0213064384
0.1330601573
0.1643206924
-0.3055587411
0.1458403170
-0.1662398279
0.0827399045
-0.0499483943
0.0277878679
-0.1671353579
-0.0922711417
0.0767723173
-0.1512658447
-0.0847864226
-0.1446692646
-0.3097287118
0.1102250367
-0.0672583729
-0.0541657321
-0.1382238269
0.3345993161
-0.0026107535
0.2048835605
0.0137816090
-0.1474070400
0.1730739176
-0.0986181200
0.0210721586
-0.0833719000
0.0031454593
-0.1786371171
0.0942390114
-0.3715218008
-0.4522814155
0.4231365025
-0.0194197018
0.1187902167
0.0675378516
-0.2459210455
-0.2800744772
0.0420463867
-0.0843953863
-0.1206528544
0.2004039735
0.0248298235
0.0584112704
0.1324561387
0.2816769779
-0.1339583099
-0.0099505959
-0.3373197615
-0.1012239531
0.0177759770
-0.0431174971
-0.1354604661
0.0174035318
-0.0453085117
0.2655588686
-0.0909984782
-0.1687095165
-0.1003304347
0.0487069711
-0.1825278699
0.2228599340
0.1646385938
-0.1277683824
-0.1278801113
0.0192492288
-0.0391222797
-0.0432792976
0.2492610216
0.0645046979
-0.1026973054
-0.1505313218
-0.2032295167
-0.0459313616
0.0466504246
0.0294111855
-0.1214055642
-0.0549469665
-0.1189553812
-0.2410653383
0.1897307634
-0.0715206563
-0.0026915031
0.1375549734
0.0138317766
-0.1451830417
-0.1962286979
-0.0731565133
0.1956284195
0.3417966068
0.2219501287
-0.1774779409
-0.2280665040
-0.0861193612
0.0528045408
-0.0710593164
-0.1135017350
0.0883116424
0.0128299044
-0.0804595351
0.0991816223
0.2842158079
-0.0363328941
-0.0428221226
0.0593644120
0.1144459695
-0.1793794483
0.0163761303
0.0625414401
0.2989541888
0.1813973933
-0.0275931135
0.2297600061
0.0748394504
-0.2141879797
-0.1577654630
0.0099972039
0.0702160150
0.0418688394
0.2057514042
-0.0427227914
0.2529969215
0.0405811518
-0.1705076844
-0.2528497875
0.5272728801
-0.3152267933
0.0088746157
0.1725801229
0.0040303846
-0.1636551768
-0.1378946155
-0.0915001184
0.0439022109
0.0796920657
-0.0400052965
0.2429263741
0.0901643410
-0.1441967785
0.1549574137
-0.3133493364
-0.0764163435
0.0087285871
-0.0135074258
0.0833980367
0.1177367419
-0.0491605774
-0.1430748254
0.0503280647
0.3179135025
0.1266382039
0.0583577342
-0.0208899211
-0.0973524377
-0.2675682604
-0.1972508579
-0.0495413095
-0.0441528559
-0.2243647426
-0.1160926223
0.1361584365
0.2638749778
0.1733217388
0.1144363880
0.2422738969
0.3754890263
0.0994805917
0.0599049404
0.0768549219
0.0186321437
0.0312855095
-0.0071740244
-0.2163805962
0.2198399752
-0.0721328482
0.1889765710
0.0534635223
0.0566748753
-0.0457436107
-0.3571670055
-0.0693129972
-0.1404038966
0.1150279865
0.0408095047
-0.3676531017
0.0405121259
-0.0252263565
-0.2326702178
0.2874841094
-0.0058093416
-0.2490329146
0.1187214628
0.1536016464
-0.2803629637
-0.2681529820
0.1077412143
-0.0302953217
-0.0193941612
-0.0778499395
0.2068716884
0.2263023406
0.1793596745
-0.0000873643
0.3134062588
-0.0674189180
-0.1520691663
-0.0986587629
-0.0475583635
0.2395799905
-0.0516475588
0.1080806032
0.1107432097
-0.0429476798
0.3061898053
0.2429240942
-0.1496434510
-0.3344515860
-0.1185102910
-0.1045962572
0.2242160439
-0.1490601748
0.1056221575
0.1502990425
-0.1647524238
0.0271548014
-0.1574612856
0.1559210569
0.0392664410
0.1578254253
0.1843999475
-0.0784449279
-0.1502524465
-0.1126421392
-0.0643775389
