-0.2375328541
-0.2723029852
-0.1699231267
-0.1351692975
0.3698844016
-0.1662599295
0.0483123586
0.1816536039
-0.2644967735
0.2248172313
-0.1937536895
-0.1057107672
-0.2285015285
0.4306112230
-0.1214078739
0.1317104697
-0.3263952136
0.2477382272
0.2703766525
-0.2900493741
0.0274339821
-0.0529550388
-0.1803714931
-0.2317301780
0.3833217323
0.2409330308
-0.1775042415
-0.5064846873
0.3296800256
0.3995054662
0.5430476069
-0.5903747678
-0.2673175335
-0.1930130422
0.0924008936
0.4431351721
0.2149208188
-0.2820288539
0.2514281869
-0.2303985655
0.0250608269
-0.1650713682
-0.0803779140
0.0676782578
-0.4215729833
-0.1511453986
-0.0481858552
0.2608557343
0.0569716841
-0.3564264774
0.3698042929
0.3385468125
-0.0517839417
0.2550289035
0.1621337384
0.1867486984
0.0066926829
-0.0620132312
-0.1450958103
-0.0997648537
0.2155959457
0.1783011556
-0.0164651982
0.3302882314
0.2867952287
-0.0811640099
0.4425612986
0.0907273889
0.1634098291
0.2479630709
0.2854416072
0.4019017816
0.3467701375
0.4629704952
-0.1218397021
0.4573378265
-0.0356611833
0.1457671076
-0.4238538742
-0.2324616164
-0.3907072544
-0.2039435804
-0.2958844602
0.3571789265
-0.1803940684
-0.0245051235
0.3382148743
0.0594239607
0.2682642937
0.2817121446
-0.2547563016
0.1452748924
0.3408155739
-0.2968811095
-0.2406505793
0.4212222993
-0.0748596340
-0.1684214622
-0.4023640156
-0.3530376852
-0.0514043570
0.0946961939
0.6283723712
-0.4320166111
0.3104203641
-0.1368484348
0.0739154369
-0.3159715831
-0.1110202000
0.3662849665
-0.2639267147
0.0889451802
0.0089544673
-0.2586890161
-0.2465359867
0.4021198452
0.0138416803
-0.2824197710
0.2027182877
-0.2522937357
0.0035264352
-0.3873894215
-0.2347073108
0.5257207155
-0.1928819120
0.0931320190
0.4202255011
-0.0656958595
-0.4301921725
-0.0099257985
-0.4132506251
0.0607754327
0.3579691947
0.3341317177
0.0593246408
0.1670775861
0.2839848995
0.1469543874
0.1345230341
0.2366983891
-0.0818189383
-0.1110967770
-0.2135102004
-0.0240838248
0.1729097068
0.2363649905
-0.2679741681
0.0314504541
0.4618943632
0.4066546261
0.0873427987
0.4571368694
0.2727895975
0.1936673522
-0.1496339291
-0.0005673489
-0.0507484116
-0.3382694125
0.1655223966
-0.0435016342
-0.1156396791
-0.2886501253
0.3572197855
-0.0508973040
0.1845638454
0.1925249100
0.0563193075
-0.0430909358
-0.0498611704
0.1394657940
-0.2040225565
0.1708015949
-0.0242951605
0.3614743948
0.1941525787
0.2238852233
-0.4884637594
0.0215426795
0.4885595739
0.3700091541
-0.2870890200
-0.0571154729
-0.1724924147
-0.1229059994
-0.3126538098
-0.5764462948
0.2212141454
-0.1050558537
0.5093307495
-0.2613071203
0.3243655860
0.1232801303
-0.3800517917
-0.0922647864
0.3762247860
0.2444481403
-0.2245560288
-0.0974634066
-0.0648155883
-0.0145223532
-0.0186721012
-0.2946560979
-0.3873917758
-0.5348199606
0.1849857420
0.2584596574
0.3817510903
0.0779922381
-0.0715157911
0.1347538531
0.1861624569
0.5024904609
-0.0240396876
-0.0938566327
-0.1911345422
0.4499597549
-0.0403298363
0.1399553716
-0.0752483010
-0.2325564027
-0.0140137309
-0.2571371198
-0.2734740674
0.2547599673
-0.4842649996
-0.2909624875
-0.3279143572
-0.3049728274
-0.2761313915
0.0494659953
0.4200631678
-0.1174430177
-0.2347310483
-0.2571463883
-0.5616992712
0.0327011272
-0.0716657266
-0.0061952248
0.4845535159
0.0138216363
-0.2072601914
0.1937209219
-0.3755058050
-0.0814140514
-0.4206808209
0.2463990301
0.0379397944
-0.0351085961
0.2157409042
0.2353504300
0.1694161743
0.1076668426
-0.1229992732
0.2740080953
0.1743747443
-0.0919725820
0.1292371750
-0.2656689882
-0.1656914800
-0.2809953094
-0.4261896908
-0.1789498627
0.1323067546
-0.0817102566
0.2915464640
-0.0243269317
-0.1753572226
0.0907299519
-0.3410871923
-0.1075396016
-0.1819260418
0.0989153087
0.3574133813
-0.3525931835
-0.3171190619
0.2114436924
0.1613995880
0.0801365376
0.0271259211
0.0833239853
-0.2110048085
-0.2518246472
0.0086457636
0.1498882025
-0.2287842035
-0.1211725175
0.0651159510
-0.2076060623
0.0557945780
-0.2901305556
0.1427319646
0.3064208329
0.2173948586
0.0901580378
-0.2748384178
0.3464019597
-0.0797493756
-0.3405873477
-0.1907840818
-0.1171455607
-0.2635078430
0.1308403611
-0.2973999679
-0.0057194685
0.3200018704
0.1507631093
0.2310828120
-0.3757545054
0.3180679679
0.2222106457
0.3258829713
0.3305506408
-0.3052388430
0.1589091867
0.3606135547
-0.1509070992
0.1755995750
0.2098018080
-0.3024205565
-0.0129992645
0.2177579552
-0.0255642496
0.1948166490
-0.0171197969
0.0453527719
0.1045445874
-0.2318966091
-0.2820450366
-0.2278423607
-0.3137606084
-0.2123842984
-0.1513797641
-0.1520789415
-0.4560717940
-0.3680428267
-0.1667798609
-0.1063057259
0.3136512339
-0.1729219258
0.1476246119
-0.3106796443
-0.0428763777
-0.2127644569
-0.1937712729
0.1828079522
0.4846766293
0.1971934736
-0.3552609682
-0.3657153845
0.3110575974
0.0044444595
0.0937012509
0.2854390442
0.2790778577
0.3156113029
0.1855202764
-0.0873443633
0.1667717844
0.4820918739
0.3650765419
0.3978893161
0.3345205188
-0.1531691998
0.1860669553
-0.4207729697
-0.3533415198
-0.0994108096
-0.1722199768
0.1774402410
0.3727041185
0.0975450501
0.2941013873
0.0471160039
0.2134582251
-0.1595091969
-0.3605400026
-0.1528226733
0.4955316782
-0.4049188495
-0.0455780774
0.1431956887
0.3263576329
0.3690460920
-0.1555924565
0.1972146183
-0.1287962645
0.1235240921
0.3357537985
-0.2639026344
0.4032483399
-0.0480208173
-0.0297448039
0.0778816789
-0.0860300139
0.0702278763
-0.0242779441
0.0775969326
-0.1539833546
-0.2413137257
-0.1826078147
-0.2459189445
-0.2285645455
0.0082332902
-0.0958162770
-0.1206416562
0.2877052128
-0.3317809701
-0.1155719459
-0.2744878531
-0.0331348367
0.0808703750
0.2206894159
0.0749288127
-0.0342077874
-0.0506653860
-0.0640753061
-0.1548748463
0.1497286707
0.2037135214
0.0159160215
0.1493921280
0.3244229257
-0.2791161835
-0.1547894329
-0.1102024019
0.0166699439
-0.1527059227
-0.0447468720
-0.3347103000
-0.2013821900
-0.1083383411
0.2252313197
0.2810465991
-0.4237286150
0.0120560098
0.1510761231
0.4897140861
-0.1232555658
-0.2047832310
-0.0072344374
0.0263504069
-0.2435389012
-0.1715136468
0.0074719018
-0.1631208360
-0.3157491982
-0.1499683261
-0.1144927591
0.0442164391
0.2719970345
-0.3967821598
-0.0426764451
-0.0339691229
0.1773241907
0.3319903612
-0.3336749375
-0.1075921729
-0.4540253282
-0.3845362067
-0.0396914929
0.3792851567
0.2519651949
-0.1370058805
-0.2525324225
-0.0200410634
0.1836901605
0.2995760441
-0.0270970855
-0.1475692987
-0.0479621515
-0.0639324114
-0.0815354511
-0.3593925834
-0.4857494235
-0.0774376616
-0.1224666610
-0.2258488387
0.3014072478
-0.1396825761
0.0569049083
0.1659985781
0.2619015276
0.2873444557
-0.1794785857
-0.1646936983
0.3674605787
0.0248168837
0.5716071725
0.0572998077
-0.5795910954
0.1306589842
-0.1892995834
0.2919307947
-0.0365865342
-0.1365154088
0.0860735402
0.5640934110
-0.2369392067
0.4383552969
0.3585344255
0.1785168201
-0.4095807076
0.0371959135
-0.2275826931
0.3392764628
-0.2929087281
-0.3120841384
-0.4588060379
0.0882649422
-0.1615940779
0.0731336400
0.4486964047
-0.1045226008
0.3579007387
-0.4554598331
0.3040118515
0.1345787942
0.5112197399
-0.2556285858
0.2993666530
0.4174559712
0.2346955538
0.1520348936
-0.1101051793
0.0924742520
0.1653215289
0.3007885516
-0.2148999721
0.0804997832
0.1761514843
-0.1225410327
0.1182852462
0.0157984309
0.1522340626
0.1335495263
-0.2634414136
-0.3738831282
0.3571662903
0.2512454987
0.3049708605
-0.2784933746
0.0612134710
-0.0641241372
-0.1529427469
0.1571641415
0.1485949308
0.3717799783
-0.3217877448
-0.1710840017
0.3536625504
0.2886737287
0.0842917711
-0.1304197013
0.1479588896
-0.1958097368
-0.2713232934
0.0178563111
0.2893056273
0.1605450511
0.3375857472
-0.0998107493
0.3466594815
-0.3900076449
0.1195300370
0.0302483197
-0.0237047113
-0.3020176291
0.2802909315
0.1296939254
-0.0375171602
0.4745570421
-0.2125904113
-0.6234378815
0.2641124725
-0.2014031261
-0.0942864120
0.1841447502
0.3932579458
-0.2488052696
0.0892708823
-0.2571363449
0.5801309943
-0.0715201274
0.0836283714
0.0563573651
-0.0985602289
0.4092409015
0.2112890184
0.3798957169
0.1638610661
0.1818642318
-0.1469013244
-0.1848799288
0.2199527919
0.3371405900
-0.4158923030
-0.0489083007
-0.4436104596
0.2104076445
-0.2792093754
0.1845387667
0.0127820680
-0.2048909813
-0.2059838921
-0.2933316231
-0.2474929094
-0.3411349058
0.2317885458
0.1590515971
-0.3700065315
-0.3787056506
-0.0494429506
0.0528735630
0.2496959418
0.1854032874
-0.1765481681
-0.1325939298
0.4134383798
0.4309967458
-0.0738875866
0.4245239496
-0.1151526719
0.1464872211
0.0283273309
0.4684789479
0.3367068172
0.1932781637
0.5370907187
-0.3405422866
-0.0657563210
0.0532349423
0.1484045535
0.1413578689
-0.0886961818
-0.1213051081
0.2762486041
0.2658582330
-0.2725126445
0.0109947035
-0.0173140597
0.3835287690
-0.1214514449
-0.4080967903
-0.1550790668
0.1151664406
-0.0066203838
0.0062241275
0.2133213878
0.1736676097
-0.3693934977
0.3147162199
-0.0784344822
-0.1022972390
-0.0474947132
0.0665992796
-0.2008334547
0.1369883120
-0.2579880953
-0.5089015961
0.2134380043
-0.0449493788
0.5302873254
0.3293091357
0.4169376194
0.0377300121
-0.2917521000
-0.1514019817
-0.2558479011
0.2468316406
-0.1613620222
-0.5059986711
-0.0021596928
0.0607845411
-0.2835766077
-0.1264690161
-0.3634180725
-0.0803745389
-0.4703281820
0.0874249190
0.0863585994
-0.0666363239
0.2468005121
0.3471118510
0.0997046828
-0.2300303876
-0.0899790600
0.1454610527
-0.0626692027
0.0369097330
0.2424644828
-0.4018701613
-0.1007526144
-0.1074619591
0.5486252308
0.2178901285
0.1057126671
0.2048975378
-0.1052115336
0.0980264246
-0.1846707910
0.2294733524
-0.1521634609
-0.1405638903
0.4014266431
0.1820694059
0.2046142966
-0.0449812002
-0.1605704129
-0.2409471869
-0.1110880747
-0.1117241457
-0.2641510963
0.3929351270
-0.3047721386
0.2275494188
-0.1885676086
0.1197594404
0.2446270138
-0.1781497151
-0.2903095484
-0.3755552173
0.2234082222
0.0371423662
0.1802545637
0.1244565248
-0.0787350759
0.0906731486
-0.2370075285
0.1732451022
0.3017035127
-0.1799309105
-0.2625066638
0.1424473673
0.2099950314
-0.3627743721
0.3477977812
-0.1115470603
-0.3608499765
-0.2021831274
-0.1809148490
0.2478118539
-0.1573886573
0.2977084517
-0.1050520316
0.0229980554
-0.1296884269
-0.2191879749
-0.1837608516
0.1253481805
0.0826375261
-0.1948204935
-0.2512728274
-0.2501867115
0.3033407629
-0.2452670485
0.1154642031
-0.3685861230
0.0766500756
-0.4387189448
0.4835090041
-0.2486575395
-0.3180341721
-0.0477998815
-0.1085546985
0.0591271445
0.3175778091
0.0578451529
-0.2520636022
-0.1849664003
-0.0767623037
0.3202780485
0.1874216497
0.1457921863
0.1776761264
0.1139403731
-0.0431581773
-0.1554398388
0.0837030113
-0.0236719511
-0.2679956853
-0.3030205369
0.3167479932
-0.3542279601
-0.1318796277
0.4273636341
-0.1308812350
0.0578866117
-0.2096875161
0.1149429828
-0.4606327116
-0.2979631424
-0.0125215407
-0.2935987413
0.1307440102
-0.1317389160
-0.0462282039
0.0983053744
-0.3628382683
-0.3168412745
-0.3155500591
0.4230704904
-0.4044238925
-0.3591614366
-0.2485466152
0.2469361722
-0.1648903638
0.1985514909
-0.0739684701
-0.2865645885
0.2492287755
-0.0958028659
0.1024342775
0.2848027945
-0.0055075558
-0.0472919121
0.1266468614
0.3456295431
-0.3503809571
-0.0631192178
-0.2230945677
-0.1750705689
0.1832602620
0.1649141014
-0.1665066779
0.1688221693
0.2961604297
-0.2570256889
0.3385696113
0.2238366753
-0.0595900975
0.0440386012
-0.3103426099
0.0300557632
-0.2485464066
-0.1336841285
-0.3903356791
-0.2622630000
-0.1063419431
0.3936347067
-0.0746337846
