0.0168480594
-0.0117146512
0.0150420368
0.0162408557
-0.0325439982
-0.0321887434
-0.0316062011
0.0222256687
-0.0221621748
-0.0206964277
-0.0139341280
-0.0044827294
-0.0029611303
0.0069184219
-0.0175214969
-0.0139969829
0.0103079295
0.0058663241
0.0098187989
-0.0196967255
0.0182902459
0.0310801975
0.0065815528
-0.0117569081
0.0068392651
0.0090755075
0.0203168560
0.0047016586
0.0263607539
-0.0349618793
0.0430891551
-0.0047857915
-0.0230954941
-0.0525200963
-0.0052462006
-0.0155546702
-0.0165762398
-0.0015125965
-0.0065307324
0.0078680143
-0.0152222300
0.0175784081
-0.0162014011
0.0168297589
-0.0018028256
-0.0021271955
-0.0189944226
0.0168476682
-0.0045939102
-0.0323050022
0.0081070075
-0.0341346487
-0.0199399721
0.0062805763
0.0118136555
-0.0034650560
0.0286567789
0.0112691382
0.0236478504
-0.0200185627
-0.0177956857
-0.0131899221
-0.0368065499
0.0213311464
0.0086250110
0.0022582412
0.0129875084
0.0000362825
-0.0196262617
-0.0303443465
0.0036653478
-0.0125885913
-0.0107780602
-0.0300086811
-0.0110643758
-0.0020591733
0.0252193641
0.0007768779
0.0060242512
0.0134727657
0.0087011242
-0.0057217055
0.0360457264
-0.0114764702
0.0248749349
-0.0350877866
-0.0195478946
0.0192251168
0.0062787095
-0.0221907794
-0.0229466464
0.0307327118
-0.0338173509
0.0148509312
0.0050841342
-0.0254490003
0.0176935848
-0.0069244811
-0.0184473172
0.0061214599
0.0274768472
-0.0207124371
0.0326833166
-0.0164458584
-0.0112018716
0.0072800010
-0.0179162938
0.0064572436
0.0263791028
0.0099287378
-0.0168270227
-0.0127731198
0.0016672490
-0.0287569612
-0.0006424573
-0.0336290598
-0.0088740671
0.0384865366
0.0167280380
0.0056603421
