-0.0045602457
0.0512459576
-0.0187935680
0.1135967299
-0.0200704783
-0.1267949939
0.0711307973
0.0435542092
-0.1351630986
-0.0257019307
0.0939926133
-0.0390765816
-0.0734386593
-0.0852744952
0.0786471590
0.1117571071
0.0587017238
-0.0248705279
-0.0198694784
-0.0787070245
0.0569943227
0.0698120445
0.0555826984
0.0085784951
0.0052277278
-0.0901897401
-0.1022312716
0.0463031456
0.0565306433
-0.1134425625
-0.0525014289
0.0155836297
0.0714473650
-0.0613709912
0.0090146465
-0.1409797370
0.0046270401
-0.0166870225
0.0725235045
0.0155751193
0.0931423157
-0.0197024755
-0.0837349296
0.0412225910
0.0206783693
-0.0250840969
0.0304180626
0.0903566480
-0.0739024132
-0.0514868423
0.0597008690
-0.0265305378
-0.0564824902
-0.0268213432
0.0547396839
-0.0891363621
-0.0642248616
0.0880034864
0.0255320650
0.0118011180
0.0891925469
0.0360350013
0.0477145500
0.0976455808
-0.0602657720
-0.1183989793
0.1392630041
0.0899255127
0.1176846623
-0.0906014144
-0.0138567677
-0.0129093770
-0.0824767426
0.0321555920
-0.0818675086
-0.0951761827
-0.1034574583
-0.0069630877
-0.0049989708
0.0186635461
0.0615974180
0.0445192903
-0.0265094452
-0.0307276733
